3621 100
<PAD> 0.20271853 0.52305317 0.3344387 0.4748173 0.5412989 -0.09007718 0.53666264 0.13225588 -1.1756673 -0.108315505 0.11347813 -0.6966843 0.048359673 0.16110466 -0.573896 0.26165408 -0.04177992 -0.105601184 -0.16669287 -0.06293693 -0.21212283 0.11944258 0.10358109 -0.2631425 0.31442344 -0.3431724 -0.035582125 0.48483968 -0.1476516 -0.50920886 0.22292209 0.11095972 -0.55152684 -0.90262616 0.049242903 -0.04860279 0.12640713 0.030873632 0.39863622 0.1999909 -0.015384699 0.047876738 -0.14881797 0.0035156107 0.36878645 -0.14620046 -0.21962437 0.15164535 -0.29944742 0.5020363 -0.059841987 0.31277478 0.26063046 -0.20038398 -0.08055036 -0.16342184 -0.20653439 0.03029036 -0.18532239 0.26449063 -0.40496936 -0.078736536 0.10344986 -0.09833836 -0.01603406 0.19153439 0.007979084 -0.15443277 -0.13182712 -0.03290673 0.3843509 0.18813324 0.02810275 0.02338476 0.03184462 -0.4649589 0.39468566 0.3404474 -0.5624224 -0.09987208 -0.15405753 -0.18825807 0.2957567 0.21240553 -0.03099855 -0.2685553 -0.019964937 -0.47380054 -0.34942016 0.42327765 0.19378138 0.34157127 0.5164539 0.62242806 0.21984579 -0.48877096 0.17077903 0.13343672 0.3518475 -0.06069778
yang 0.09503634 0.31577936 -0.16673051 0.056940902 0.03892494 -0.14167894 0.20961817 0.894241 -0.62252265 -0.13119438 -0.39355218 -0.4912803 -0.25248033 0.36439937 0.0692226 0.53117883 0.6433723 -0.07988577 -0.6228884 -0.38505057 -0.162473 -0.16853295 0.104668416 -0.65288466 0.21861276 -0.3516394 -0.34811702 -0.16939037 -0.15068391 0.006795658 0.23758684 0.4707793 -0.59394705 -0.18170884 -0.3360978 -0.25438488 0.14395778 0.5527629 0.81442934 0.46689212 0.14799966 -0.49648884 0.17364675 0.23471466 -0.20962484 0.21794875 0.6565086 0.15003708 -0.29195592 0.0811837 0.34584698 -0.15604362 0.027844148 0.0640302 -0.45908278 -0.045752585 0.36494663 0.9145587 0.4294411 0.10273215 -0.80586624 0.19660594 -0.52072567 -0.444152 0.22486398 -0.35027313 0.12404029 -0.38681483 0.38865918 0.5217515 -0.19545089 -0.329673 0.1253262 0.32052207 0.5236748 0.025436535 0.047339246 -0.2824554 0.14380342 0.3420275 -0.58391523 0.14293213 0.27821806 0.29672867 -0.33730957 -0.15659314 0.20809264 -0.04330984 0.24859427 -0.6568339 0.14975318 -0.24966837 -0.09037823 -0.19784114 0.2189415 0.22498141 0.5724182 -0.92878497 -0.014911146 -0.037036367
dan -0.21295205 0.068306915 -0.011037573 -0.006857713 0.13795932 0.3590311 -0.96432924 -0.045337234 -0.86226285 -0.5053862 -0.35087642 -0.8352127 0.100607865 -0.3995179 -0.3012472 -0.35117137 0.7341218 -0.081841 -0.7068683 -0.6620005 0.13227053 0.15401973 -0.6286566 -0.3370996 0.13906443 -0.38195097 -0.060296655 0.4779076 -0.2069444 0.46268395 0.03134629 -0.24330777 -0.38154808 0.1869876 -0.010461659 -0.5183276 -0.13800351 -0.7980714 -0.06293059 0.70423627 0.07904854 0.7036649 0.12506941 0.052685015 0.30686185 0.36651516 0.12145998 -0.30335727 0.50910985 -0.25639737 -0.061396144 -0.0048519126 0.06331014 -0.8052179 -0.16394146 -0.38237768 -0.45395586 -0.25763762 -0.80021256 -0.33961922 0.23668109 0.18769509 -0.0095896125 -0.27960646 0.27753323 0.5466804 0.6601626 0.0815703 -0.06614343 0.20863079 0.5928967 0.56651825 0.404595 -0.01126038 -0.26056933 0.34592715 0.39122248 -0.31477275 -1.0392164 -0.025498291 -0.1724842 -0.836989 -0.4447894 -0.27017537 -0.20260632 -0.2875691 -0.49913013 -0.6687287 0.921652 -0.26444945 0.23167378 0.78151906 0.58845186 -0.31058463 0.36410472 0.84874225 0.3183599 0.1033066 0.8902746 -0.11004576
apa -0.19463436 0.40164423 0.35545665 0.11178731 0.8268029 -0.59578776 0.64792967 1.1364192 0.2516907 -0.600531 1.0875562 -0.0032766988 -0.040060256 -0.6894977 0.5246848 0.2992848 0.79304266 -0.2985723 -1.0424755 0.37085673 -0.20454031 -0.32041198 0.23674226 0.48827842 -0.9180649 0.39619505 0.60380596 0.10334025 0.40908566 -0.4051534 -0.051216245 -0.3001745 -0.17003377 -0.16353118 -0.24045795 0.36810502 0.115619525 0.11390424 0.008203714 1.1120263 0.27004722 -0.25852895 -0.087633744 0.7073597 0.66686267 0.06259248 0.43008947 -0.5425454 -0.41821238 0.009049284 1.0379983 0.6312418 -0.33797222 -0.82143533 -0.51544404 -0.26612023 -0.391404 0.30182132 0.5638119 0.12818377 -0.2706212 0.55360585 0.36411282 -0.5018471 0.42274302 -0.596235 0.40092748 0.6009549 0.27430004 -0.72149676 0.8756509 0.14557652 0.3188513 0.50607395 0.17455204 -0.7070688 -0.56547457 0.20182537 -0.49747458 -0.0069262553 -0.7892004 0.7885771 0.53057307 0.39793736 -0.43201947 -0.13599108 -0.031344973 -0.34692135 -0.27481148 -1.0913906 0.14801703 -0.26829106 -0.40510932 -0.63862604 0.17402567 -0.02683585 0.3884328 -0.47275722 0.5179562 -0.30240127
di 0.0704287 0.51309127 0.018574549 0.013622953 -0.050905652 0.6658569 0.31286287 0.63542604 -0.7394157 0.92087674 -0.09454946 0.63433367 -0.032058924 0.45099208 0.27978563 -0.22595426 0.1322339 0.95992386 -0.16655721 -0.6857685 0.023704417 -0.51810265 0.10113216 0.3262983 -1.4811877 -0.1172206 -0.18577512 0.8688787 -0.18405208 0.16963068 0.05835872 0.26860222 0.14688797 -0.74276114 0.5534326 -0.65544784 0.12195674 0.8140274 0.4380326 0.25572076 0.56792945 -0.46094877 -0.52858883 -0.06261385 0.6778228 -0.14494088 -0.39904827 -0.14939348 0.42744884 -0.8536574 0.3138171 0.26640937 0.5867911 -0.26254204 0.2942577 -0.55391604 -1.3889298 -0.93619776 0.09065435 -0.45905554 -0.11338871 -0.5280054 -0.1276926 -0.16177775 -0.08877947 0.39047617 0.7696522 0.4915331 0.40867275 0.7600056 -0.98063374 0.33527794 -0.3421076 0.4596833 -0.08475703 0.44731408 0.17092721 0.47776282 0.55281794 -0.7726914 -0.8521164 -0.88993555 0.75232565 0.124592595 -0.15382616 -0.33295175 -0.04966544 0.21675223 -0.3427523 -0.59896165 0.85581166 -0.41153976 0.18787464 -0.061071657 0.03717734 -0.544671 0.38184994 0.34826896 0.1680906 0.15231659
untuk -0.6585006 0.16687629 0.33361393 -0.44122872 -0.28314623 0.88315594 0.47649258 0.48482355 -0.87995505 -0.18205139 -0.8102738 -0.108078085 -0.10374602 -0.40444818 -0.6211752 0.041825127 -0.043649618 -0.34596738 -0.40378138 0.03633248 0.052408256 0.12969556 1.3242632 0.878295 -1.0092689 -1.1867402 -0.28118297 -0.4837021 0.83710843 0.42165717 -0.1627531 -0.24162774 -0.5932771 -0.6751244 -0.081722595 0.64985216 0.5257085 -0.33829448 0.8107438 -0.35961086 0.8654377 -0.38386542 -0.45177662 -0.45344552 -0.4791954 -0.2531559 -0.9719816 0.5767727 -0.17720926 0.34433007 0.11290461 -0.33930892 0.06514218 0.73253536 -0.50441074 0.42476237 0.47720408 0.12996845 -0.28088623 -0.29285058 0.37766358 -0.03572873 0.4138785 -0.6718479 0.6981546 0.5602705 -0.13866778 0.03897465 -0.44338188 -0.5197384 -0.16417523 -0.2130512 0.8300332 0.1467556 0.10856786 0.37239724 -0.16051377 0.2382086 0.36048406 0.2463557 1.0058084 -0.60867685 0.50832206 0.04661872 -0.66368496 -0.7180867 -0.5145652 0.43596277 -0.16115275 -0.0788048 0.84927684 0.37832218 -1.1110432 -0.32986495 0.36725998 0.36668247 0.35962403 0.13355885 0.41442218 -0.2650091
bagaimana 1.1239214 0.54661304 0.7043536 0.358108 0.25282854 -0.9213754 0.19335508 0.38406226 -0.24705724 0.09262163 1.4450902 -0.7770458 -0.28638667 0.7637355 -0.22237867 -0.17813432 0.8209625 -0.12512553 0.4932769 -0.5249929 0.38672924 0.08722636 0.8392561 0.4650109 -0.81406397 -0.24219528 -0.022609815 -0.40818307 0.044299107 -0.19227159 1.1699699 0.8840591 -0.39299 -0.20068976 -0.56022334 0.06825398 -0.22815414 -0.6447636 0.40326437 -0.19549912 -0.0012287359 -0.5741999 1.0153528 -0.18331344 0.5087449 0.69501823 -1.2359483 -0.68413216 -0.693072 -0.33020502 1.6308929 0.23524277 -0.06175196 -0.2393062 -1.5466561 -0.12705213 -0.24122725 -0.74767476 0.0069104256 -0.21939963 -0.018068437 0.18570955 0.495258 -0.27665445 -0.23678972 0.17852126 -0.67947775 -0.058611747 -1.1765664 -0.9156011 -0.1662711 0.78491837 0.012921561 -0.13623263 1.0102957 -0.24629943 0.50948673 0.2527045 -0.017515643 0.6784844 1.2032285 -0.93944335 0.22581348 0.10611646 -0.40685266 0.059953045 0.85748726 -0.5350362 0.040736355 -0.39293057 -0.21787855 0.120040886 -0.3520211 -0.34363133 0.33542132 -0.16000938 1.3674173 -0.8010608 0.2630548 0.38693458
dengan 0.6826863 -0.06939602 1.63537 0.8670501 0.39285082 0.46808168 0.53157467 -0.01026905 -0.93757945 -1.0281291 -0.15944676 -0.18924464 0.08541093 0.018112399 -0.14953719 -0.6089151 0.6806674 0.58815634 -0.093348615 -0.9324953 -0.052180436 0.67982876 0.26528934 -1.0425988 -0.3798055 -0.16958465 -0.18919304 0.00082532805 -0.4644241 1.1894361 -0.23141606 1.0492743 -0.26444384 0.19486482 -0.9027768 -0.17915668 -0.8004124 -0.15341155 0.062460568 0.30126613 1.1388711 -0.84225976 -0.8319357 0.44047037 -0.14882675 0.22472674 -0.7932178 -0.29982316 -0.3909995 0.15191545 0.52729374 -0.5883519 0.98542625 -0.8937478 -0.85443974 0.49116257 -1.5831482 0.33363944 -0.2774035 0.26177195 0.44000992 0.42363447 -0.33418635 0.56957483 -0.36671934 0.2697418 -1.1043115 0.9851295 0.26325956 -0.65600455 0.34478608 -0.5867071 0.52155906 -0.07305853 -0.58477217 0.054417055 0.40234295 -0.40851483 -0.19480447 -0.2879684 -0.454298 -0.19316202 -0.41627094 0.57157564 0.74348205 -0.21454053 0.10043312 0.743975 0.10048405 -0.35446092 -0.43819073 -0.16881482 -0.81915414 0.17946605 -0.28000808 0.28239143 -0.038618937 -0.529749 0.10766082 -1.0288326
ini -0.83643454 1.012122 0.48509118 0.45418048 1.0672159 0.9692686 0.25820446 -0.037287757 -1.1189148 -0.40353078 0.22318728 -0.55504954 1.3622557 -0.13755229 0.83331025 0.50144327 -0.216458 0.0698516 -0.9662374 -0.6890597 0.64726835 0.3592997 1.0601739 -0.14007564 -0.43228674 0.10933352 -0.28348273 -0.708536 0.6775906 -0.70764714 1.139021 -0.3956907 0.65126806 0.89138997 0.27580717 0.3882748 -0.094093315 0.13620512 0.37892336 0.09794333 0.06865493 0.013414677 0.3726028 -0.11206083 0.092247464 -0.22260599 0.08682456 0.14513744 -0.5398346 0.63519603 0.76544935 0.21863839 -0.1872598 -0.98068726 -0.03979903 -0.17231867 0.24663894 0.31619558 -0.07989783 -0.514012 -0.29059818 -0.24242125 0.2508047 -0.3359463 -0.6211421 -0.09091381 -0.06658826 0.37039313 -0.40006757 0.39158577 -1.74308 -0.27290913 -0.09293985 -0.09037326 -0.16536164 -0.6149179 -0.39159092 -1.4764708 -0.64929503 -0.13958953 -0.3139615 -0.68185556 0.55978423 0.93510586 0.45122585 -0.41753837 0.58444494 -0.6779417 -0.6840017 0.23466405 0.18071435 -0.8214801 -0.002201276 0.07524551 0.30080366 1.020383 0.3298108 0.27172905 0.4802888 -0.16192447
mengapa -0.35921144 -1.0091392 -1.3103411 0.26334277 0.80907136 -0.84339046 -0.80805606 0.87737525 -0.55222505 -0.32589853 0.37529463 0.2993386 -0.8107085 -0.56956047 0.47028273 0.18858126 0.59496564 -0.5091275 -0.019775296 -0.33598223 0.21244717 0.4807661 0.25148854 0.53283 0.34241778 -0.1391419 -0.7196235 0.7788952 -0.029009724 -0.11307309 0.669356 0.56703055 -0.33169597 0.119547516 -0.1359067 0.67451185 -0.8156536 0.31514606 -0.07206166 0.7167015 0.8157553 -0.00446409 -0.73730266 0.17050496 0.5718509 -0.20993097 0.47925934 -0.004577093 -0.38792235 0.30846202 1.2268004 1.5577662 -0.43296233 -0.102355495 -0.16165714 -0.9958383 -1.029435 -0.5642798 0.41767582 -0.025588708 0.51243997 1.2980763 1.415115 -1.170716 -0.87744904 -0.29142773 -0.9862193 -0.65141314 0.6430992 -0.56797147 0.44270664 0.5844438 -0.6446111 -0.41541636 0.6515156 -0.85376024 -0.38659444 -0.34696132 1.6605389 -0.4798243 0.38128322 -0.010874896 -0.4539928 0.18742149 -0.22545049 -1.5706412 -0.79932916 -0.16694485 0.36473697 -0.094236225 -0.31695455 1.1989099 -0.1540859 0.38557896 1.2042145 -0.231475 -0.9995872 0.4717885 0.85569865 0.024006035
dalam 0.73997635 0.46922886 0.9655635 -0.7318051 -0.17820331 -0.6092498 -0.45669827 -0.010686135 -1.4889083 -0.78247285 0.42934108 -0.40688807 1.2586437 -0.5084009 -0.07537375 0.05273163 0.9441045 -0.28464532 0.30852267 -0.7261752 -0.30919656 -0.29377812 0.9781977 -0.785433 -1.1612076 0.03970205 -0.2176761 -0.0058398326 0.59019715 -0.322848 -0.34540865 0.100110784 0.80768836 1.12565 0.39616838 0.47426674 -0.029159667 0.12150285 -0.6481466 0.19641581 0.096359745 -0.6305602 -0.34259647 0.52089155 -0.91215897 -0.3828566 -0.27777418 0.24463105 -0.9137197 -0.38223016 -0.031762406 -0.19542323 -0.365328 -0.032739703 0.54187816 -0.55752623 -1.0965713 -0.5963395 0.23283026 0.2359476 -0.87490433 -0.0020418968 0.28041264 0.15591097 -0.3830206 0.4996742 -0.51946115 -0.52212214 0.2146148 -0.1873585 0.38645235 0.7752698 -0.65312856 0.5622898 0.5939489 0.66444874 0.75756514 -0.946117 0.16007681 0.18241267 0.14031808 0.610096 0.5838663 0.9828493 -0.032327667 -0.25251925 -0.5474818 -0.04908383 0.47704077 0.8310907 1.4626313 0.18394522 0.5114451 0.3227151 -0.67857987 -0.15151006 1.1145619 -0.6378756 0.21210898 -0.5061237
dari 0.24756338 1.3617233 0.40738603 0.57894033 0.6572896 -0.27561793 -0.33928168 0.105668336 -0.16438793 0.119189166 0.71793944 0.46000478 -0.113261 0.009405656 0.41209748 -0.290063 -0.26947588 -0.5211477 0.03617216 -0.89025366 -0.612729 -0.5907755 0.78783786 -0.02027675 -0.7426316 -1.7828497 -0.65305626 0.46568984 0.12660465 0.44711217 0.5472625 -0.436916 -0.47315276 0.20017637 0.31051338 -0.35062617 -0.59119684 -0.3350736 -0.5323316 -0.20566353 -0.20535699 -0.28790006 -0.1328881 0.56177723 -0.17214514 -0.8140437 1.0165459 -0.20185293 -1.0622978 1.3158362 0.09766188 -0.17067362 0.8222431 -0.21170251 -1.1763233 0.015960917 -0.010698114 0.7242263 -0.277592 -0.029651115 0.4220208 0.57304376 0.094582036 -0.5647175 -0.82541394 -0.036971077 1.3197323 -0.1661985 -0.36621863 0.71943915 -0.19733931 1.3671561 0.16369756 0.18775038 -0.29371288 0.4509357 -0.3220123 0.43271118 0.08580179 -1.2019293 -0.34237304 0.97849536 -0.12810506 -0.90412503 1.3680644 -0.16442 -0.7613779 -0.53148305 0.9806275 0.49966067 1.1154284 -0.48418805 -0.46497607 0.047541834 0.69371116 -0.7956467 -0.19426624 -0.68724555 0.32027406 0.1438917
dapat 0.81968564 0.26602152 0.6811456 0.05473098 0.49556196 -0.07258264 0.31222802 1.3274535 -0.035985313 -0.6170006 -0.5653416 -0.19565427 -0.26797953 -0.16149269 -0.69338113 0.077175096 0.9832363 0.4701601 -0.33067167 -1.12566 -0.31903678 0.74959314 0.004635181 1.3976154 -0.9196518 0.1488438 -1.3997972 0.9277617 0.73518044 1.1042285 0.006190011 0.62838644 0.12584403 0.21818689 -0.1066874 0.036604043 -0.92699397 -0.95400614 0.18080536 -0.41257837 -0.25681534 0.010402351 -0.113859035 -0.26581365 -0.8705155 -0.5725035 0.4126307 -0.51310825 -1.0319535 0.09635003 1.3799789 -0.38428107 0.20722684 -0.16746621 0.18665174 -0.62481683 0.055623643 -0.19348422 0.4479579 0.19991882 -0.93033636 -0.6697103 0.9129494 -0.0024173206 0.16284591 0.06397645 0.29738793 -0.02313385 -1.2205257 -0.029512322 0.9628519 0.13886523 0.10382087 -0.3259492 0.15694836 -0.47546697 0.079027995 -0.23379794 -0.1417767 -0.076276354 -0.95683235 -0.072478384 0.29462656 1.3397465 0.116585754 0.06914433 0.45853674 -0.19449158 -0.3788383 -0.17702875 0.35402378 -0.26230112 0.9794297 -0.10830819 0.47313902 -0.5551634 0.16942404 0.5325795 0.24694459 0.031678025
cara 0.6900089 0.66001666 0.21741228 0.61933404 -0.08626749 -0.8293257 -0.30492637 0.24842751 -1.5176636 -0.12576556 -0.35761872 -0.120825134 0.28578502 -0.4820502 0.18103403 -0.33407232 0.9820282 -0.022637328 -0.1615088 -0.067852624 0.8713828 1.5217296 1.6237059 1.5746746 -0.46102098 -0.18740386 0.15859628 0.17369007 -0.6487508 0.8512689 1.2918152 0.6798696 0.102431074 -0.20456758 -0.104990035 -0.21936388 -0.08244503 -0.013433306 -0.3803248 0.037999243 0.4424572 -0.50349 -0.33019197 0.6576906 0.11571784 0.11454694 0.02637206 -0.38465595 -0.94279176 -0.23031375 0.6955636 0.52688426 -0.32810304 -0.891595 -0.7618126 0.49668923 -0.17844477 -0.28502253 -0.9008022 -0.030094199 0.25290585 1.3711652 0.8588985 0.20148985 -0.1654858 -0.29184422 -0.30536318 0.43020573 -0.10039358 -0.45620942 1.0410305 -0.18543074 -0.2125791 0.109050445 0.50043446 0.6816974 -0.8703742 0.39870834 0.48379603 -0.19902472 0.5506923 -0.4813334 0.878869 0.58525836 0.007552799 -0.7086776 0.93031377 -0.24511449 0.4259331 -0.9561719 0.42323953 0.24561742 -0.006070305 0.21440801 0.102973714 0.5303431 1.3427167 -0.4548073 0.23840508 0.4558169
covid 0.40590084 0.583549 0.6437581 -0.1774381 0.61233807 -0.5963678 0.56532896 0.88698363 0.22885776 -0.78659195 0.21488605 -0.0029183603 -0.58927214 -0.5474648 0.05766924 0.024896879 1.5460047 -0.6425357 -0.6933589 -0.31325695 1.6270714 0.5079338 0.22757377 -0.18538734 -1.6665869 -1.123532 -1.2351372 -0.21565837 1.2476709 -0.32048112 -0.3615903 0.21068332 0.38573802 -0.36638525 -0.8373458 -0.7312285 0.7523436 0.8995651 0.1761708 0.4114248 1.1288941 -0.24976678 0.062027384 -0.15143868 0.030360892 0.14249766 -0.55179214 0.5213859 0.42926446 0.053126693 0.22195059 0.46545827 0.046175048 -0.47331315 -0.20313679 -0.62248206 0.57320535 0.49516946 -0.41473645 -0.19536342 -0.38848042 0.58331454 0.16425426 0.03110639 -0.17740576 0.45547432 0.37007296 -0.05511899 0.21930592 0.019193228 -1.2176248 -0.25232708 0.5923197 -0.5845713 0.11105303 0.09891489 0.424516 0.07399552 -0.10153341 -0.09861336 -0.7187889 -0.54115415 0.14597738 -0.009018282 0.4180122 0.5734809 0.2178889 0.5909824 -0.07268184 0.2531879 1.1011711 0.70120436 0.104604 0.4583322 -0.0072467905 -0.32088155 -0.05855319 0.38403493 0.18267302 0.4249504
dilakukan -0.4982194 0.717135 0.11659606 0.41498253 0.2768277 -0.96367484 -0.1217081 0.17780183 -0.8358485 0.6949329 -0.36013013 -0.9764822 -0.08641794 1.3518629 -1.2801096 -0.21450235 0.47412327 -0.32248858 -0.19959576 0.25608274 0.14245011 0.8182029 0.48597482 0.34340575 0.055605028 -0.67188257 -0.6986772 1.0241731 0.4780011 -0.7098482 0.11167972 0.07852072 -0.22932038 0.103899755 -0.887794 0.4119005 -0.1931936 -0.751964 -0.6112369 1.3055451 0.5354954 -0.744983 -0.875449 1.4013665 0.63817644 0.4680419 -0.86646086 -0.68700165 -1.2799807 -0.45797673 -0.40208226 -0.55869836 0.534074 0.09701352 -0.6773968 -0.5623682 0.6696379 -0.014475614 0.26380435 0.29253566 0.7411973 0.33239803 0.38814375 0.24357451 1.0335841 -0.64080673 0.07323983 0.77170944 0.27026537 -0.210904 0.5219625 -0.39442313 0.24538918 -0.76416576 0.8493169 0.2751385 -0.31061408 -0.05775955 0.82158613 -0.59950763 -0.69717133 -0.5929133 0.01031831 0.6885437 -0.33582228 -0.29258496 -0.31007734 -0.8829021 0.15025795 0.09450318 0.2843249 -1.0026016 -1.0755688 -0.8324087 0.18736747 0.5912188 0.8417088 0.1541223 1.1233246 0.20170605
oleh -0.441739 -0.089886546 -0.20517525 0.45603517 0.9504974 -0.5986415 -0.28096122 1.6357849 -0.15747082 -0.76631546 -0.3274569 -1.3921072 -1.0271125 1.1168276 0.021596909 1.227541 0.5126287 -0.8912215 -1.043484 -1.1741997 0.9129021 0.040406216 1.2476152 0.0675951 -0.33914033 0.36121228 0.65255785 -1.2438911 0.14779896 -0.055375062 0.6160106 -0.24845766 -0.24534135 -0.85942787 -0.21941598 0.52979684 -0.11355166 -0.61258036 -0.17354754 -0.056237932 -0.302729 -1.1710328 0.23313066 0.3137902 0.24483001 -0.10360358 -0.6151346 0.06466874 0.21566781 0.5785025 0.742962 -1.2801136 -0.023768807 0.34713557 -0.16520508 -0.37618962 -0.56489646 -0.25705585 -0.7196964 0.10953883 -0.23567441 0.55133504 0.6598525 -0.58190745 -0.010934932 0.18467924 -0.19042031 0.8597496 0.4506435 -0.30987376 0.5388398 0.3329552 0.28616503 0.07553941 0.019055841 -0.7652798 0.05356242 -1.0529921 0.4913057 -0.59228283 -0.21435042 -0.13486205 -0.21372451 -0.48300073 0.45093203 0.24643585 -1.7955103 -0.58094263 -0.2251041 -1.3511587 1.286209 0.06330502 0.28291446 0.81233084 -0.61509216 0.69782114 -0.079815656 -1.0331303 -0.114069 -0.25415584
karena -0.08191459 0.05541304 0.123655766 0.43902212 0.847546 -0.68106437 -0.77432 0.22388323 -0.6996648 -0.54556644 -0.054940913 -0.21235186 0.8476066 -0.21490264 0.09058207 -1.373193 0.65660083 -0.4302628 0.15952203 -0.52334505 1.238936 -0.08952396 -0.49576762 0.060273893 0.030963907 -0.98131335 -0.024975384 -0.17726347 0.15456668 0.07802285 1.1367215 0.22279185 -0.04418064 -0.4092784 0.5090401 0.8757312 -0.38388616 1.0204085 0.2642259 -0.04791874 0.43415657 -1.5601273 -0.13980949 0.16688201 0.66406894 -0.53575057 -0.12453533 -0.17036079 0.15582837 0.23510258 1.1629368 1.8649421 0.6387561 -0.42025584 -0.177098 -0.728485 -0.0097618345 -0.05978583 0.82215846 0.27487865 0.19299556 -0.06293917 -0.44653776 0.2870272 0.25578606 -0.72015697 -0.369547 0.39767525 0.27292418 0.021403817 0.3344562 -0.20971179 0.15006877 1.0734727 0.8518428 -0.14687657 0.63984394 0.6177377 1.0004305 0.83435255 -0.39038584 0.83317333 -0.1808177 -0.50559264 0.11485149 -0.6085706 0.16480355 0.20880386 0.5536387 0.39932054 1.4545993 0.4262662 0.670663 -0.20633583 1.6094157 0.5784884 -0.8735898 -0.23510584 1.4357946 -0.8614248
menjadi 1.2869521 -0.9383558 -1.0848732 0.041252673 0.7530108 -0.117834255 0.6065695 1.1726828 -1.7823566 0.06662779 -0.46979102 -0.2598872 0.551326 0.9487247 0.11242837 0.13939817 1.1006495 0.5670958 -0.95904225 0.36979917 -0.36403704 -0.6019334 0.033571634 -0.29103273 -0.20995611 -1.1251932 -0.79935616 0.19270302 0.9953937 -0.3828831 0.77710736 -0.049757924 -0.4621278 0.92068684 0.25118473 0.09819168 -0.113887556 -0.37135464 0.5894789 -0.8147807 0.15791483 -0.44652712 0.6900012 1.1446083 0.0049715703 -0.0918913 -0.40448895 -0.41079855 0.35013407 -0.3907421 -0.099659845 -0.11822019 0.023008455 -0.31990835 0.07578298 0.61831635 0.19613603 -0.33046734 1.6540717 -0.65959924 0.5949036 0.6093899 1.1722094 -0.14377505 -0.2589468 0.18555513 -0.3875917 1.0167613 -0.32585204 0.33271724 0.7768877 -0.41584516 0.42547205 0.17837608 0.5254047 -0.21684301 -0.28648368 0.47597334 -0.42287877 -0.35258222 -0.25757217 -0.06458061 0.5560054 0.34113374 0.75983536 -0.44714046 0.07185767 0.3747433 0.171082 -1.0786579 0.848803 -0.7766148 0.12854832 0.45198077 -0.51007336 0.551265 0.58378917 -0.15735964 1.1607212 -0.78885823
pemerintah -0.3535427 1.2045542 0.07768618 0.6574256 -0.662068 0.6935136 0.35759118 -0.27404806 -0.9117919 0.044065256 0.050501857 0.41725424 -0.010035035 0.7027515 0.41407165 0.1579219 0.93848646 -0.7435147 -1.1252042 -1.1831484 -0.53122336 0.485422 0.00019998083 0.014314978 -1.3059956 -0.1104604 -0.46581322 -1.0088735 -0.22975627 0.33641866 0.54551405 0.16567749 0.12149045 -0.4719123 -0.9180888 1.227725 -1.3866556 0.4948834 -0.43012506 0.021451533 -0.07652752 0.14153245 0.30810347 0.95877826 -0.099139325 -0.48759976 -0.22120373 -0.66657585 0.33508983 0.38237363 -0.044924926 -0.074891746 -0.546566 -0.46424842 0.16641605 0.31776547 0.015573326 -0.08387897 1.0951319 0.15690449 0.025210043 -0.28310713 0.2798789 -0.41056612 0.12553747 0.67875046 -0.28720525 0.4568714 0.47158298 -0.14666909 0.2422416 0.42880052 0.2788658 -1.2553669 0.17478418 -0.04222654 1.0314969 0.64385897 -0.23789713 -1.1176523 -0.3707968 -0.7033111 0.53807 0.39528114 0.4940899 -0.74391735 -0.07488858 -0.36388057 -0.36944887 0.48920485 -0.19072457 0.63305897 -1.1678479 0.35124105 -0.29027703 -0.29092804 -0.465596 -0.7053277 1.1960196 0.38696203
pada 0.46945766 0.26536006 0.0999598 1.8541075 0.10990048 -0.2869756 -0.20706625 0.5740681 0.12988235 0.2505711 -0.3616464 0.18562603 0.75895756 0.7723625 -0.041695073 -0.0906994 -0.16191207 0.22503535 -1.6687889 -0.6717566 0.031670824 0.25513157 -0.25679985 0.91510415 -0.72500986 -0.7106605 -0.47430527 -0.25867608 -0.185653 -0.5159248 -0.094328165 0.04727366 -0.45724094 0.402776 -0.48781726 0.6157935 0.36472028 0.0032215954 -0.43787122 1.0756902 -0.02768633 -0.42475176 -1.2406158 0.23417248 -0.08159411 -2.0582566 -0.32464808 -0.65685 0.3542612 0.84595126 1.4108074 -0.72751904 -0.0644069 -0.23847115 0.25226918 -0.06909444 0.25180423 -0.31412265 -1.2310852 -0.44617954 0.0962208 0.75685805 0.67853206 -0.6988223 0.07718628 1.3037666 -0.95779824 -0.33425337 -0.25575364 -0.7937066 0.012764313 -0.42041188 -0.835114 -0.026723213 1.1421789 0.61747575 -0.014547066 0.44280213 -0.6188157 0.13945632 -0.95287687 0.49900666 0.5135436 -0.32544237 -0.49478775 0.4271632 0.79580903 -0.008880538 0.47424918 1.0439842 -0.024218485 -0.6745679 0.3821132 0.979589 0.5149078 0.1459602 0.9943981 0.05958071 -0.63617414 -0.4466761
masyarakat 0.5291642 0.84258235 1.1223941 1.2298083 -0.7429532 0.22592835 0.17456268 1.098494 -0.90918005 0.9212384 -0.15415709 -0.016459322 0.44703743 -0.30295765 -0.22422023 -1.2654631 -0.13239592 -1.2004602 -0.9949756 0.6584051 -0.40824878 -0.34716913 -0.62230605 -0.4127841 -0.67649245 -0.19900383 -1.4484594 0.059972107 0.31865457 -0.018126933 0.11088741 -1.0607623 -0.055059835 -0.7609757 -0.9604361 -0.19777863 -0.8370646 -0.09828635 -0.3875172 -0.4721071 -0.3691408 -0.0020927482 0.20753013 -0.5524547 -0.6417465 -0.3062152 0.60220295 0.11056928 -0.60961205 -0.14007819 0.56953406 0.18318787 -0.6081203 -0.70034385 -0.18826376 -0.45520192 -0.62940663 -0.85410565 -0.12942374 -0.910323 -0.7112617 0.34201485 -1.0894806 0.08200667 0.31520262 0.24782656 -0.24822837 0.7264652 -0.2245326 0.6428539 0.022178125 -0.3549394 -0.3591422 -0.75063103 0.041367464 -1.0930449 -0.21908809 0.21370386 0.42159885 0.27814853 -0.7794466 -0.49007398 0.6169191 -0.33134836 0.025553945 -0.9798199 -0.8785377 0.26544568 -0.30464184 -0.052645624 0.680794 -0.13552205 -0.36571786 0.3636268 0.3706242 0.23216759 -0.89891505 0.3581424 0.4008599 0.4097852
saat -0.37530896 0.89633733 0.47298983 0.994421 0.4718339 -0.8536055 -0.102118745 -0.6347158 -0.88043666 -0.97318906 0.10859375 -0.41025123 0.67312944 0.16288047 0.22985438 0.13754964 -0.020927785 -0.5148451 -0.78771985 -0.28293768 0.6662011 1.0081075 -0.06678295 -0.09681073 0.0685755 -0.7306367 -0.6035926 0.74752444 0.9572996 -0.2827862 -0.56438226 0.111787625 -1.065062 -0.56172514 0.100099854 -0.16284177 1.4826795 -0.41330314 -0.28843194 0.21042414 0.96003115 -1.1018848 -0.35212448 0.58632946 0.5695047 -0.4586612 -0.21504281 0.6070349 0.26387292 -0.74949557 1.4149145 0.45632485 -0.93386203 0.26006097 -0.7184197 0.92161506 -0.34878674 -0.7097024 0.005633785 -0.8609347 -0.79590684 -0.28133732 0.8422143 0.26549205 -0.057607807 0.21804704 -0.13290711 0.05540796 -0.1976943 1.3999254 -0.59868103 0.67179376 0.037177294 -1.6237612 -0.3075487 0.46231917 -0.27662516 -1.1177672 -0.18207599 0.2793074 -0.15766333 0.121903196 0.14816713 0.020714942 -0.24803399 0.6642806 0.8300594 0.11954197 0.10725382 -0.18959162 0.62123036 -0.3110449 -1.2541004 0.09885679 -0.15514478 0.18522474 -0.53404295 -0.80081975 0.19834824 0.20559235
atau -0.012834421 0.19094591 0.5808563 -0.27327454 -0.69659024 -0.5671141 -0.3054184 0.49498317 -0.5712678 0.2583045 -0.49478588 0.054885507 0.54747087 0.04585634 0.66897386 0.47675386 0.6073508 -0.10207841 -0.15356763 -0.17929041 0.8867355 0.98698205 0.72159785 -0.42514676 -1.78988 -0.46807876 -0.6664052 1.1001319 0.004601647 -0.30405256 0.902028 -0.017051555 -1.3623751 -0.41805425 -0.15324776 -0.41534474 -0.35602266 -0.19503307 -1.1712489 0.7153808 -0.7045339 0.43851095 -0.093213245 -0.22387141 0.8238046 -1.3774843 0.29051882 -0.41322914 -0.24691854 0.3805578 -0.26646894 0.49520102 0.6909433 0.08971312 -0.44317716 1.0143324 -0.025297552 0.5935054 0.86458373 -0.16221114 -1.0887997 -0.1285515 0.247819 0.4913799 -0.3329883 0.11163773 -0.65022475 0.29005033 0.65969217 0.79170966 0.4117606 -0.5950444 0.16870949 0.70300716 0.77667165 -0.2825829 0.2920231 0.037736025 -0.5681651 -0.20937936 0.19035456 -0.6962312 -0.6509992 0.6026402 0.21024105 -0.07526444 -0.76731557 0.5272476 -0.82023317 0.74031967 0.5528347 -0.38705322 -0.057979792 0.15144046 0.24727549 0.8927456 1.196981 0.45314562 0.20465627 -0.14460504
ke -0.39622277 -0.21235181 1.04876 -0.3753021 -0.42942685 0.36015767 0.19141337 1.1544381 -1.3927963 -0.9347207 0.43849853 0.33475348 0.13044336 -0.48118255 -0.8491101 0.32782695 -0.1944804 0.42220533 -0.5524827 -0.3823908 -0.6771065 0.53593826 0.13177197 0.20877077 -0.30310854 -0.59053975 -0.026224047 -1.2365333 0.26549497 -0.8235036 0.43209594 1.5304806 0.2070405 0.054551706 -0.47474667 -0.25978792 0.14426208 -1.7595304 -0.014604819 -0.1669194 -0.2587645 -0.520682 -0.16792575 -0.4497673 0.08309842 -0.6489365 0.29440984 0.13256168 0.9114256 -0.49104792 0.7415022 0.6820705 -0.31157535 0.078789376 0.18196088 0.1264961 -0.49075475 -0.20623165 0.22222547 0.23034383 1.6010557 0.7712355 0.122148514 0.08470983 0.10771777 -0.8812868 -0.7855209 -0.82703 -0.33896893 0.33856437 -0.21353312 -0.1791763 0.6063716 -0.099382915 -0.1300994 0.7121033 0.84816647 0.18604657 -0.011120069 -0.33623207 0.3160681 0.019537456 -0.9455846 0.8029908 0.087573245 0.07023722 -0.53669304 0.30365548 -0.30679056 -0.40753987 1.0333126 -0.6661658 0.44592106 -0.26362318 0.8446982 -1.3481886 0.56755924 0.0849785 1.0530881 -1.064078
tidak 0.1064371 0.41442746 -0.10743602 -0.32073948 1.0383666 -0.34600487 -0.4392808 0.8233158 -1.1193217 0.9172043 -0.52469844 0.43509865 0.7401115 -0.160616 -0.8747398 1.1287963 1.0100322 0.5701616 -0.36353356 -1.1447933 -0.018831413 0.54286426 -0.474367 -0.07478398 -1.2215422 -0.3502499 -0.13199092 -0.3143131 -0.16098756 -0.33881524 0.9562321 -0.005106787 -0.4079994 -0.54750514 -0.4081691 0.48168555 -0.021507366 0.020573698 0.35038242 -0.37552723 -1.1318074 -0.8590134 -0.13550448 0.29948193 1.535648 -0.35449332 0.71414715 -0.4493818 0.21160911 0.52108514 0.10722641 -0.17862165 0.10374103 -1.1475849 0.025783729 -0.18393768 -0.42269218 0.2245767 -1.0793947 0.34207517 0.31240568 0.60238093 0.64121526 0.47786614 0.41652834 0.08483622 0.7380004 0.111241065 0.017640695 -0.774397 -0.81231654 -0.6774369 -0.16433087 -1.2214329 0.71296173 0.5420629 -0.76594424 -0.43538925 -0.058850028 0.6143917 0.22312996 0.6305489 -1.009766 0.4752806 -0.15752049 -0.39847332 0.9103755 2.1276739 0.34642494 0.29822493 0.47930613 -0.07918187 0.14155146 0.81154084 0.40001866 0.11847136 -0.56583095 0.025679342 -0.21359721 0.4224899
itu -1.262141 -0.40531728 -1.0056481 1.6050233 0.26134095 -0.19363609 0.95935625 -0.5297714 -0.54416275 0.87797666 -0.18169102 0.27959552 0.5892851 0.7904465 -0.2972149 0.07909524 1.3091612 -1.4256247 0.63403124 -0.64365417 0.617141 -0.99803966 1.0890658 -0.23227571 -0.8199824 -1.1438255 -0.31749886 0.23223177 -0.44777763 0.31500122 0.17526199 -0.449475 0.16682713 0.34867927 -0.34167278 0.32344058 -1.1336056 -0.21892089 0.9771395 0.42085615 0.31346628 -0.14207998 -0.30637708 0.27675807 0.13584921 -0.9266545 0.15972376 -0.016288467 0.9114091 -0.2906633 0.6092647 0.32318074 -0.03328626 -0.23156029 -0.25034183 0.16103789 -0.62418145 -0.22734194 0.14894864 -1.0020747 -0.31424847 -0.23696832 -0.05800964 -0.6820359 -0.7791117 0.14355533 0.63948923 -0.7152606 -0.8505294 0.78221416 0.021209257 -0.59856296 0.37612554 -0.076454796 -0.5986433 -1.22381 0.30175534 -0.7463971 0.32818478 -0.5713057 0.25233924 0.67199504 -0.1405501 0.5603113 -0.24639979 -0.58071893 -0.24458987 0.40035576 -0.23498496 0.49538732 0.5018256 -0.65690404 0.19107242 -0.93570906 -1.0878947 -0.16327488 1.100417 0.7164159 1.1037065 -0.82890904
juga -0.30048686 0.043418445 0.08065543 1.0341789 1.0208144 -0.27102113 0.12704088 0.19091251 0.15664601 0.78652906 0.59273374 -0.052930556 0.094731964 0.07067626 -0.8982168 -0.054404184 0.99232453 -0.36512333 -0.17577189 0.49615136 -0.84869295 0.9959208 0.6297869 0.919593 -1.3719198 -0.7344365 -0.6161576 -0.00096272095 -0.23395441 -0.115396194 0.57798076 0.17935455 -0.07617306 -0.31135815 -0.8110708 0.1247121 0.054790046 0.37928122 -0.050414186 0.5444497 -0.1476793 -0.3769648 -0.920811 -0.97206783 -0.15015936 -0.48199162 1.0421469 -0.28392467 0.5998983 -0.16624239 -0.37026393 -0.16168068 0.52532417 -0.6948896 0.87558216 0.6061272 -0.3642279 -0.42915332 -0.13908653 1.0134217 -1.3809718 -1.6413327 0.47176406 -0.31319997 -0.75875545 -1.0983224 -1.0968453 0.2557806 -0.16995902 -0.40648544 0.12694003 1.4728241 0.17486586 -0.7557732 0.45116186 -1.0827706 -0.14736935 -0.21890481 0.20004173 -0.4367192 -0.41871083 0.1907419 0.19548526 0.14563224 -0.53349376 -0.6043467 -0.85594803 0.08627985 1.2387887 0.12920415 0.09758201 0.9748829 -0.27598253 -1.1660035 0.9938989 0.48418236 0.41063052 -0.66307753 0.84752923 -0.5484158
tersebut 0.33609655 0.13500096 -0.21153608 0.7500832 -0.3338054 0.2622335 0.06267633 -0.2635223 -0.10286246 0.3926534 -0.76722085 0.33752584 0.6669974 1.1925038 -0.4484174 0.9623383 1.7629181 -0.37008727 -0.050151587 -0.56551254 0.3879557 -0.22709124 0.24331968 -0.87631196 -0.6498353 -0.85764116 -0.34646216 0.7485459 -0.03700581 0.516112 1.6052849 0.02144808 0.38185126 -0.4533571 -0.33203924 0.89025277 0.65740514 -0.12644227 0.24904779 -0.15857156 -0.08598305 0.3194009 -0.06495426 -0.2792508 0.39455643 0.40773132 -0.45150593 -0.104927264 -0.17726447 1.2395442 0.4703254 0.4026748 0.20281212 -0.5461283 0.028522156 -0.18397023 -0.24795131 0.46099788 -0.4081291 0.17675619 0.4295431 0.4751659 -0.4534647 0.1829797 -0.78631186 -0.06532719 -0.94859177 -0.49131322 0.6948852 0.22585465 -0.6376222 -0.8192525 0.019735564 -0.21675691 0.7016159 -0.25979874 -0.6492853 -0.17767712 -1.1331592 -0.5541403 -0.23197144 -0.21776155 0.08371905 0.97472453 0.23460601 0.07984455 -0.7050239 0.32302323 0.18686911 -0.59269446 1.2764097 -0.091789424 -0.570601 -1.0289602 -0.2620246 -0.94023323 0.13271494 -0.44368985 1.0372214 1.1437753
melakukan -1.5048077 -0.7484471 1.1880534 -0.16631703 0.45868963 0.41829127 0.0048411516 -0.19789615 -1.5285345 -0.3227629 -0.12746999 0.106879115 0.6619291 0.98885345 -0.16616999 -0.08592862 0.9881609 -1.2516818 -0.8329068 -0.6870291 -0.42744136 -0.1458471 -0.29194385 0.116659686 -1.1581876 0.3055878 -0.79189456 0.76995915 0.15978366 -0.22415929 -0.0766341 -0.50709134 -0.41156 0.28058934 1.0078046 0.03687163 -0.3389634 -0.08357778 0.37314448 0.5906841 -0.56227666 -1.2531575 0.57140297 0.8008193 0.23523663 -0.0826096 -1.6259155 0.11336706 -0.25816098 -0.4701587 0.98271286 -0.18801296 0.20180584 -0.08362849 -0.574908 -0.38265625 0.2971892 0.029687712 -0.10695225 0.078444004 0.9362305 0.021930061 0.5227201 0.5480023 0.271955 -0.5428867 -0.4013549 0.0136950975 0.20739925 -0.6410952 0.069966 1.1329529 -0.2677502 -0.74106944 -0.61694103 -0.26064953 -0.6309028 0.3243188 1.2583383 -0.8425166 -0.6163502 -0.44359705 -1.5413057 0.8373971 -0.043871265 0.06408274 -0.40127483 0.094532214 -0.20326875 0.418172 0.65693104 0.93074596 -0.0033746983 0.6665634 -0.25113896 0.5409847 0.5618746 -0.36775044 -0.38310516 -0.67994004
vaksin 0.42682326 0.50668705 -0.42378518 0.265958 -0.064131774 -0.4774543 0.7455751 0.4393139 -0.81195384 -0.21091715 -0.30000845 -0.49000406 0.2499825 -0.91403323 0.2779957 -0.5244454 0.12326099 -0.32520664 -0.4779562 -0.6446894 1.1769133 -0.21252997 -0.24470305 0.0030124816 -0.86836267 -0.38314825 -1.346491 -0.53069663 0.4676639 -0.5844083 0.66899353 0.53288466 0.95130104 -0.48229957 -0.04735092 -0.6609959 -0.0057632993 -0.062665574 -0.245052 0.22421022 0.0010828102 -0.89660704 0.3179433 0.75136286 -0.5920941 -0.35180497 0.14244224 -0.97649103 0.50050455 -0.12778911 -0.4188805 0.49462578 0.13063964 0.7513737 -0.6624534 0.51460856 0.17585862 -0.12639274 -0.72709775 0.5052732 -0.090059206 -0.16306953 0.02448429 0.5110728 -0.92122763 0.4131801 -0.14155331 0.1506746 -0.7484634 -1.1762575 -0.6605844 0.10209579 0.006006658 -0.73310494 0.30040717 0.19074619 0.64763683 -0.1181979 -0.11074771 -0.37220785 -0.93639565 -0.54816854 -0.22058186 0.8872712 -1.117485 -0.19003412 -0.6011408 0.76969975 0.24837793 -0.59025747 0.65490204 0.31274453 -0.7681493 0.21308044 0.8211784 -0.36893806 -0.06971601 -0.29261184 -0.036148593 -0.92665726
beberapa 0.14087872 0.16505085 1.3626305 0.9220474 -0.055816118 -0.77570564 -0.3947151 0.08937141 -0.58181965 0.16621378 0.36814183 -0.41258752 0.8999603 1.0419866 -0.011673603 -0.20086196 -0.1867412 -0.110944085 -0.9692627 -0.05875818 1.0443587 0.20985231 1.2136592 0.025425477 -0.3970644 0.10308827 -0.9976493 0.6331691 0.046810757 0.13933712 1.0980572 0.94552386 1.0590074 -0.17064598 -0.46010053 0.6260222 0.4117266 -0.36953053 -0.21189986 0.06733312 -0.040778607 -0.6741356 0.2539532 -0.010552972 0.15007149 -0.1654661 0.35768807 -0.07934409 -0.050782327 -0.54064345 0.93721753 0.34218112 0.45896035 -0.8780686 -0.39029214 -0.52080005 -0.40717945 -0.11068388 0.82292455 0.10589089 -0.12697762 0.46596947 0.7040287 -0.10618265 0.40461838 0.45983446 -0.50743115 0.16933124 -0.24418633 0.2625123 -0.27461025 0.75242466 0.49552792 0.07365707 0.4517438 -0.05184259 -0.33020112 0.23048197 0.47993314 0.87816596 0.8503175 -0.099672444 -0.27165514 0.12611073 -0.4631653 -0.24509269 -0.7363719 -0.26060033 0.6155391 0.40762767 0.630659 0.52197695 -1.1554729 -0.076646 0.08030611 -1.1524584 0.059528727 0.9660997 -0.29401284 -0.4855458
bisa 0.9907346 0.10454709 0.2935118 0.92744964 0.7573009 0.11595304 -0.43481106 0.95095664 -0.80002767 -0.4266412 0.26805976 0.5240366 -0.06238212 -0.49136853 0.63076156 0.13059013 -0.37657344 -1.0516636 -0.9396949 -0.67709464 0.31827232 0.20553999 0.84565556 -1.0219492 -0.9768267 0.4855222 -1.1516646 0.5532401 0.67155856 -0.1838125 0.112093665 0.24460095 -0.042492606 -0.9547721 -0.12338476 -0.83096415 -0.7454041 -0.27949664 0.19072632 0.38715836 0.5541121 -0.9300568 0.31410828 -0.55126274 0.3284836 -1.3560807 0.80698067 -1.0672499 0.29061884 0.90344155 -0.24887425 -0.31299517 -0.50363004 0.5363895 0.5675466 -0.9956885 -0.308701 -0.43306023 -1.152072 0.46829304 -0.41402608 0.96845955 0.20846441 0.37258342 -0.67073315 0.28506216 0.86837447 0.82831883 -0.10655996 0.33322853 0.9052375 0.079965025 0.44338432 -0.80467355 0.7385445 0.10214479 0.23396598 0.1113605 0.2561471 -0.11658926 0.034341574 -0.21101989 -0.60469157 0.24284543 0.3488822 -0.1689393 0.31438318 0.79573697 -0.40325803 -0.43019783 -0.5909596 -0.57215494 -0.5809232 -0.6144894 0.1108569 -0.2696614 1.2241778 0.7895844 1.074407 0.22907507
memiliki 0.10874972 0.25319216 -0.111810826 0.17278369 0.072546594 -0.8262044 0.5867882 1.1089197 -1.774065 -0.7933932 -0.038836874 0.53418344 -0.9366566 0.5561282 0.41205478 0.17442025 0.18688512 -0.04669881 0.05891827 0.82755 -0.4178776 -0.2661103 -0.2525822 -0.1559507 -0.47535682 -0.25266293 -0.6214179 0.52443194 -0.16491617 0.84740174 0.81222576 -0.15811895 -0.053410534 -0.70899475 -1.2468694 -0.09979542 -0.2653324 0.06900437 0.79744375 0.74472445 -0.004111078 -0.9146195 -0.4088535 0.46346757 0.2851149 -0.047362857 -0.20423372 -0.16465364 -1.2364193 -0.936023 -0.08858873 0.63107127 0.35639635 -0.6095919 0.5330509 1.0727915 -0.97569346 0.26069897 0.7172196 0.16544324 -0.88924575 0.5194745 0.13504316 0.5962954 0.73990667 0.26705438 0.041782264 -0.24549823 -0.00559639 -0.5182503 -0.38237852 -0.1923429 -0.5342037 -0.21035266 1.2962654 0.3364423 -0.58138794 -0.17423272 -0.13751844 0.17547534 0.684793 -0.59353894 0.035688788 0.41488716 0.49444056 0.49721357 0.30826727 -0.15423998 1.9822981 -0.13958134 0.52486145 -0.28612798 -0.29578254 0.0061967038 -0.6441245 -0.041943938 0.12573567 -0.083835855 0.93448323 -0.8675903
seperti -0.36970338 0.38997278 0.62843 0.42263898 0.31788024 -0.9316945 -0.4365828 1.3809348 -1.0646609 -0.057960834 -0.71316254 -0.88253707 0.215962 0.92462325 0.49707672 -0.49762884 -0.0023268703 1.0774062 -0.976472 -0.7207387 0.48953882 -0.3410649 0.8596654 0.8296111 -1.2832543 -0.7735948 0.7822472 0.40419868 -0.18932785 0.6152838 0.05657054 -0.079523176 0.81848085 -0.7239976 -0.80781394 0.14108454 -0.07507264 -0.942397 -0.12425448 0.29750085 0.70387006 0.0658282 -0.3309459 -0.67434597 1.0893476 0.22386433 -0.09671524 -1.0016001 0.15724698 0.19796506 0.15347412 -0.83609027 -0.6941304 -0.6182221 0.64958847 0.21690437 -0.5035691 0.23440659 0.94735056 -0.25447494 -0.49291712 0.08333976 1.28849 0.49137792 -0.85467905 0.7055846 0.14322603 0.40940496 -1.1018071 0.9248301 0.21941298 0.36276513 0.57370305 0.3701772 0.7390599 -0.10674425 0.30357087 -0.08837561 0.26615438 1.2459328 0.16263725 0.6860496 -0.0062233116 0.4311402 1.1186774 -0.461583 0.40695384 0.024935171 0.43335217 0.18142535 0.39410093 0.785789 0.6799045 0.19093733 0.3645004 0.060577635 0.14752804 -0.4800485 -0.17802717 0.36625972
antara 0.73955995 0.8492947 0.5643324 0.8493774 0.5178979 0.6585175 -0.121260904 0.18566492 -1.2796795 -0.75425524 0.4251619 -1.1720331 0.34676775 0.32109293 -0.15498775 -0.27673534 -0.029566767 -0.3281478 -0.10838426 1.21701 0.7747728 0.8607864 0.6180676 0.44119355 -0.79441303 -1.2121772 -0.29995334 0.84413326 -0.55608255 0.665558 0.91036785 0.9493182 -0.53333443 -0.24307667 0.30266663 -0.32746843 -0.9432358 0.18879014 -0.768237 -0.40956482 -0.6245927 -0.6484565 -0.6792615 -0.019275362 0.40722337 -0.036732186 0.22978763 -0.6458243 0.34813356 -0.35635552 0.4497846 0.48559433 -0.38561484 -0.9130094 0.46981624 0.062247615 0.33629864 -0.11285367 0.20700209 -0.11197619 -0.23411964 1.0680794 0.9040924 -0.59566665 -0.4055604 0.17451783 -0.09820136 0.0920488 0.36604187 -0.3246383 -0.010433896 0.022540614 0.42895594 0.24412629 -0.008343095 0.96529955 -0.42073703 0.122940294 -0.008876615 0.34398302 -0.3572419 -0.553189 -0.5021232 0.52547556 -0.38995498 -1.2328835 -0.17837018 -0.5715393 0.5083776 -0.12917006 0.30607632 0.4634489 -0.19043611 0.01646478 -0.1610124 -0.7756691 1.0309973 0.54588205 -0.3759036 -0.21797419
ppkm 0.02066492 0.57364815 -0.14317226 0.9377789 -0.29906785 -0.5960624 0.95482576 0.296304 -0.606115 -0.48939547 -0.7089558 -0.30516845 -0.0939573 0.41413614 0.29886404 0.3277668 0.44962654 -0.648737 -1.1130565 -0.14140481 -0.07635281 -0.3685201 -0.107103005 0.71055704 -1.2967607 -0.382002 -1.4158226 -0.102455035 -0.11385133 -0.67111653 -0.89179516 0.38322896 0.08866178 -0.45880035 -0.40570837 0.6161411 0.07734413 -0.30225003 -0.6430974 0.122827694 -0.5844812 0.752828 0.03564487 -0.21609643 1.1092281 0.016223475 -0.51535505 0.80599993 0.73248297 0.26665297 -0.3099068 0.793185 -1.0205332 -0.31269628 0.23369747 -0.065742806 -0.5217857 -0.16301389 0.3621905 -0.3741852 -0.09408291 0.6640191 -0.72737664 -0.10644739 0.54101276 0.072785005 0.08161869 0.23332639 -0.3274492 -0.45869148 0.2954337 0.63144296 -0.3357078 -0.41378605 1.0715297 0.7993237 -0.009874895 -1.068426 0.85934204 -0.23103559 -0.900106 -0.6218039 0.18201385 0.15688501 0.36034593 -0.77475804 0.12339354 0.57906246 0.10685787 -0.20428495 0.3986583 0.027397234 -0.5978265 -0.1777286 -0.017297445 0.33783334 0.4684924 -0.5144199 0.27563915 -0.083672404
akan 0.20932971 0.18871497 -0.28805733 -0.032327913 0.12397503 -0.43647683 0.35225803 1.1356134 -0.7394797 0.30218747 -1.1112089 -0.4791599 0.41635776 0.31580502 -0.25749356 0.5462293 0.30546075 -0.9013948 0.3519919 -0.73388666 0.1626384 0.38513988 0.47115192 0.027290182 -0.16058448 -0.35681912 -1.2224917 -0.17740323 -0.5413479 0.07884517 -0.88218594 -0.3755846 0.240713 -0.8708364 -0.88418955 0.13817534 -0.5938827 -0.94601214 -0.92676234 0.3947481 0.4702698 0.07594474 0.17911936 0.504114 0.9818247 -0.64246017 -0.3003502 -0.7747248 -0.49689 -0.10735653 0.026254412 0.044004377 -0.15457597 -0.553327 -0.13885519 -0.2009849 -0.95379746 0.20683557 -0.7643366 -0.8082819 0.48980162 0.51752377 -0.5792015 -0.46218038 -0.7688205 -0.7298758 -0.22894561 -0.47841576 -0.20372759 -0.019684639 -0.61834586 -0.10581621 0.089743994 -0.34030008 0.4234027 0.38853586 0.38656136 0.2552489 0.080041185 0.4434619 0.17011075 0.616708 -0.33842608 0.75984067 -0.26285696 0.28736237 0.573281 0.19974938 -0.38542533 -1.6725703 -0.12077356 -0.052133817 -0.2949804 0.12025259 1.4885083 0.4406781 0.50176543 0.8517752 -0.77976334 0.29876015
banjir -0.2609137 -0.05727385 0.8326454 0.73598504 0.0670442 -0.29790172 0.2645893 1.3284513 -1.4969006 0.19722871 -0.6332461 -1.047933 0.5120967 0.60593057 -0.41392356 0.36372003 0.47162592 -0.5405063 -0.8072979 -0.28761312 0.8100704 -0.37789968 0.61554784 0.16341831 -1.1884791 -0.8616496 -0.7525531 0.3555997 0.45976228 0.480686 0.6558287 0.5453322 0.68966633 0.89295566 0.423196 -0.26021594 -0.1599766 -0.007899943 0.48421574 0.324103 -0.5155461 0.1375759 -0.5475047 -0.3135125 0.5413832 -0.6627558 0.16591837 -0.12995395 0.05236181 -0.3101695 -0.31697786 0.13381161 0.5922616 -0.49122763 0.53135526 0.91517603 -0.022845672 0.5695504 -0.583978 0.4833635 0.048439205 0.3019833 -0.08416076 0.53185785 0.012928067 0.34622937 0.53204805 -0.13607937 0.01753632 0.5192313 0.535248 -0.19763568 0.15382247 -0.10782775 -0.5122844 0.34770072 0.6996789 -0.031289954 0.674443 -0.4045659 -0.34451208 -0.30732757 0.7489964 -0.02910081 -0.20361206 0.1476995 0.7403272 -0.3163282 -0.062278103 -0.90102047 0.7371011 0.2687322 -0.79376715 0.6234126 -1.1564914 0.37883148 0.1480209 -0.49291208 0.2465239 0.596039
membuat -0.3071983 -0.2399556 -0.11744225 0.1221597 0.90825254 -0.55064374 0.75744617 -0.37455028 -1.624774 0.16423696 -0.03896822 -1.0861354 -0.18539986 -0.3028526 0.4064742 -1.5547574 1.5785648 -0.8349871 -0.28878793 0.34439987 -0.49656892 -0.39307922 1.0272245 0.044325992 -0.8362067 0.22045389 -0.6561632 -0.1305358 -0.15810616 0.24291298 -0.22321783 0.06873704 -0.6000479 -0.3422578 -0.4070038 0.14408383 -0.6349249 0.32048354 0.5961793 -0.48014164 0.050762273 -1.6025074 -0.3950793 0.18987045 0.13345236 -0.5130591 0.18722375 -0.89439327 0.5221709 0.06495552 -0.028923508 0.38867944 0.43894726 0.3001539 -0.9022166 0.25703353 0.04594297 -0.09271193 0.20374347 -0.4859751 0.48624682 0.44048038 -0.22149025 0.5673821 0.03933829 0.34728783 -0.8297812 -0.3695162 0.056152884 0.833423 0.00040018788 0.046761476 1.1610882 -0.27617738 0.09721494 0.5048624 0.42208913 -0.031977568 -0.2462321 -0.41146156 -0.81167614 -0.25204983 0.046216708 -0.605128 -0.27551687 -0.034333434 0.22236767 0.378949 0.4912719 -0.87922204 0.4526735 -0.61587787 -0.017311212 0.113889396 -0.007182187 0.3072176 0.080471665 -0.65490896 0.6913852 0.992497
kesehatan 0.6763504 0.80799955 0.32544577 -0.24633633 0.13747263 -0.87108684 0.100432485 0.31792137 -1.5173177 -0.62793785 -0.9666422 -0.20749785 0.23712611 0.08092869 0.26249394 -0.15774086 0.035190616 -1.1068633 -0.8937777 -0.21897428 0.5392785 0.8284249 0.1918495 -0.7402002 -1.2879325 -0.30354592 -1.0272245 0.5008316 0.045725316 0.42563415 0.65711766 0.36329976 -0.5697435 -0.089379564 -0.86198837 -0.52999943 -0.36615655 0.2235438 0.26073954 -0.040590495 0.18187352 0.59799063 -0.5074406 0.009025411 -0.28975168 -0.0043312227 -0.389345 -0.3597532 0.060138468 -0.2987908 0.16010234 -0.20973657 0.21848445 0.19677381 0.33414173 -0.11787838 0.09744742 -0.21283337 -0.1379426 -0.4982895 0.11410754 0.2729407 -0.34573865 0.0794551 0.2139866 1.095919 -0.045898493 -0.32278594 0.054327507 -0.65739346 0.5055371 1.0534644 0.25821093 -0.7585872 0.1349328 -0.6554194 -0.44688877 -0.47883642 -0.13226713 0.444356 -0.5310765 0.54170936 -0.4225333 0.15813704 0.9788938 -0.5039567 -0.6510341 0.825511 -0.2802186 -0.19822392 0.85019267 -0.3306522 0.051537305 -0.4515777 -0.110011056 0.06886136 0.08374321 0.6418758 -0.48516315 -0.038906716
kepada -0.37925643 1.2152857 0.47789842 -0.0018303234 0.63616675 -0.8383434 0.6786459 0.51835287 -0.37573943 -0.4008548 0.27059108 -0.39221138 1.0500904 0.66540354 0.2756023 -0.27212512 0.1353129 0.816732 -0.8469345 0.21050857 -0.3658183 1.7775522 -1.3959243 0.06546358 -0.40960592 -0.7472644 -0.5299505 -0.039281096 -0.10749293 0.1847663 -0.46802762 0.20454873 -0.693323 -0.45098108 -0.22933565 0.006312034 -0.90272295 -0.0926506 0.34567228 -0.5721198 0.17820826 -0.16529204 -0.2627308 0.3217607 -0.08241859 -0.050891303 -0.29553846 -0.19276395 -0.008861621 0.3760812 0.48843098 0.12304571 -0.6411256 0.07371722 -0.52885115 -0.8024073 -0.16344759 -0.36831072 0.17959131 1.0274243 0.12269816 -0.03398493 -0.3750675 -0.9276587 0.038739152 0.007858268 -0.5706273 -0.8961268 -0.73759615 0.39158478 0.8142243 0.22153145 0.2682806 -0.016755885 0.58557427 -0.36091045 0.108753614 -0.09499956 0.47166517 -0.61730444 0.44867676 0.8947859 -0.3013794 0.48170692 -0.60620314 0.5745533 -0.9730954 0.75717074 -0.024954928 -0.66187966 1.6336787 -0.14508411 0.29323602 0.035591863 -0.6039402 0.29860175 0.4609587 -0.22238156 0.6505331 0.21182045
secara 0.5797881 -0.012149266 -0.18573073 0.1024329 0.4164606 -0.41691834 -0.021041723 -0.11271795 -0.7420348 0.3012077 -0.40183 0.8127412 -0.17937595 -0.4553966 -0.59529614 -0.17282145 1.1937635 -0.35038888 -0.4576359 0.06542502 -0.32211396 0.14905164 0.43203816 -0.85544455 -0.7126013 -1.2700412 -1.0607553 0.41975603 0.40462574 -0.11378078 0.5216415 0.21518244 0.3876021 -0.022426276 -0.27722582 -0.39983153 -0.6434661 -0.5235982 -0.15494667 -0.45529896 -0.055636495 0.25794235 -0.24863683 -0.8746216 0.17175546 -0.6198109 -0.22932652 1.121971 -0.5440607 -0.17992355 0.33850265 0.94803894 0.5501639 0.124777354 -1.2525549 0.79903793 0.20725629 -0.0829534 0.72614634 0.11554081 0.66310745 -0.02483753 0.51890224 -0.18484859 0.23119144 0.852094 -0.52165717 0.70647573 -0.8314641 0.036316514 -0.21879947 0.7952037 -0.47398615 -0.63224155 0.44683287 -0.5314325 0.042895164 -0.8795982 0.14370178 -0.382587 -0.6493686 0.102666214 -0.91303027 0.9688697 -0.6071092 -0.16209376 0.5132565 -0.7190682 -0.633432 -0.6210699 0.5961827 0.22507551 -0.037589375 0.39406657 -0.40462646 -0.75935525 -0.17359985 -0.4675516 -0.68286103 -0.56909466
indonesia -0.38352007 -0.14461707 -0.2766726 0.08059128 0.8625988 -0.27078965 -0.21350428 1.3276911 -1.7462924 -0.4213174 0.46104226 0.1000081 -0.2516961 0.63627464 -0.23956814 0.19379753 -0.4626694 0.7021286 0.15766041 -0.82176036 -0.29582992 -0.5535928 -0.22742955 -0.24474713 -1.0500517 -0.8400741 -0.42428103 0.46487692 0.29584277 -0.8990292 0.2810583 1.1068175 -0.09965186 -0.42572924 0.12294471 0.13555647 -0.2598159 -0.11458344 -1.250097 -0.5981407 -0.14336035 -0.76578224 -0.25586995 0.5073193 -0.20250508 -0.28000396 0.28704047 0.94772744 0.2493067 -0.16574661 0.6243977 -0.22987068 0.68312496 -0.1309381 0.29778662 0.20389704 -0.19545498 -0.26859608 0.24961615 -0.47838414 -0.6146704 0.32873043 0.032495983 0.13268358 -0.64902544 0.44724625 0.85579544 0.7940456 0.4820062 -0.93476075 -0.3981907 -0.23509459 0.16999412 -0.29158285 0.36571336 0.32409152 -0.43902665 0.26095363 -0.09097319 -0.26957262 -0.6900312 -0.5535328 0.43982995 1.671924 0.2899532 0.9502028 0.2507673 0.3815167 0.3192857 -0.1463029 0.5695903 1.0094925 -0.77654856 0.25782976 1.2884821 -0.15381937 -0.3958923 -0.073252454 0.1793429 0.04877253
lain -0.23331527 0.63738406 0.6978705 1.0529872 0.046260517 0.12794313 0.38615957 0.47648975 -1.3976214 -0.3725141 0.36526406 -0.1596882 0.23923267 -0.0357419 -0.27479756 -0.33204317 0.1289996 -0.95671713 0.15834369 0.67810494 0.8353525 1.0407487 0.682623 0.08685896 -0.79687446 -1.2849352 -0.29626012 0.6570327 -0.5477635 0.357755 0.77106804 0.30342263 -0.42948738 -0.36530697 -0.19669452 0.31102207 -0.74344873 0.19240004 0.06302421 -0.15753257 -0.6772783 -0.6834571 -0.055509057 -0.08365397 -0.28711122 -0.21705946 0.36358583 -0.8580357 0.43474346 -0.17949897 0.4162719 0.21521379 -0.6472391 -0.7905459 -0.117464915 0.24335441 0.44942415 -0.025938159 0.20848304 -0.2591303 0.03448055 0.6437259 1.3324159 -0.5325404 -0.62534493 0.43350467 0.29924414 0.33358 0.81059176 -0.17018345 -0.26087394 -0.07969934 0.38568428 0.34458077 0.40650836 0.43089727 -0.47006816 -0.14406015 -0.30120593 0.9751704 0.016478192 -0.8190019 -0.30268756 0.6063757 -0.76531947 -1.0700964 -0.23218495 -0.7627892 0.12238484 -0.32362542 0.5253259 0.32882935 -0.15939109 0.12768738 -0.30105287 0.15579762 0.048361555 0.4520033 -0.26918995 -0.38375157
ada 0.55319464 0.68314797 -0.05268386 0.25145656 1.3861482 -0.2570081 0.1363541 0.8752144 -0.6076699 0.23670115 0.11160182 0.15379147 0.6590111 0.35313204 0.7699143 -0.4905923 0.5452477 -0.32119608 -1.2007034 0.6490751 -0.5132669 -0.041250203 0.64977145 0.13466051 -0.7718001 -0.7646096 -0.9209839 0.60199153 -0.15898114 -0.3221088 0.44770417 -0.5201054 0.2016483 -0.11392364 0.5411683 0.5748062 -0.031541884 -0.40514344 -0.91860116 0.57147783 -0.50651044 -0.0057351026 0.8666617 -0.65462077 -0.46780372 0.0030054294 -0.4185251 0.94614047 0.039129786 -0.37219843 0.91430855 -0.5011864 0.33444196 -0.1335899 0.17880066 0.03285754 -0.9971609 1.1859607 -0.01310605 0.111820705 0.73910636 0.16209067 -0.014448174 0.22581309 0.65014476 0.2941686 0.010807786 0.040299214 -0.038031217 0.41490263 0.07275652 -0.34611833 -0.40514028 -0.23239283 0.9081916 -0.03391523 0.6917982 -0.021209676 0.30798844 0.21218593 -0.6943551 0.07414041 -0.06659156 0.17789756 -0.49155757 0.16773671 0.12492938 0.37543336 1.010121 -0.15635484 1.247412 0.24478821 -1.3317817 -0.21217646 0.012899003 -0.85369056 0.6714456 0.088683404 0.1364057 -0.4663149
adalah -0.83536744 -0.5743225 0.0042127795 -0.12951921 0.08134475 0.30265263 0.057275996 0.5153735 -0.81448674 1.2309532 0.64172405 0.30121765 -0.07575837 0.2509229 -0.079209924 0.31794322 1.2959397 -0.53808475 -0.33846968 -0.5954616 0.19454452 0.07308092 0.029854601 0.22996342 -1.069084 -0.46201044 -1.3550441 -0.7713616 -0.23371428 -0.2465656 0.75612915 0.17766872 0.14723493 -0.9965834 0.59482455 -0.6895937 -0.67505205 -0.7778879 0.34745768 -0.47616526 -0.13311154 -0.19456981 -0.20361273 0.1254917 0.18419638 0.057857703 0.43726632 -0.33615226 -0.08717782 0.33250096 0.5352343 -0.2996158 0.8180333 -0.31469885 -0.15685625 0.055440195 -0.20041047 0.25043404 -0.43878925 -0.4212985 -1.38542 0.8008514 0.2573027 -0.48364195 0.29411054 0.004525344 -0.6333526 -0.39654183 -0.45908722 -0.93096983 1.3822244 -0.43296403 1.0878458 0.10392594 -0.27266175 0.1000116 -0.0028516282 -0.36285853 -0.17225699 0.10229116 -0.42287764 2.031298 1.0723706 0.40616667 -0.13473016 0.0066181365 0.40005443 -1.0016037 0.74396306 0.4037519 0.88920164 -0.59745127 -1.081321 0.6698438 0.3489055 -0.1352019 1.3535484 0.1982844 0.37533176 -0.3626784
mereka 0.30466908 -0.061892536 -0.15154509 -0.67076635 1.4581233 -0.118569985 0.5280176 0.045508824 -0.767187 1.2926557 -0.64757705 -0.3670067 0.45270807 -0.22213899 -0.14894402 0.101157576 -0.65068895 -1.1135123 -0.58608735 -0.43223232 -0.58151674 0.46499422 1.2418324 0.43048435 0.10183245 -0.9123896 -0.13694568 -0.9128261 -0.16384733 -0.25346377 -0.14763789 0.580642 0.5281074 -0.033030562 -0.6253541 0.15724927 -0.730615 0.1279658 0.02363922 -0.65531796 -0.09654962 -0.21376626 -0.0020208843 0.5908759 -0.9120083 -1.113846 -0.56387717 -0.42130247 -0.47053608 -0.44424695 0.014947083 0.56415105 -0.39281416 -0.2728142 -0.16018525 1.0014889 -0.45208308 0.4916664 -0.060306203 0.029938621 0.25247923 0.27114314 -0.5674731 0.7326309 0.04556518 0.071030766 0.4325668 0.2660351 0.16890234 0.2512235 -0.50447935 0.7204059 -0.47025353 0.4915446 0.7691217 -1.2127527 1.3647176 -0.13023825 -1.1935116 0.15784696 0.23307677 0.0691473 0.18624465 -0.05587941 -1.1777768 -0.07554772 0.31588876 0.41069296 1.4456729 -0.44504148 0.59830457 0.4295651 -0.33362117 0.14962612 0.4694861 0.17852877 -0.17906971 0.7982842 1.4920933 -1.059332
membantu 0.13806641 0.2303231 0.1770759 -0.5547775 0.29640466 -0.39442536 -0.4478378 0.5124042 -0.5770943 -0.18373993 0.17499964 -0.72383475 -0.7199472 0.22306055 -1.0516882 -0.26565707 1.23049 -0.15315557 -0.8547782 -0.5843535 0.071927056 0.1223846 1.0962015 0.19417794 -0.60589266 -1.0359776 -1.6112118 0.5256027 -0.14764415 0.20163177 -0.048838034 0.6403737 -0.34515488 -0.055070013 -0.89600503 -0.105915785 0.26563767 -0.15119264 0.2972554 0.1122527 0.3234362 -0.16712542 -0.32499614 -0.50464076 -0.4860465 -0.81671816 0.7866846 -0.6083747 -1.0729809 -0.16986412 0.5507813 0.33797047 0.055938337 -0.24874775 0.75034493 -0.2704031 -0.4213416 0.31136352 -0.26235205 -0.32055137 0.82835394 -0.45672572 0.8438285 0.9850509 -0.19640261 0.13947263 0.85903615 0.22533956 -0.8308668 -0.48229057 0.0058671073 0.4632541 0.4328261 -0.15495259 -0.03204692 0.27922887 -0.04785038 -0.58014005 0.11134559 -0.6318197 1.0845845 0.41349828 0.10910835 0.8147095 -0.7740489 -0.37615573 0.09167485 -0.48572803 -1.1816403 -0.6088904 0.5858197 0.007484083 0.11184017 -0.14134711 -0.2075923 1.2098656 -0.19573359 0.87993115 0.81998324 -0.2655821
darurat 0.20942368 0.6588677 0.076347955 0.9021723 -0.5954538 -0.69845575 0.77651644 0.5698881 -0.832528 -0.22682102 -0.7032842 -0.30419806 -0.20141001 0.44132975 0.21854962 0.24739082 0.40289292 -1.1182489 -1.3109059 -0.030168653 0.13965364 0.04845275 -0.060123138 0.6056626 -1.4360602 -0.35968778 -1.4636081 -0.11843009 -0.09543227 -0.8131913 -0.5411363 0.45043844 0.02030479 -0.57268274 -0.45571956 0.6330444 -0.030541418 -0.16680719 -0.6116875 0.22354636 -0.67097574 0.7579112 -0.032961905 -0.25226924 0.78173715 0.008089979 -0.50278354 0.80027074 0.6453532 0.42979 -0.38354352 0.6725791 -1.1457874 -0.28904504 0.41062564 -0.030891338 -0.5020597 -0.19014058 0.4657161 -0.20364797 -0.28616092 0.41106832 -0.57474715 -0.08111661 0.51003647 -0.13059965 -0.16862486 0.14884742 -0.06346721 -0.35274607 0.4629485 0.65184104 -0.16261359 -0.3342952 0.9574139 0.87201566 0.1401695 -1.1599956 0.82417345 -0.4085535 -0.4448245 -0.31053948 0.12565768 0.29667038 0.42807665 -0.6354393 0.21590313 0.52158225 0.080667384 -0.05416906 0.48294464 -0.20751442 -0.508146 -0.30445343 0.015322096 0.51565206 0.4049702 -0.7167675 0.23168728 -0.44243246
meningkatkan 0.054658733 -0.61962855 0.70630646 0.9696262 -0.2478336 -0.6438648 0.075439155 1.1084057 -1.0632483 0.009715514 -0.6139442 -0.10242892 0.4103394 0.17626819 0.08926311 -0.15701139 -0.02174442 -0.51176625 -1.2535477 -0.44328362 0.46704274 0.0058107846 -0.31623042 0.4715561 -0.7039233 -0.84867764 -0.9659448 -0.07131291 0.73637486 0.5754888 0.05029817 1.0555792 0.23093098 -0.57247424 -0.8671004 -0.21901232 -0.28248876 0.14945443 -0.10259001 -0.5914653 0.4568728 0.1395903 -0.11867578 0.41673648 -0.72559255 0.6096779 0.07823105 0.7805574 -0.04436079 -0.6326087 0.70794225 -0.70518297 -0.10057302 -0.2322407 0.059758518 -0.7399897 -0.28092593 0.60749674 0.5104559 0.04419504 0.33934504 0.0016289888 -0.04405239 -0.02048991 -0.94846183 0.098672025 0.8434866 0.53153706 -0.8330071 -0.66577315 0.06241106 0.3374674 0.38662034 -0.6753354 0.68822575 0.13127439 -0.38082612 -0.50940186 -0.5664167 -0.068775944 -0.2680001 0.53594786 -0.016390076 0.33803838 -0.22378159 -0.74526745 0.046600044 -0.61938506 -0.0025754317 0.7317616 0.6451981 0.1967628 0.3864957 -0.5755201 0.4503504 -0.5940758 -0.18375716 0.38074496 0.6842546 -0.038221296
harga 0.5978215 0.48707303 0.11331653 0.50229037 -0.11438483 -0.6387361 -0.61401653 0.6886467 -1.7377743 0.72902334 0.5004701 -0.35059184 0.25851274 0.40011045 -0.026344826 0.3972639 -0.14747748 0.24027981 -0.6138789 -0.84053403 0.58195037 0.76740867 1.1036636 0.06502628 -0.651938 -1.0877316 -1.1368057 -0.23858905 0.64229894 0.47572806 -0.72827953 -0.10214862 0.49579313 -0.84307194 -0.3198768 0.06283135 -0.94722736 -0.12729579 0.68728703 -0.3714391 0.07820065 -0.20086683 0.42346486 1.124043 -0.395271 -0.23243992 -0.5011938 -0.4014583 0.800232 -0.3789268 0.7692418 0.72427887 0.24219042 0.22045097 -0.12898913 -0.05724123 -0.24911186 0.39151496 0.5023482 0.2544612 -0.38182184 0.9347999 -0.5027768 -0.079351276 0.18493547 0.23352815 -0.005989486 0.5819047 -0.2173996 -0.1501736 -0.07991699 -0.3369445 -0.60263395 -0.6472992 -0.2485473 -0.50313884 0.34492332 0.06942506 0.015160006 -0.23059858 -0.40423486 -0.36808854 -0.2122251 0.8203239 -0.71565676 0.87410665 -0.76014596 -0.024833096 -0.16300726 0.7381703 -0.07167527 0.14014743 -0.35238734 -0.36550677 0.84601414 0.055089697 -0.98324156 -0.31332436 -0.20328821 -0.023527618
baru 0.95508945 0.54839766 0.41346425 0.5433963 -0.22420429 -0.7036184 0.1391025 0.46428522 -0.826852 0.015152509 -0.43590865 -0.5789353 1.277644 -0.32758117 0.29648712 -0.8894039 0.98581886 0.9493436 -1.05855 -1.2654538 0.52661437 0.5305204 0.8953227 0.49652982 0.10637254 -0.006108437 -0.09389255 0.32724553 0.86204576 -0.07919764 0.35472775 -0.47524226 0.1446437 -1.5049281 0.06110886 -0.022778666 -0.6490242 -0.50305897 0.61050886 -0.8081529 -0.1235287 -0.08777889 0.8277769 0.7513685 -0.16956502 0.29608133 -0.7000607 -0.84382427 -0.39232033 -0.45380178 1.1016225 -1.0342942 -0.6660675 -0.16753061 0.7740033 0.79651093 -0.42026982 -0.0100948 -0.14431803 0.6610791 -0.040069073 0.2221586 -1.0594836 -0.3826753 -0.9302378 -0.2026095 0.45361328 0.43957198 -0.32083488 0.068580605 -0.8429001 -0.034081087 0.6213582 0.23290151 0.74112165 0.64167434 -0.34743243 -0.7368199 0.16871165 -0.15084764 -0.19432774 0.7003577 -0.27317116 0.06643303 -0.69000316 0.40401068 -0.99852425 -0.73158526 0.68664503 -0.7638729 0.4518604 -0.010923863 -0.9962793 0.3215547 0.50024796 -0.6514073 0.16051438 0.5080588 0.65495867 -1.215497
terjadi 0.52547276 -0.2802024 0.35145396 0.5859375 0.5198419 -0.7376655 0.26736605 0.77598715 -0.78552324 0.34364736 0.5831067 -0.697262 -0.47212014 0.53321004 0.9435872 0.27811614 0.12565574 -0.58181536 -0.15385123 0.69706523 -0.01885993 1.121749 0.8570199 0.13058664 -1.24642 0.1280419 -1.1331209 0.55268884 -0.40906012 -0.25886187 0.47592062 0.55497235 0.3470222 0.6493485 -0.55862325 0.13787284 0.4207007 0.23135452 -0.9388225 0.23649931 0.06784829 0.06699143 0.1532008 -0.26818708 0.32554963 0.2880446 -0.27695054 -0.21433446 0.18324345 0.33632913 -0.030675555 -0.8354193 0.15251362 0.08956681 0.1131451 -0.07192284 -1.1059315 -0.08363896 0.18195145 -0.02497317 0.03850939 0.22238128 -0.24368103 -0.4074213 -0.8996778 0.22009535 0.07291118 0.10304926 0.7556065 0.52616996 0.1079515 -0.1824404 -0.29946613 -0.6262038 -1.0299003 -0.13389884 -0.15807387 0.78112435 0.49017748 0.15652959 -0.19716328 -0.18839872 0.11327849 1.4373442 -0.4176476 0.21529973 0.18086004 0.90661824 0.69584864 -0.66792524 0.76724297 -0.584588 0.49483454 0.33868575 -0.17590122 -0.055983875 0.02454159 0.35300016 0.34092414 0.08530247
lebih 0.50252974 -0.79350847 0.7252184 0.47991318 0.863669 -0.23768166 0.23002458 0.7037354 -0.99668324 -0.32184315 -0.42848215 -0.14861017 0.6557738 -0.46316695 -0.09536309 0.68875587 -0.05972977 -0.6704145 -0.7450464 -0.48045072 0.41019985 -0.069050275 0.10592496 0.037680797 -1.2371181 -0.8262014 -0.8425209 0.68834454 0.10866575 -0.38122052 -0.061555117 0.21572228 0.8187595 0.35557413 1.3482691 -0.4985308 -1.0473192 -0.042929027 0.13447936 0.023939215 1.2372705 0.05099405 0.0978983 -0.12700711 -0.17777094 0.021538852 1.283973 -0.17551683 0.92816806 -0.27259776 0.7597064 0.49359787 -0.17207229 0.10761325 -0.7393488 0.55816424 -0.40453783 0.037607346 -0.024371045 0.41997644 -0.1643657 0.7343215 -0.67336816 -0.106649436 0.42270166 -0.30605537 -1.5133948 -0.19126071 -0.08025088 -0.607571 -0.19576657 0.22313796 0.046821162 0.04451542 0.97070014 -0.38144624 -0.061784964 -0.39448974 -0.8866915 -0.48922724 -0.029531721 -0.12340348 -0.093848154 0.6218788 -0.1358961 -0.4015234 0.12260983 0.6015364 1.2160115 -0.4905468 0.9760666 -0.574963 0.05003479 0.8661305 0.502524 0.105204426 0.01979774 -0.33083552 0.54631937 0.6029962
saja 0.22081177 0.7878169 0.12596993 0.45875338 0.12907003 -1.6793848 0.25811762 1.0737431 -1.3133065 -1.0196158 0.51280886 0.1007769 0.5025611 1.0295521 0.60191345 0.0776208 0.36114687 -0.4827569 -0.043738365 1.0298262 0.6808624 -0.0528442 0.70407456 0.20563382 -0.7831605 -0.04417943 -0.3295498 -0.5569808 -0.6777364 0.34259325 0.4352073 -0.8857086 -0.4732456 -0.7091167 0.19796576 0.25840038 0.29394686 -0.31068277 -0.074419625 -0.30727795 0.2321444 0.5565112 0.061174273 0.9156221 0.28722993 0.06513299 0.21848479 -0.6331761 0.060859688 0.17352109 0.3883091 -0.3826748 -0.5159053 -1.1000794 -0.18324673 -0.46573886 -0.46712595 0.022568228 1.1128318 0.631981 -0.31832412 0.84123546 1.092354 -0.44548506 0.05650964 0.61739 0.8639449 -0.5943594 -0.30715403 -0.83196384 -0.06421094 0.34733313 0.33608168 0.09077732 -0.075515054 0.32830882 -0.51281774 -0.0845773 0.33153135 -0.012254791 -0.8475507 -0.026703143 -0.19577271 -0.22657086 0.021962536 -0.3183179 -0.50263625 -0.010397906 0.15534712 -0.4378 -0.03783752 0.008756134 -0.82130593 -0.28977823 1.0242811 -0.7269554 0.533477 0.19950058 0.53380233 -0.5197615
vaksinasi 0.34786126 0.077977814 0.10701504 0.7908927 -0.22889312 0.4252587 1.1681942 0.76296115 -0.8998182 -0.49203774 -0.7118588 -0.8535132 0.03975924 -0.13886684 0.38912427 0.033554833 -0.3210441 -0.30362615 -0.63234407 -0.015709199 1.1079115 -0.04656272 -0.5262696 -0.1591071 -0.98886675 -0.12062948 -1.2251555 -1.2157463 -0.23860808 -0.15392171 0.10448013 -0.38738093 0.48701894 0.302519 0.056340504 0.36784586 -0.7083892 -0.21897398 -0.1756322 0.19468015 -0.14556265 -0.22932617 -0.6159311 -0.33323488 0.4792993 -0.15853499 -0.5293947 -0.052035153 0.07896996 -0.27330726 0.25603315 -0.25808173 0.093570255 -0.29089513 -0.32012996 -0.74132043 -0.036764205 -0.5992627 -0.8732935 0.3357953 0.6438801 0.00887385 0.96515214 0.05278737 -1.3442693 0.08012155 0.16765186 -0.65934265 -0.54230607 -0.39898303 -0.23204108 0.6890524 -0.55530906 -1.1335654 0.6701721 -0.47783908 -0.6986683 -0.17367138 -0.29836702 0.13840504 -0.9989581 0.550965 0.466871 0.4458877 -0.2078868 -0.7559883 -0.6420822 0.21225213 -0.22099815 -0.3467085 1.2506651 0.09817944 -0.6829204 0.050220497 0.607562 -0.07340481 -0.61011803 -0.9257696 0.44405445 0.2518588
kota -0.75475675 0.62119555 0.022421775 1.2014276 -0.5233959 -0.56468976 0.9458018 -0.05726733 -0.6162697 -0.32745838 0.5448788 -0.4762619 -0.23155005 0.088081 0.33084834 0.33126765 0.9048698 0.31780538 -0.51611906 0.28117025 0.15918529 -0.42726383 -0.58860594 0.26354724 -0.9295992 -1.4568117 -0.8180923 1.1727519 0.4979852 -0.55925137 0.4474938 0.9031031 0.067153394 0.5176715 0.09732552 -0.3915761 -0.45675513 -1.2282578 0.8311548 0.34073883 0.2481637 -0.11008068 0.42530456 0.2766871 0.43324697 -0.7770868 -0.3139837 -0.61489975 0.42663336 0.40753505 0.61644834 -0.04710656 0.27212447 -0.33993626 0.6647648 -0.35218212 -0.6473903 -0.09548865 -0.5168665 -0.016212022 0.3547515 -0.0042291037 -0.23527673 -0.49525696 -0.82384914 -0.67620444 0.33207166 -0.29101148 0.23697898 0.19468218 -1.0397768 -0.05939692 -0.023523178 -0.5620964 0.7139317 0.2752888 0.5177269 -0.61110806 0.68959683 0.25590914 -0.3316012 -0.33925378 0.50732744 0.365797 0.95672494 -0.246723 -0.7218117 -0.40008563 0.18312077 0.0037716937 1.0780083 -0.52738655 -0.7491438 0.7656561 0.041850116 0.053592358 0.06541476 -0.38827667 0.4821718 0.40949658
mengenai -0.18773282 1.5343851 -0.4396309 0.27989727 1.7274259 0.20335378 0.098735236 0.18414094 -0.6031442 -0.5428422 0.28486782 0.45087025 -0.13817188 0.4604875 1.7449038 0.6056934 0.8131198 -0.09713331 -0.7682677 0.6001448 -1.0626366 -0.66502374 1.5392165 -0.6705396 -0.7398905 -0.49746442 -0.30401167 -0.32047695 0.3562734 -0.098028615 -0.13722867 -0.8237369 -0.37273696 0.5893157 -0.3949605 -0.8030758 -0.085377246 -0.9489473 1.035903 0.2919367 0.47181976 0.2935915 0.2826968 0.25492927 0.796038 0.60167253 -0.2210558 -0.7839863 0.15086721 -0.40458912 0.7621111 -0.04686757 -0.08724048 -0.68113947 -1.1086813 -0.14410502 0.17107281 -0.46627063 -0.46962366 0.06587305 -0.27335674 0.60086536 -0.40355235 0.108809315 0.37520638 -0.66867155 -0.707579 0.41857284 -0.38901928 -0.096393004 0.9188676 0.8365499 0.113711655 -0.404703 -0.04289674 -0.18368156 0.1332136 -0.06846594 0.61655366 -0.87151384 0.5212764 0.2920423 0.20327823 0.13480721 -0.11210808 0.69566685 0.5827781 0.058976404 -0.5529596 -0.47852746 1.744554 0.736972 -0.27096415 0.1036302 0.8586414 -0.41610304 0.52018994 -0.57565117 0.47784826 -0.71481955
perlu -1.1494312 -0.7015586 0.5869924 0.37352213 0.49365857 -0.2843464 0.13734026 -0.27218097 -1.1939311 0.017857127 -1.0083989 0.07597148 -0.09620873 -0.5829558 0.9881528 0.7243498 0.26503992 -1.4801749 0.5122514 -0.5512598 0.2349337 -0.1631863 0.7702195 -0.0063220975 -0.25970244 -0.6325176 -1.0884762 0.75701314 0.8851943 -0.6107082 1.2919893 0.3984555 -0.35922992 -0.715455 -0.40195978 1.158146 -0.9589588 0.27637982 -0.28468654 0.0023306708 0.74559593 -0.9039328 -0.5788964 0.2489951 0.4242841 -0.40634352 -0.102620035 0.12999454 0.2825792 -0.42818218 0.19381787 -0.30899733 -0.32074937 -0.27337322 0.09997334 -0.3792685 -0.1902366 0.018255524 0.251101 -0.45627782 -0.6171034 0.888123 1.2152771 0.9998537 -0.0053707496 0.2845189 0.68037546 -0.7342131 -0.25784236 0.37423047 0.49917978 0.43315148 0.53343004 -0.27485168 0.9860973 -0.27313107 -0.58176714 -0.48522174 0.059289712 -0.34759182 -1.0564777 -0.4056721 -0.45651662 -0.0166952 -0.76135993 -0.2027385 -0.43359166 -0.25118893 0.43267968 -0.04501461 0.10302957 0.047385477 -0.20789626 -0.43546617 0.008582959 -0.09151919 0.9069966 -0.3761963 0.1812101 -0.6677395
menyebabkan 0.30467466 -0.04749342 0.85480636 1.640059 0.7899435 -0.5027759 0.026441509 1.3919091 -0.7736796 0.38586566 0.50424874 -0.9255706 0.31825438 -0.010533267 0.69252026 0.6428607 0.35447192 -0.3313821 -0.5081529 -0.39204103 -0.14142992 0.3497083 0.62455606 0.23075554 -0.4280085 0.1911911 0.21564251 0.21865311 0.1304732 0.9033394 0.71008396 0.025409667 0.015733374 0.48642823 -0.2028978 0.24811953 -0.62037915 0.24436146 0.20867607 0.19066897 -0.19790919 -0.01665175 -0.33331242 0.45883417 -0.3702723 -0.28177235 -0.10610081 0.49787182 -0.5523222 0.15006287 0.5029782 -0.19983073 0.2699454 -0.36346194 0.95075333 0.0038931563 -0.009727129 -0.023128051 0.24045178 0.08218699 -0.5920095 -0.28136352 0.24936382 -0.020987136 -0.51284575 0.2470756 -0.2957348 0.42942056 0.11533973 -0.16566113 0.9375046 -0.084670395 -0.078284465 0.7369687 -0.2751922 -0.013727059 -0.061195485 0.080148295 0.38333216 -0.9706396 0.356047 0.065522425 0.3410358 0.026591867 -0.40606564 -0.07822953 0.21853061 -0.06121029 0.36228132 -1.1010283 1.1624717 0.1402887 0.14775798 0.57553226 0.28099802 0.60642433 -0.63046867 0.69944483 0.27241227 0.437208
mengurangi -0.2461799 -0.29331705 0.5587037 0.68727666 0.10264307 -0.37750357 -0.22149034 1.6844707 -0.6717274 -0.1642552 -0.533327 -0.7377427 -0.25127128 -0.05561998 0.19801782 -0.61373097 0.6999023 -0.57342917 -0.4793852 -0.6556034 0.09502304 1.3196088 0.7926158 0.39941186 -0.47704026 -0.30424827 -1.1967452 -0.10420013 0.06809847 0.97027004 0.63030154 0.40882346 0.8547419 0.013655693 -0.43317214 -0.17038971 0.32425183 -0.5835501 0.5293938 -0.9447447 -0.71962035 -0.13419595 -0.40381974 0.6254427 -0.34402108 -0.17191286 0.04611664 0.16046734 -0.40348682 0.47666553 0.5564111 -0.46778363 1.080479 0.14545381 -0.10523332 0.6106394 -0.12565906 0.15138581 0.65353376 0.8885858 0.1855646 0.1045545 0.13915177 0.010584627 -0.102456875 -0.5591975 -0.10341433 0.15811144 -0.9465558 -0.80197006 0.09001728 0.8507448 0.16836709 -0.018544884 -0.5679456 0.014188055 -0.37502894 0.060476627 -0.5835944 0.65880615 0.4676364 -0.5097681 -0.07388499 0.30501726 0.05721943 -0.1463631 0.03276497 -0.47908193 -0.11145804 0.19043279 0.1804631 -0.49926347 0.35827956 -0.121518984 0.378158 0.19023758 -0.1435623 0.35837418 0.7776361 -0.49039719
bagi -0.09221416 0.21645038 -0.031591613 0.062130805 -0.69342715 -1.0331452 0.18839481 0.7482922 -0.9042079 -0.3086931 -1.6692278 -0.9425469 0.4941135 -0.23714697 0.03378047 -0.46994832 -0.72839695 -0.6712658 -1.123905 -0.29162693 -0.13727114 0.34601888 -0.1922537 -0.2417651 -1.2418096 -0.43023795 -0.12249011 0.40762475 0.16138785 -0.18468538 0.41450754 0.79098856 -0.110861994 0.17918247 -0.28951657 -0.4249218 0.6220973 0.5052386 0.091984704 0.5951242 1.1987768 0.7611732 -0.329101 0.081494056 -0.14155672 -0.883812 -0.4417476 -1.2179884 -0.3698658 -0.51269627 -0.73230016 0.2072239 -0.13994808 0.3189425 -0.1866034 -0.3703438 -0.09600969 0.33821818 -0.04757989 -0.44471395 -0.0973218 0.41608843 -0.10229274 -0.75639415 -0.14645799 0.16479449 0.4282146 -0.5959568 -1.4092922 -0.117845215 -0.5982349 -0.42915797 0.21439245 -0.04482491 0.36764824 -0.24407312 -0.13822779 -0.8506033 0.71152335 0.061581437 0.12697391 0.35555688 -0.5004317 0.89532226 -0.04853955 -0.86239284 -0.21426062 0.55415887 0.19670315 -0.13908623 0.37700596 0.46758467 -0.74818224 -0.15522411 0.48968774 -0.2174993 0.30844325 -0.23102026 0.84002113 -0.22489117
kasus 0.2690073 1.5768772 -0.09436156 0.13384938 0.43791223 0.16318978 0.0006312058 1.0984222 -0.59858066 -0.13898551 0.97540015 -0.2864735 1.0783192 -0.698977 0.23887856 0.15089814 1.1290368 0.12030313 -0.28310928 -0.4891568 -0.012644198 0.17900161 0.6904401 -0.10190705 -0.72829294 -0.97220486 -0.9574825 -0.38982502 -0.13480508 -1.1692989 -0.16901717 -0.09160815 0.6524932 0.47871536 -1.1766317 -0.6125133 -0.06125466 -0.6680028 0.3200129 0.30536455 0.74326766 -0.33370173 -0.53528816 -0.43790337 0.50014347 0.005691957 -0.77403903 0.17004833 0.29580432 0.96905935 -0.24509849 1.1520623 -0.22484586 0.24489902 -0.18917103 -0.060150787 0.5409329 -0.49056643 1.3747841 -1.0009698 -0.09056078 0.94555014 -0.12620324 0.40253502 0.10753009 -0.37145016 0.5102984 0.4600418 0.06060144 0.27600402 0.21647991 1.3407278 -0.21573885 -0.6641087 -0.29782078 -0.07868911 -0.77111506 -0.3461444 0.088742234 -0.32078698 -0.03618117 0.061157204 -0.19913892 0.86834264 -0.2791827 0.24109249 -0.27430794 0.46978387 0.13226211 0.43894705 0.12586366 -0.08653532 0.14354211 0.2519476 0.108946614 -0.1062809 0.0997631 1.0484226 -0.6228065 0.6424023
warga -0.28791034 -0.26688606 -0.48113692 0.28319177 0.5122317 0.16794522 0.82991505 0.7066655 -0.7463461 -0.024744473 -0.3746592 -1.0020539 0.6661361 0.24873742 1.4080393 -0.42904675 -0.16474657 -0.17344815 -0.82156247 -0.06632143 0.4710288 0.7945345 0.42136258 0.03534435 -0.9472024 -0.5798742 -0.36540997 0.5698851 0.7777783 -0.5349674 -0.1041701 1.1713656 0.4018511 0.06058161 -0.38033646 0.13048336 -0.7461979 0.18499815 0.48534676 -0.06653086 -0.49236342 0.16868265 0.09248353 -0.020981492 0.0074099354 -0.46320534 0.9189263 -1.0254867 -0.9019514 -0.082695946 0.5113854 -0.366523 0.9700414 -0.09047915 0.09614303 -0.41201 0.7429606 0.9074184 -0.3770958 -0.065409586 0.6702523 0.7114403 -0.9923864 0.40562245 -1.1666517 0.611766 -0.7027126 -0.07204646 0.3701492 -1.7489088 -0.37609702 0.49380046 -0.299481 -0.20144023 0.24746248 -0.4580828 -0.2730642 0.3079234 1.0048484 -0.3841407 0.014204971 0.7247704 0.75185275 -0.13984269 -0.55706775 0.2966887 -0.24268568 0.16408157 0.3393545 -0.17420848 0.762912 -0.71149623 -0.06280334 0.3688759 -0.005070873 -0.5565468 0.18847544 -0.31285942 0.15622184 0.25968617
jakarta -0.5565755 0.64918804 0.11510846 0.37795058 0.08365726 0.36907494 0.1802834 0.42089766 -1.6568494 0.72542435 0.12961523 -0.58582425 -0.12718141 0.9480742 -0.27431986 0.109115645 0.08066147 -0.47548246 -0.7335114 -0.35654306 0.30348107 -0.46736473 0.27464926 -0.12553366 -0.9825738 0.28099892 -1.1901553 0.6767378 -0.111734234 -0.05015119 0.17410038 0.11798837 0.4373179 0.9025502 -0.19804862 -0.408636 -0.1954255 -0.6224597 0.24652997 0.113370396 0.1889044 -0.035867676 -0.25047848 1.0713931 -0.0589378 -0.37019125 -0.74535453 0.57203895 1.0916961 -0.32406223 0.2437453 0.5047137 0.5218621 -0.2948085 0.08862009 -0.47287402 -1.0500171 -0.33639315 -0.102842666 -0.9929037 0.07611183 -0.65782046 -0.7961989 0.63067865 -0.5728212 -0.39446118 0.85177827 0.03188265 -0.05672599 -0.62552327 -0.34366408 0.27943212 -0.55026275 -0.4489356 0.7521473 0.06549801 -0.18163997 -0.047548283 0.6033723 0.13074164 -0.50756496 0.114723384 0.6580497 0.29324555 -0.07285867 -0.67162436 0.001083338 0.6070384 -0.2760691 -0.58426803 -0.19324768 -0.33467925 -0.34290844 -0.27214983 0.5708648 -0.22154246 0.24456148 0.112532414 0.58159673 0.26418042
jika 0.35762164 0.38741225 0.06507704 0.51948303 0.22015075 -0.39039215 -1.0249108 0.92841893 -1.1379932 -0.48161346 -0.25332144 -0.5558155 -0.14399585 -0.23737317 0.64653563 0.69344586 0.59740156 -0.4118999 -0.397039 -0.789937 -0.54692894 0.21639706 -0.3944346 -0.5912317 -1.4331352 0.15059616 -0.11209881 -0.32739955 0.87386656 -0.72185475 0.44506568 0.41523555 -0.05015489 -0.47263613 -0.816851 0.43578744 -0.70412314 -0.03680871 -0.2524025 -0.08256818 0.2730653 0.7154163 0.19187294 0.19187227 0.40181586 -0.4041473 -0.40203324 -0.42608342 0.098668054 0.4996863 0.61283433 -0.17289306 -0.25327504 0.23550045 -0.46107414 1.0586582 -0.36963186 0.4111701 -0.30239022 -0.048839726 -0.22597043 0.30660287 0.25518844 0.546365 0.16448772 -0.29629546 -0.25354207 0.89423054 0.21765856 0.5706977 0.24685846 0.361171 -0.8309377 -0.32694247 0.48316106 -0.031332847 -0.4800232 0.25093752 1.195516 -0.44234717 -0.09055132 -0.3807693 -0.8966309 0.37351596 -0.003485312 -0.9036911 0.85620195 0.86463475 -0.05726776 -0.47293153 0.071383394 -0.20131993 0.453657 -0.10815627 0.4492063 -0.6222136 0.48179507 -0.26266423 0.6481964 -0.27947587
dia 0.51700324 0.6280043 -0.70107096 0.31610104 -0.13599485 -0.095827326 0.7570913 0.06814881 -0.7287521 0.2797724 0.17065087 -0.029306587 0.2055338 -0.5123095 0.4239101 0.29499167 -0.22756948 -0.53037226 -0.21991056 -0.2723468 -0.88378876 0.93870395 -0.92253023 -0.39383233 -0.8294685 0.5435836 -0.4238405 -0.3968173 0.58358705 0.31893647 1.034679 -0.017463356 0.15837568 -0.46280503 -0.57113534 0.21765237 0.12603195 -0.10613638 -0.7405359 -0.88966763 0.062646836 -0.6691971 -0.23220937 0.55861676 0.123852 0.6107364 -0.572835 -0.07153021 0.05674604 0.0010788236 0.5287901 0.28274608 0.14084743 -0.39643422 -0.79376864 0.15673462 0.23171979 0.115977235 -0.21752661 -0.57239866 -0.72061694 0.29281756 0.03140598 0.15687205 0.093240134 0.8046012 0.74081826 -0.13234426 -0.62897944 -0.1596266 -0.16137907 0.1212616 -0.15742673 -0.62076634 0.18891922 -0.9877745 0.21349303 -0.3744835 0.81154424 0.027230004 -1.4544536 0.27375343 0.2284397 0.042763654 -0.1925672 -0.61537945 -0.033371452 0.99216527 0.5661306 0.15900117 0.6758342 0.53247494 -0.13564521 0.37203977 0.0063068415 0.05217557 0.18791813 -0.36666596 0.90996003 0.52148074
tahun -0.27972877 -0.30580565 0.696028 -0.42098477 0.6081079 -0.23744512 1.4186882 0.9328857 -0.96429724 0.050355982 -0.46123138 -0.28264356 0.5874424 -0.4404495 0.24920794 -0.27069607 0.09050996 -0.8004842 -0.5432955 -0.33788177 0.51318914 -0.041537136 -0.36120883 -0.21372937 -0.99379563 -1.1872405 0.07237664 0.56505173 0.0037242617 -0.26691565 0.40247783 0.43281597 -0.24029942 0.9634213 -0.43878183 -0.83566654 -0.21027155 -0.45122382 0.44753507 0.035199936 -0.99569446 0.54656386 -0.6279055 0.21259558 0.4868171 -0.38386592 0.17435284 0.026269652 -0.62839305 0.6375566 0.54500043 -0.07293152 0.37316725 0.20887639 0.8198891 0.030640222 -0.042213716 0.46550685 -0.6202227 -0.35454562 -1.0530382 1.1750184 -0.5225579 -0.28271073 -0.028432118 0.6661562 0.7329203 -0.16243185 -0.25662616 -0.35336256 0.8558273 -0.27513602 -0.06715758 -0.1999178 -0.022737937 0.09886792 -0.7930726 0.9752946 -0.2356489 -0.070549145 -0.20241946 -0.85813415 -0.6174447 0.3034165 -0.12824689 1.0891069 0.26129273 -0.11444302 0.3065763 -0.59720886 0.64843684 0.36050445 0.13907999 0.23714809 0.9008668 0.03129608 0.1903404 -0.76615363 0.63663787 -0.49167135
telah 0.53236884 0.338919 0.08306986 -0.022950524 0.034447387 -0.5062698 0.6205132 -0.4185837 -0.848811 0.29090172 0.7747776 0.023636919 0.24081989 -0.007093203 0.2458168 0.8538867 -0.10008515 -0.118645884 -1.2864563 -0.36963353 0.08367296 0.9158953 -0.2816518 0.56838995 -0.71243507 0.075213216 0.5469469 1.160561 0.06995286 -0.012810977 0.058128063 0.41187096 0.06705075 0.46289268 -0.7196176 0.49997577 -0.39060166 -0.6980271 -0.35520175 0.9620064 0.24527869 -0.31925306 0.055150103 1.1940917 0.7619655 0.7534905 0.13930978 -0.12746106 -0.49801722 0.2170928 0.16478463 0.4781199 -0.5295547 -0.34886345 -0.2681356 -0.31771886 0.131073 0.54603916 -0.5687791 -0.45244634 -0.72352785 -1.2729474 -0.29030526 -0.18651295 -0.14126566 0.34753627 0.08603702 0.550536 -0.2362281 0.16910565 -1.0440179 0.526086 0.42259043 0.37081358 -0.36931643 0.1584757 0.15128069 -0.25529918 0.3127522 -0.15170097 -0.0011219614 0.5818065 0.53959554 1.3457129 -0.60999525 -0.15613163 0.64349467 0.35108262 0.50232434 -0.19826879 1.101555 1.0987998 -0.89332956 0.11284922 -0.17792782 -0.121245675 -0.09288136 -0.55462366 1.0143896 -0.03206591
ekonomi 0.19880663 0.87366533 0.60074145 1.136518 0.15836883 -0.03659957 -0.87474984 0.9087908 -1.6380596 0.58504075 -0.20551176 0.06566691 -0.47412404 -0.2281796 0.12599066 -0.59238094 0.3402791 0.120571405 -0.11629556 -0.6937933 -0.32871574 0.8225768 0.13222489 -0.0980336 -0.80790704 0.10800609 -0.5272735 -0.7952602 0.46526545 0.081416555 -0.3196729 -0.163135 0.19858123 -0.47077712 0.029280355 0.23011391 0.033175986 -0.13802983 -0.27351588 -0.5862984 0.18561912 -0.14313182 0.06376655 -0.5052498 0.05124963 -0.09652282 -0.4871803 0.29014617 0.00046532866 -0.6760025 0.63914925 0.32710463 -0.13121828 -0.75548375 0.7147492 -0.6505044 0.17316361 -0.090415254 1.1922143 -0.43306017 -0.53583074 0.8359019 -0.20699131 0.32736564 -0.88934404 -0.36287096 0.113070376 0.04513488 -0.905787 0.086104564 0.8953402 1.2440002 -0.8240396 0.028018797 0.33391842 0.15902078 0.59244245 -0.83469653 -0.8710895 -0.21646896 -0.09429239 0.69998515 0.2690813 -0.4752182 -0.22785793 0.0028723315 -0.5707514 -0.2673731 -0.8314924 0.15328056 0.29655868 -0.28950432 -0.101869404 -0.3975969 0.5771165 0.5394169 0.76979095 0.20710593 0.22367956 0.06669809
rumah 0.022436371 0.39149418 0.55988675 0.85847694 -0.39493084 0.024061749 -0.2984748 1.0223862 -1.0687186 -0.5980248 0.12914419 -0.5508705 -1.3561352 0.61658436 -0.5504786 0.1463522 0.15615866 -0.6627633 0.20577198 0.037832376 0.0049996492 0.39706233 0.8247814 0.6534667 -1.7674243 -0.8652886 0.043186374 0.8267834 0.23226473 0.28303486 0.41164204 -0.092370845 0.5980302 -0.4050965 0.06817655 -0.22407398 0.6226494 -0.44759178 0.28388545 -0.42371452 -0.20488507 -0.032281164 -0.5222167 1.2213738 0.57940704 0.19504066 -0.001458609 -0.2912609 1.0411563 -0.086485386 0.860957 -0.21864389 -0.50108534 1.0877737 -1.027899 0.18113154 0.5427628 0.29117906 0.70599544 0.5055557 0.17049241 0.119889684 -1.2596309 0.10461728 -0.5681674 0.079586424 0.64518356 0.517414 0.18527412 -0.13511485 -0.53637403 0.78939486 0.27482694 -0.7439261 0.8311844 -0.3210482 0.20165826 -1.0935801 -0.30069682 0.4344201 -0.23217921 -0.5428095 0.20301981 0.18073896 1.02851 -0.048926655 -0.07614595 0.7391648 -0.6444693 0.6337598 0.7772313 -0.82184744 0.0055057993 -0.6629895 0.037429344 -0.16086705 0.06203175 0.4745234 0.39510763 -0.4106752
pendidikan -0.5046098 -0.31554598 0.51966417 0.42567825 -0.06670661 -0.69007415 -0.3966983 0.37000972 -0.5780439 -0.408843 -0.045636382 -0.5256409 -0.58313656 -0.31386238 -0.19833885 -0.15806833 -0.067444235 -0.8845382 -0.74983275 -1.1259463 -0.10391698 -0.123680145 0.3370345 -0.4811211 -0.562582 0.43734357 -1.2826414 0.022234287 0.3848288 0.4525644 -0.9520868 0.17158432 0.6932756 -0.8014176 -0.82377404 0.43746492 0.13535887 -0.63616055 0.22502388 -0.05123601 -1.1729822 -0.6528898 -0.5040101 -0.24333295 0.2599735 -1.136631 0.5151214 0.74153644 -0.11480595 -0.36934933 -0.90530825 0.93909645 0.0633195 -0.32295358 -0.13658126 0.55469096 -0.08616263 -0.05163468 1.018366 -0.5794934 0.29060367 0.20360267 0.925092 -0.4733512 -0.23518436 0.66131157 -0.030502107 0.41012058 0.25685644 -0.35947523 -0.57945055 -0.35888645 -0.35910106 0.22464693 0.26542547 0.3084449 -0.13473229 -0.6311661 -0.48225728 0.32035083 -0.5749311 1.1084455 0.5156453 0.54266745 0.14757317 0.1637802 0.024655655 0.0057339678 0.6524225 0.09374249 1.0106773 0.6254808 -0.20857084 -0.1203932 -0.0030748802 0.670653 0.17289641 0.14271778 0.59737915 -0.30850035
saham -0.0741286 -0.25441277 0.6571953 0.8008557 -0.35229817 -1.3142728 -0.14788806 0.9051445 -1.0848356 0.32167417 -0.13241024 -0.0027889223 -0.15019381 0.08175312 0.070196256 0.29790238 -0.3125006 0.34161672 -0.5570278 -0.3655252 0.08167343 1.0002443 0.31442404 0.07133834 -0.74610454 -0.5925547 -1.313709 0.417187 0.40337273 0.37799832 0.33797652 0.62680525 -0.040260974 -0.33656785 -0.18315458 0.56959265 -0.8866134 0.40474403 -0.26002425 -0.6144902 0.37102017 0.42791066 0.18035871 0.7115634 0.2207369 -0.8089171 -0.24982753 -0.21386242 0.2774603 -0.28369358 0.48938718 0.07239859 0.18647864 -0.20875688 -0.06857723 0.45991892 -0.27051488 -0.06030416 0.4482879 0.1861216 -0.51034707 1.361551 -0.3371569 -0.69947875 0.6904825 0.31431666 0.87196505 0.58659786 -0.14279598 -0.33818012 -0.46512577 0.17909999 -0.041866 0.8064592 0.3209854 0.56371295 -0.33404306 0.28284106 0.0010966738 -0.8693452 -0.19731875 -0.18945256 -0.67451656 1.4427136 -1.3035942 1.0536878 0.068461984 -0.7217302 0.002712782 0.4065135 1.1295255 0.5668176 -0.9366691 0.21519497 0.66135687 -0.6079522 -0.12999731 -0.32005033 0.29730278 -0.7895492
negara 0.72289973 -0.0653815 0.3819952 1.2662712 0.8549678 -0.36501634 -0.6009448 1.1213454 -1.0086007 -0.02745931 -0.41029385 0.34171104 -0.23126318 0.7694061 -0.24535492 0.6363989 0.28661475 0.28202936 -0.8080106 -0.07742242 0.9483557 0.47710064 0.8814561 0.14944445 -0.47470933 0.09622241 -0.7957454 -0.23559526 0.37330684 1.1962454 0.2315583 0.40693903 0.3326619 0.60828763 0.5892353 0.019718103 -0.2127015 -0.50069636 -0.49023056 0.08159186 0.17928474 -0.91872585 0.35575438 1.3990128 0.8757703 -0.19852726 0.023079408 -0.43477994 0.16365537 0.6523152 0.5355363 0.22045931 -0.6854586 -0.4060744 0.40362427 -0.3383214 0.36794934 -0.10044303 0.054580897 -0.05674509 -0.54248995 0.7365424 -0.94151545 -0.39790022 -0.8595159 0.14696954 -0.3634095 -0.49290186 0.7248032 0.06201123 -0.39773145 0.49658012 -0.50616735 0.15891638 0.5776169 0.27815124 0.052213915 -0.016386654 -1.336026 0.16547857 0.35742444 -0.21115054 0.7566471 -1.3051758 -0.5162225 0.3798889 -1.0373738 0.37184858 -0.52476573 0.50895405 0.77295876 0.30504194 -0.861004 0.1401807 -0.0923504 0.042902093 0.94524 0.64382094 0.33997437 -0.4205366
air -0.5008206 -0.118449695 0.4818238 0.085239716 0.45742983 -0.25896755 0.19420612 1.5163212 -0.88869876 0.83546555 -0.070568256 0.11474284 -0.6996831 0.20968461 0.014442851 -0.17508268 -0.14660165 -0.27060816 -1.3520321 -0.9707719 0.45464712 0.31314403 0.24151208 0.5225179 -0.5333663 0.17522389 -1.0606074 1.286126 0.5100643 -0.83424664 0.11203624 0.25075245 0.20343776 -0.23683429 0.5783367 -0.24368343 -0.8612446 -0.8122452 0.27918068 -0.2502164 -0.83944505 -0.33324116 -0.69597733 -0.57098925 0.73441714 -0.9643287 0.59076005 -0.67491275 0.19674885 -0.019718727 -0.4590341 0.8470969 0.87475646 0.03778937 0.02898853 0.40484917 0.39235803 0.31850448 -0.17716055 0.018504713 0.8996065 -0.33436266 0.24588868 -0.12064314 -0.8716762 0.33420497 -0.28302133 0.5340901 0.6422754 0.14798163 0.58607304 0.28901437 0.4709578 -0.3587218 -0.18972033 -0.17434846 0.3201281 -0.841298 -0.035688207 0.7228097 -0.4350406 -0.7639385 -0.007061578 -0.040975984 0.20531516 0.55387497 1.0230017 0.80991924 0.25681403 0.31796578 0.53038925 -0.07827486 -0.1858772 0.22293903 -0.18276107 -0.044924814 0.0049288454 -0.51510936 0.20789163 0.32851988
para -0.015577406 0.4804215 0.092428 -0.021836597 0.8580411 -0.39908263 -0.6831813 0.48037094 -0.76455 0.22013536 0.7815775 0.13966124 0.21997413 0.92396915 0.43339708 -0.26090693 -0.3126579 0.5219974 0.31514335 -0.99922925 -0.57316345 0.32163274 -0.64121723 0.26414102 -0.578059 -0.13148399 -1.5111785 -0.73450655 -0.042047407 -0.07763031 0.022967175 -1.1891024 0.54372287 -0.82284975 0.20256852 -0.29302642 -0.8576326 0.4627172 0.06454029 -1.1867001 1.2672933 -0.4758453 -1.0843745 -0.61788946 0.56785476 -0.5102948 -0.5791942 -0.17080575 -0.31037307 0.24968515 -0.016050484 0.5753858 -0.03483963 0.070155516 -0.5642791 0.7670171 0.086288184 -0.023303198 0.26248536 0.37957168 -0.06390786 0.8420215 -0.2775625 0.33508402 -0.106761865 -0.04822741 -0.17140873 -0.35569867 0.20850761 0.52489966 0.5753079 -0.9483366 -0.59909636 -0.97891796 -0.052250586 -0.9555895 -0.2805052 -0.25333348 -0.6857923 -0.34131128 -0.40076634 0.38233694 -0.12447724 0.56271356 -1.1128755 -0.38769656 -0.7406634 -0.22569928 -0.034953404 -1.1318488 0.31289986 0.14192551 -0.6742467 0.7880381 0.20257835 0.5653043 0.56823105 -0.12541826 0.07769044 -0.27114993
serta 0.3902745 -0.15097022 -0.15268849 0.83169925 -0.76222855 -0.94686806 -0.022628082 1.4882362 -1.0302546 0.018605355 0.72096664 0.4308361 0.15289754 0.8953516 0.5975251 -0.98547775 0.9200082 0.6154984 -1.0215808 0.29354966 -0.11172552 0.4984254 -0.03038062 0.18928328 -0.839084 -0.8405114 0.3382776 -0.48985156 0.90199906 0.5405374 0.14329697 0.32368973 0.072537236 -0.23230948 -0.9155127 -1.0044404 -0.6062999 -0.040004883 0.24704072 -1.0731915 -0.23195639 -0.8432296 -0.10203907 0.11172344 0.35192597 0.202086 0.45210916 0.17909892 -0.69774395 -0.034162626 -0.0320023 0.5922093 0.4222912 0.16898867 -0.035262905 -0.29275924 -0.50623244 -0.5911712 0.019921888 -0.025526458 0.5346719 -0.66895777 0.073612176 -0.12236668 -0.37698704 0.53233427 -0.4184607 -0.314982 0.7898941 0.64878464 0.34653115 0.12860827 -0.0032618234 -1.1196822 -0.37574014 0.059361484 0.32356754 0.1601905 -0.7892976 0.8244671 -1.0144805 -0.2316946 -1.0530473 -0.38646537 -0.6768343 -0.5167218 -0.64874804 0.87788004 0.26936927 0.90932876 0.83137834 0.21449924 0.90012974 -0.26096553 0.28457528 0.925876 0.27613103 -0.03558705 -0.015006409 0.30262962
investasi -0.4437786 -0.1812634 0.7275701 0.65284806 -0.06527072 -1.2636434 -0.024643198 0.67290103 -0.98114765 0.30547264 -0.6047234 -0.27844885 -0.20305607 0.4235107 -0.12988773 -0.122075014 -0.21256088 -0.36780936 -1.3501649 -0.9738575 0.056379408 0.5349315 -0.02035724 -0.043692175 -0.9002391 -0.44042146 -1.612088 -0.26398486 0.1814903 0.3528218 0.39567423 0.07583587 -0.18034112 -0.10160357 -0.2586235 0.77316225 -0.3117682 0.01929043 0.1855548 -0.7629452 0.525016 0.2540177 -0.40132764 0.46292785 0.05603439 -0.67477244 0.07987897 -0.33032587 0.47470337 -0.7914121 -0.3609572 -0.24305402 -0.3819147 -0.14324518 -0.24903268 0.05505236 -0.48542812 -0.028821347 0.6630089 0.36090058 -0.0057645957 0.6598605 0.14435516 0.036136072 0.39122468 0.08105195 0.671573 -0.11876224 -0.7962704 -0.1879924 -0.4052592 0.30341378 0.3870333 0.7143896 0.014011334 0.08969703 -0.33150646 -0.3240523 -0.53124595 -0.7682195 0.4888078 0.31193504 0.10727276 0.8209552 -0.9150141 -0.26168427 -0.127924 -0.5998324 -0.7202483 0.40491375 0.8387114 0.73581886 -0.23135759 -0.33177024 0.4271944 -0.26090708 0.49121597 -0.6656871 0.9556009 -0.595035
terhadap -0.030824145 0.7806097 0.18586224 0.82533073 -0.25665414 0.22057725 -0.069553226 -0.1416739 -0.65222096 0.2527211 -0.17961612 0.22206442 -0.3962493 0.18817808 -0.2743244 -0.014062649 -0.23856694 0.099933065 0.1911766 -1.0131671 0.12986867 0.6552682 0.25457403 -0.38657346 -1.0871947 0.59272426 -0.58316267 1.0141484 0.79329246 -0.008647598 -0.2779319 0.26819813 0.1471685 -0.40165073 -0.9653906 -0.070931956 -1.0359269 -0.5327904 -0.32886395 0.083770394 -0.06226679 -0.53255093 1.0788652 0.3069584 0.7078817 -1.0614022 -0.13869229 0.27935332 -0.56013656 0.4466594 0.745048 -0.033650678 0.4027436 -0.52785736 -0.73067063 -0.40616453 0.64708036 -0.65211684 -0.02195212 0.18726689 -0.4338277 0.48843792 -0.44460022 -0.2624792 0.36515328 -0.6107239 -0.43448377 0.2867966 -0.461771 -0.71677023 0.08763051 0.8000154 -0.6190714 0.6018405 0.7077966 0.6227485 -0.4686529 0.42918214 -0.3019125 -0.62401634 0.20233828 0.35958225 -0.34473687 0.71392506 -0.4631572 0.1874201 -0.050968684 -0.61294615 0.04028072 -0.01920707 1.1063036 0.4290465 0.17611183 -0.26180813 -0.38117445 0.22913429 0.65255266 -0.10892977 1.1254039 0.54332787
korban -0.31403103 0.79358816 0.7941706 0.8875831 0.9923787 0.074072 -0.08896325 1.7020171 -0.4847041 -0.51222336 -0.11402989 -1.071267 0.010533008 0.82629204 0.639005 -0.3324233 0.8431913 -0.14094536 -0.097002015 0.9124721 -0.07710947 0.34943148 0.5837023 0.30212313 -0.35761365 -0.2132974 -1.1556762 0.5207056 0.010576095 0.057936687 1.112883 0.032006696 0.691189 0.06483185 -0.4434081 0.082229055 0.4481896 -0.21234564 -0.3202425 0.9514541 -0.7342943 -0.59390676 -0.2440441 -0.13435575 -0.35592896 0.030475294 0.59739894 0.7090058 0.18094473 0.5287109 0.440581 0.29599518 -0.17195824 -0.5540219 -0.22704583 0.62180895 0.5860989 -0.36016852 -0.51664084 0.35599327 0.71345955 0.6267876 -0.13391244 0.33638906 -1.1312782 0.053829346 0.5202308 0.18183525 -0.32806188 0.5132213 -0.2631132 -0.006125152 0.04287901 -0.48806858 -0.14662127 0.09989997 0.17433006 0.5112955 0.7059816 -0.39020556 -0.03098825 0.26816732 -0.30209598 0.73995817 -0.7182075 -0.8882643 0.37445658 0.8204196 0.591923 -0.3166878 0.6517798 0.3237372 -0.5069218 0.38649154 -0.9343281 -0.1317147 -0.55547595 -0.07109197 0.22797562 -0.47140983
orang 0.5292438 -0.13007104 0.09715101 0.5661617 -0.4902264 -0.3272915 1.0636407 0.578131 -0.42389977 -0.2793481 0.4050154 -0.26723462 1.4671402 -0.40813679 -0.05299896 -1.1228092 0.7606238 -0.4897565 -0.30175272 -1.0347966 -0.05045995 0.18483621 0.12033751 0.16698486 -1.3598057 -0.6271991 -0.34230244 0.43000028 0.034348153 0.3856033 0.5969864 0.1301087 0.1324313 -0.104923524 0.17475483 0.5572965 -0.28807533 -0.3308786 -0.44325367 -0.0017468554 -0.08563906 -1.1719959 0.3061818 0.09521577 -0.29557186 0.5393846 0.39530396 0.674306 -0.080305845 0.32790416 0.018426651 0.3709657 0.63166434 -1.1724133 -0.06478711 0.8507634 0.017122531 0.68251467 -0.7481131 0.3604381 -0.9607595 0.2947721 -0.7838064 0.11748223 -1.5871564 0.64962953 0.47781977 0.35406816 -1.0786043 -0.17154713 -0.38624948 0.7193957 0.9356457 0.021585735 0.22807603 0.21025532 0.03506647 0.7473623 -0.025125394 0.18067314 -0.4634006 0.27940595 0.006409416 0.3131983 -0.2348799 -0.42038652 -0.11009383 -0.5176906 0.6968753 -0.097977586 0.44482043 0.12016867 -0.2245965 0.27596462 -0.23916171 1.0703049 0.28120962 0.12677851 0.5525213 -0.8988005
tak 0.3001029 0.11743258 0.2862245 0.20902185 0.970254 -0.09744816 0.50651395 1.3501832 -1.2252828 -0.5701706 -0.57007307 0.38294825 0.06010612 -0.04382946 0.070113234 -0.46765873 0.6371018 -0.14335947 0.2240527 -0.26217228 0.17130385 -0.44209075 -0.14181781 0.56207335 0.122526735 -0.30080682 -0.5058065 0.2666686 -0.2452123 -0.60260105 -0.45416796 0.06731991 -0.19586553 -0.647848 0.5041948 0.72105795 -0.34703615 0.10107769 0.688692 -0.06081156 -0.3555366 -0.11636656 0.09099822 0.24729834 0.29497227 -0.64134115 -0.173762 -0.23156352 0.43757278 1.0260794 0.9275079 -0.2135142 -0.609582 -0.1411312 0.21988414 0.23517345 0.0014141304 0.30216542 -0.19997583 0.28054354 -0.37200725 0.9004103 0.05597125 0.67886645 -0.06576701 -0.40335813 -0.06854883 0.33776927 0.4863988 0.9442137 -0.16042396 0.106639184 -0.08130037 -1.1669832 0.0690336 -0.31643564 0.11370964 -0.72512734 0.041256934 -0.1630876 0.049339917 1.1897691 -0.74939895 -1.1835468 -0.62597936 -0.84746414 0.8315926 0.04860546 0.28570566 0.86462 0.592826 1.0427384 -0.18540125 -0.089399226 0.2119846 -0.5844101 0.3779518 0.8122916 0.7236248 0.27032447
alasan -0.67179936 0.7096808 0.17651634 0.04953078 1.2519833 0.06444075 0.6092365 0.90415096 -1.3436085 -0.20907205 0.51219904 -0.2885062 0.8531629 -0.7836348 0.62184036 -0.36679375 0.24544223 0.012648222 -1.0703619 -0.41408685 -0.27670437 0.34977195 0.5593749 -0.5531744 0.34866303 0.5225834 0.062084384 0.07425982 0.029216902 -0.95017505 -0.17153938 0.017909005 -0.71323687 -0.54987615 0.0066366415 -0.122237034 -0.11715782 0.5514 0.8897585 -0.42220265 0.1661342 0.38358742 -0.72102433 0.43685254 0.20690092 -0.04301933 -0.6515437 -0.70463735 -0.007058272 0.04605721 0.6540419 -0.19156802 -0.37107697 0.14374287 0.054357182 -0.34614086 -0.4223597 0.41776067 0.28679758 -0.09131301 -0.31746215 0.62347335 -0.040243085 0.5981666 0.3474416 0.7186612 -0.40184328 0.24406661 -0.49725834 -0.9974598 0.32115757 0.27079377 -0.5593903 0.12207905 0.019372148 -0.16809863 -0.44763237 0.058119062 0.5366446 -1.0696205 -0.364368 -0.21524172 -1.1631471 -0.2668047 -0.5474594 -0.1765411 0.5156744 0.7041272 -0.084508404 -0.061623886 0.72545016 0.12131399 -0.54315645 0.553839 0.635152 -0.40160474 -0.13576902 0.9351904 0.45512813 0.20976277
teknologi 0.0015589413 -0.18128514 0.7266513 1.1816862 -0.5571249 -1.028038 -0.36721194 0.04442891 -1.5556846 -0.08805458 -0.06755806 -0.12668432 0.539615 -0.06225737 0.6917065 -0.9998079 0.41228494 -0.08232942 -1.0094093 -0.34385136 0.4081777 0.24002361 0.29750907 0.57953435 -0.6698936 0.041450273 -0.5531208 0.52928555 0.06992892 0.15583543 -0.01815624 0.128673 0.3466504 -0.36670592 -0.65775317 -0.3109958 0.7158716 -0.5132781 0.2279271 -0.011963352 0.08717905 -0.14923649 0.22002825 0.39534616 -0.8133158 -0.60971755 0.1348681 -0.30298936 -0.038079884 -0.5580459 -0.13617213 0.3016544 -0.41317517 -0.3674035 0.14201461 0.27262416 0.105577156 0.37858486 0.9580537 0.26841927 -0.16351987 0.61017364 -0.30247664 -0.9871836 -0.41397652 0.3178878 0.42343682 -0.2646697 -0.4819207 -0.5709634 -0.106672354 0.43368497 -0.6986434 -0.091307364 -0.06319127 0.68087906 0.09444663 -0.14635964 -0.45098457 -0.4909348 -0.26125863 0.22101372 -0.16817322 0.4221201 -0.06757422 0.51887685 -0.18842003 -0.961811 0.85037374 0.37256667 0.72282225 0.24997076 -0.3661593 0.07945415 0.6064646 -0.2394637 0.42900354 0.31196043 -0.072043315 -0.19516039
banyak -0.36192504 -0.044628803 0.35618567 1.1966003 0.13917133 -0.45746174 -0.004153078 0.8177982 -0.22921166 0.06735962 -0.8493062 0.40116334 1.0853257 -0.7293141 0.2837369 0.068211176 0.055852406 -0.7271083 -0.8699275 -0.96964407 -0.76784956 1.3281777 0.80472225 0.38975397 -0.6068219 -0.26142144 0.37185872 0.30717778 0.210455 0.28857136 0.27537507 -0.18182604 0.019568222 0.003387821 -0.15838481 -0.06766336 -0.25951004 -0.20000094 0.00848943 0.12403338 0.6303422 -0.043222822 -0.080564015 -0.2599442 0.2926107 0.29025164 -0.63538194 0.12045575 0.5631406 -0.041676838 0.0014137187 0.8023238 0.9926544 -0.2657386 0.47268757 0.44118488 -0.2972461 1.2283491 1.3199232 -0.8445184 -0.8391862 1.0761431 -0.33163926 -0.12087639 -0.5916968 0.022673286 -0.21073966 -0.90156245 -0.8109926 -1.0078009 -0.21897249 -0.4766392 0.5321911 0.3103407 0.1608412 -0.17815287 0.6461504 -0.48561823 0.6282164 0.16410905 -0.16981232 0.20002761 -0.30117083 -0.048801024 0.77956164 -0.05548715 0.52993673 -0.5302311 0.8739875 -0.7348348 0.94352084 -0.73608005 0.40331775 0.31017712 0.44148347 0.29887995 0.17271377 0.7798512 0.43781382 0.54820013
penyebab -0.76146 0.417082 0.6074246 0.35805798 0.5277228 0.07544395 0.17643498 1.3890884 -0.4373735 0.40670276 0.870499 -0.2873832 0.25107518 -0.37794337 0.36398575 0.2472928 0.27166548 -0.009448773 -0.0057948916 0.76222646 0.016450666 -0.1713874 0.7293424 -0.36065048 -1.4773057 -0.052579362 -0.06687475 0.9799104 0.33132222 -0.883424 0.5709475 -0.019821595 0.23368306 0.37786958 -0.20857625 -0.3565582 0.5889505 -0.47716293 1.0154217 0.45627296 -0.011213104 -0.05370908 0.038478237 0.7408841 0.68177146 -0.027407384 -0.26603323 0.055602465 0.08289229 -0.49884447 1.2402897 -0.24440251 0.18061167 -0.7571654 -0.028958334 0.37518504 -0.14570186 -0.3979865 0.7050246 -0.060908977 0.18423997 0.4611066 -0.29587385 -0.4417362 -0.14402014 -0.47459555 0.3568997 0.23158985 0.30867213 -0.5250002 0.37570345 0.19659169 0.104364805 0.43301988 -0.61894506 -0.33546254 -0.13953781 0.015734537 -0.23919652 -1.1914173 0.18128407 0.18426517 0.29274023 0.24201722 0.20699747 -0.022276955 0.73368484 0.3793239 0.53043854 -1.1851845 0.6111337 -1.0175896 -0.13512613 0.4404343 0.80540925 0.107295826 -0.15725856 0.47559276 0.5570599 -0.40444738
baik 0.27175546 0.056067728 0.1511439 0.030369328 0.39318898 -0.20457475 -0.014955202 1.5574435 -0.8087843 -0.25266936 -0.27029005 0.18899119 0.1101767 -0.48300368 -0.025895372 -0.007092189 0.9075049 -0.61489505 -1.0477853 -0.53573006 0.35468614 0.3225131 0.3282269 0.13513708 -0.6736726 -0.5749053 -0.4229031 0.44070065 0.12549572 0.29530138 0.71200705 -0.22580147 -0.40011793 -0.55060977 0.2390237 0.048815276 -0.26975125 0.008418391 0.36625415 0.43353465 0.73419815 0.002356021 0.04814323 0.2007078 0.89125586 -0.16545798 0.63810873 -0.061608497 0.73481226 -0.35593683 -0.67637134 0.5688661 0.14350279 -0.027952975 -0.16994695 -0.90011 -0.36614272 0.25844416 0.22664343 -0.5472719 0.93597525 0.07731117 0.25431967 0.13239217 0.19031522 0.29445165 -0.6127143 0.15080637 -0.33524466 -0.519819 0.17716148 -0.386561 0.09487186 -0.06874726 -0.361159 0.33348012 0.29126424 -0.5043482 -0.5030721 0.44887108 -0.038853414 -0.81827396 0.5245204 0.1672764 -0.5212716 0.071596876 -0.021265863 0.65476674 0.5493135 0.3934422 0.85421604 -0.50008595 -0.5755316 0.24011636 0.72193384 0.24394444 0.456883 -0.8983591 -0.5800576 -0.03475167
