3621 100
<PAD> -0.08085799 0.31653702 0.13441116 -0.27135223 0.49578753 0.14857821 0.09370559 0.11668495 -0.7899062 -0.13810256 -0.3167534 -0.572962 0.36424854 -0.019842027 -0.41175517 0.043461904 -0.28653648 -0.22928481 -0.60190934 -0.011075001 -0.5480569 0.80163395 0.38384435 -0.06293459 0.40704393 -0.79560393 -0.063842155 0.36511046 -0.12917869 -0.38923082 -0.35129052 0.31761965 -0.55437785 -0.81743467 -0.084007435 -0.13608207 0.14618018 -0.050199803 0.19598438 -0.096785575 -0.27253252 -0.20762603 -0.78958255 0.018328361 -0.19957644 -0.14211908 -0.36030114 0.16592981 -0.31448942 0.40646046 -0.177417 0.27458906 0.060229015 -0.004357136 -0.05835533 0.035846848 -0.31631008 -0.4367504 -0.056050476 -0.03689352 -0.532566 0.32087427 -0.034978893 -0.19385502 0.13063265 0.10074656 -0.37961137 -0.46705893 -0.58496267 -0.12679201 0.27428162 0.22160435 -0.08746826 0.13062799 0.080653876 -0.41955703 0.16844554 0.47410348 -0.20493998 -0.08134875 -0.29221874 -0.18710613 -0.035528954 -0.12507282 -0.1791658 0.025026994 -0.19941135 -0.61186 -0.1742487 0.38558036 -0.38081348 0.55871993 0.37819013 0.13610326 -0.101374164 -0.3540779 0.12972331 -0.14108863 0.08965382 -0.122231774
yang 0.35494706 0.16630974 -0.2773339 0.5434943 -0.029956324 -0.11141523 0.33638388 0.856546 -0.5004602 -0.56762546 -0.3278156 -0.78306836 -0.12387191 0.13353853 0.29081735 0.29314515 0.9576579 -0.1807102 -0.6857743 -0.1543992 -0.12109901 0.095421515 0.42575225 -0.69092655 0.6204109 -0.7931585 0.37999728 -0.0019143319 -0.39274368 0.13575155 -0.12580153 0.39910433 0.23685524 -0.3557591 -0.2804231 0.027863372 0.24841578 0.43973985 0.44777325 0.51812726 -0.056918662 -0.6349246 -0.18970504 0.1023596 0.22978754 0.3910189 0.58221394 0.043149747 0.2253365 -0.06252278 0.12781902 -0.26842248 0.42240226 0.09546813 -0.194959 0.056286644 0.12645608 0.343386 -0.20843774 -0.07514669 -0.72217333 0.23750748 -0.2851878 -0.2452243 0.6547989 -0.1857974 0.32356307 -0.43822858 0.2967695 0.6612583 0.28251576 0.08609055 0.07858682 0.2634472 0.07770591 0.16119605 -0.7016135 -0.34220678 -0.15165487 -0.26440507 -0.65470064 0.2112772 0.68325716 -0.036507227 -0.84259677 -0.1640773 0.2787708 -0.20605305 0.35737938 -0.35806784 -0.1846545 -0.40861684 0.068109326 -0.40272903 -0.3040504 0.40177825 0.34133232 -0.7532633 0.13556764 0.10972836
dan -0.45061728 -0.31656814 0.29541758 -0.17647274 0.09708332 0.39319336 -0.45982116 -0.16383237 -0.6774272 -0.07855291 -0.64960873 -0.9412789 0.38537544 -0.74135226 -0.24851656 -0.6913171 0.16373421 0.0049827397 -0.14216302 -0.5248331 -0.010507431 0.5310119 -0.50621796 -0.5628629 0.4659191 0.09977235 0.10215962 0.4311293 -0.3851245 0.44254947 -0.3249187 -0.29603377 -0.48855293 -0.049533203 -0.43575603 -0.9487059 0.16696851 -0.71913517 -0.38974717 0.24038304 -0.22879016 0.17173 -0.4214875 0.44526407 0.0032206709 1.0436231 0.06392153 -0.25057468 0.045550432 -0.478331 -0.11982628 0.44593734 -0.26169977 -0.8845891 0.03898884 -0.7719995 -0.29369143 -0.20911098 -0.459253 -0.42904043 0.015962278 0.482612 -0.108740106 0.34450015 0.024345964 0.54169685 0.92314976 0.16699685 -0.18118218 -0.017752044 0.07011046 0.011717675 -0.19257364 0.2625796 -0.5062529 0.3400347 0.69851434 -0.45766962 -0.7766837 -0.20964397 0.020383775 -0.34236857 -1.1252886 -0.015343637 0.079040036 -0.20679452 -0.6276244 -0.64865303 0.6845784 -0.10381547 -0.12593617 0.92519337 0.31372243 -0.3977303 0.42971015 0.4763159 0.34592703 -0.24731718 0.59896475 0.28438166
apa -0.45291722 0.46549028 0.09966148 0.39586106 0.6446753 0.056527384 0.26064774 1.3063276 0.35184392 -0.44468367 0.7718452 -0.47313732 0.32344496 -0.90778565 0.29054895 -0.44709334 0.42159128 -0.14786763 -0.6662664 0.228238 -0.5118417 0.014699363 0.6052922 0.7773603 -0.54147065 0.3267508 0.6418941 0.29858288 0.10856407 -0.46106744 -0.5493692 -0.3099438 -0.3860014 0.18956758 -0.02071476 0.55035514 0.69949424 -0.17384394 -0.19122165 0.71874 0.13581802 -0.08156675 -0.25267318 0.31832257 0.44499528 0.12589894 0.79752105 -0.4058474 -0.75399595 -0.45881888 0.5468777 0.5982374 -0.39651752 -0.78447086 -0.48229283 0.48967254 -0.06798877 0.2842844 -0.11141781 0.06603035 0.074929 0.71104056 0.7290394 -0.24282166 0.44458702 -0.07283525 -0.027358748 0.73895955 0.10132989 -0.28959623 0.6690509 0.23126107 0.07480577 0.12718692 -0.4162929 -0.6238815 -0.85893476 0.7546882 -0.44766086 -0.5507284 -0.90866697 1.1259438 0.5283966 0.008869367 -1.0027329 0.047604717 0.435116 -0.522024 -0.3491194 -0.41521943 -0.27067912 -0.20430528 -0.38181892 -0.6554141 0.33096978 -0.07758286 0.432593 -0.24509332 0.6895386 -0.19901516
di -0.040478244 0.048401438 -0.37537104 0.27850163 -0.30874112 0.5134301 0.5433368 0.6931799 -0.92774755 0.9800562 -0.19224939 -0.07787782 0.02044283 0.18593769 -0.5369559 -0.39316225 -0.69431674 0.93566805 0.4023322 -0.3856412 -0.44842145 -0.025149517 0.31820002 0.2587225 -0.5270012 -0.052211747 0.53397727 0.23359342 -0.3489464 0.2508994 -0.3217573 0.11971387 0.7725637 -0.83779174 0.50709283 -0.8289503 0.15707426 0.7780724 0.035324607 0.19504222 -0.006211801 -0.52925235 -1.1465281 -0.09251477 0.46491814 -0.17802575 -0.26437044 -0.03695232 -0.048733484 -1.0227904 0.42553654 0.8134401 0.22390512 -0.22898883 0.47649318 -0.27533218 -1.1742665 -1.0722253 -0.033277776 -0.22388822 -0.13481982 -0.03168034 -0.26488563 -0.028684823 -0.14004366 0.18225493 0.6188753 0.37341866 -0.41077125 0.43787184 -0.7166337 0.13129699 -0.81376326 0.86426467 -0.4828037 0.36044312 0.23586626 0.52500695 0.6302564 -1.1755179 -0.56181055 -0.58236 0.63377744 0.23877156 -0.20298988 0.061246175 -0.22069268 0.28382567 -0.35855442 -0.77089256 0.0015723889 -0.6114578 -0.39367914 -0.40566656 0.17711699 -0.70016074 0.71026784 0.024773473 0.28517658 0.3500462
untuk -0.76369363 -0.8352093 0.5071995 -0.039014082 -0.6687301 0.5983697 0.5581918 0.77753526 -0.37565848 -0.2527914 -1.0909853 -0.40903535 0.069390826 -0.6214053 -0.39466065 -0.54188824 -0.11218054 0.040637445 0.052831016 -0.026362676 -0.40338033 0.27861884 0.7244993 0.66790247 0.19300815 -0.5962203 -0.8443022 -1.0094652 0.8977312 0.14536247 -0.34933195 -0.3236584 0.035139002 -0.60826164 -0.32713312 0.7366106 0.22417179 -0.39571434 0.68162686 -0.31803346 0.3298306 -0.16511036 -1.0229433 -0.38600984 -0.4199917 -0.016757198 -0.44315073 0.5532165 0.16905156 -0.66324586 -0.08650392 -0.22006217 0.3691366 1.3150904 -0.16310208 0.12782831 0.7436066 -0.30971563 -0.5270782 -0.41202202 0.37249666 0.26797062 0.7506967 -0.8162173 0.87179244 0.10490608 -0.032845013 0.117209256 -0.18848617 -0.5805947 -0.110949725 -0.84453297 0.5814771 0.30967125 0.22575907 0.33778062 -0.27674982 0.07231055 0.39121777 -0.023286475 0.7042412 -0.9784732 0.12025812 -0.2934284 -0.60484564 -0.06509578 -0.38333118 0.51602834 0.18698671 0.21288313 0.9349557 0.22172873 -1.2721082 -0.84504306 0.017308468 0.6743375 0.015079306 -0.32173994 -0.10167714 0.31235582
bagaimana 0.6751202 -0.11865374 0.16295825 0.8055257 0.45573738 -0.49814412 0.11907955 0.55912477 -0.67695445 -0.06219023 0.3803077 -1.1445031 -0.07758411 0.45616233 -0.20873894 -0.9137624 0.8170305 0.17465015 0.4326898 -0.55469316 0.08813904 0.2643362 1.134589 0.6299324 -0.28163978 -0.37213972 -0.10238214 -0.3839639 0.13593838 -0.61942416 0.46418604 0.65804917 -0.41060257 0.0285137 -0.044593625 0.667892 -0.18611218 -1.0438749 -0.40459666 -0.71822053 -0.01358278 -0.46766892 0.87665296 -0.49103963 0.40590602 1.1239344 -0.5171602 -0.50234985 -0.84338987 -1.0369864 1.0611986 0.43464065 0.16054662 -0.11980237 -1.0694656 -0.01302355 0.60460913 -1.2494754 -0.44829008 -0.31508592 -0.3070044 0.028522586 0.78514117 -0.24766122 0.12585394 0.25565124 -0.670219 0.057469595 -1.5773604 -0.5047215 0.27389175 0.7998701 -0.31025434 -0.064232185 0.24212019 -0.28958553 0.1480821 0.31839344 -0.250473 0.10116683 1.087067 -0.32903162 0.3217672 -0.43131396 -0.77038956 0.27903014 1.0632699 -1.0026845 -0.38978392 0.18955173 -0.56303346 0.26617774 -0.5163321 -0.9884053 0.12399687 0.50236607 1.0723675 -0.61152077 -0.1353463 0.24873161
dengan 0.7635374 -0.182434 1.283771 0.3387168 0.31653607 0.7376865 0.43338636 -0.18725547 -0.646691 -1.0114172 0.29429197 -0.5224378 0.28802916 -0.06952936 -0.6029651 -0.42277512 0.48446116 0.4118182 0.026609749 -0.4496619 0.072213836 0.6365541 -0.44162184 -0.54048496 0.4351204 0.06171609 0.22522318 0.15655398 -0.76511085 1.2883227 -0.54809386 0.85197794 -0.0030304883 -0.1820157 -0.33837476 0.019168904 -0.13000204 -0.29511714 -0.13405882 -0.045395013 0.9685465 -0.8051517 -0.41708714 0.39355513 -0.038221885 0.102142535 -0.794537 -0.005982985 -0.21584395 -0.20928353 -0.1441494 -0.19878021 1.2977254 -0.8504038 -0.321405 0.5874627 -0.9268712 -0.16301292 -0.64033055 0.11555695 0.17647725 0.4427884 -0.5295329 0.8946487 -0.23768094 0.36847654 -1.419367 1.3871115 -0.65538925 -0.4368641 1.2400552 -0.1726653 0.5349255 -0.27685 -0.7060262 -0.09438652 0.00056657445 -0.3644659 -0.11534943 -0.3673008 -0.5688397 -0.4683963 0.06297405 0.6559477 -0.29845056 0.31404293 1.1507878 0.8372107 -0.08372966 0.012322046 -0.14175013 0.31002215 -1.9050292 0.2569487 0.22960357 -0.040598173 0.1702141 -0.7114728 0.272434 -0.53546035
ini -0.9756348 0.6292096 0.28075358 0.6314091 0.36551705 0.5789415 0.36302412 0.27147713 -0.8256739 -0.5764847 0.5363392 -0.8623218 1.5719072 -0.2946213 0.68093747 0.44080114 -0.38316333 0.1940805 -0.44739705 -0.1261365 0.5421139 0.24705106 1.0603684 -0.64249414 0.7610569 0.52756196 0.19795656 -0.38132763 0.15655339 -0.90235263 0.070228696 -0.3114364 1.0321841 0.34470463 -0.39024052 0.4419844 0.22084832 0.08250442 0.35212725 -0.46061176 -0.34864643 -0.07910061 -0.76252246 0.18555188 -0.87292814 0.12848538 0.21073498 0.5944601 -0.2870447 0.40292162 0.40883198 0.59077674 -0.03426133 -0.5505573 0.37290487 0.45617095 0.43648002 -0.10579848 -0.5503978 -0.19445553 -0.76746947 -0.24912259 0.3847374 -0.32354876 -0.22187902 -0.6329545 -0.24312982 0.7704145 -0.85787994 0.5027249 -1.4223078 -0.5869151 -0.28414437 0.5174568 -0.6766702 -1.105288 -0.3655883 -0.8051579 -0.29474238 -0.1963879 -0.1092625 -0.27352154 0.39315608 0.58754396 -0.012170341 0.16040337 0.40032974 -0.3460281 -1.0362043 0.44985896 0.49851558 -0.19223133 -0.27663943 -0.38032842 0.57366335 0.87465173 0.7690154 -0.37308958 0.07088152 0.1562544
mengapa -1.1836709 -0.5177867 -1.9319608 0.5688447 0.3954756 -1.0056962 -0.33664954 1.35727 -0.9302388 -0.678939 0.46039292 -0.0987284 -0.146195 -0.82951736 0.25290495 0.23618533 0.68728095 -0.11665617 0.042753853 -0.7237417 0.83222216 -0.19973886 -0.08791616 0.3954236 0.5538226 0.24959223 -0.74424773 0.67820436 -0.22830856 0.3010989 0.088520914 0.15772156 -0.3934527 0.096866824 0.41557786 0.7538585 -0.27626398 0.63967705 0.7020817 0.5387484 0.9166305 0.2486534 -0.9417826 -0.60336244 0.10042363 0.026649563 0.4790166 0.33356094 -0.7732663 -0.22407183 1.4458088 1.027827 -0.2862536 -0.33541036 0.22299035 -0.5212565 -0.6480525 -0.1428137 0.54049253 -0.28387326 0.51329124 1.0821639 0.4439376 -1.2201605 -0.3242265 0.2679111 -0.9870117 -0.7004304 0.2487392 -0.47661376 1.0675522 0.5371264 -0.44725996 -0.3129053 0.4984914 -0.8867752 -0.30677024 -0.26913998 1.2963691 -0.07728993 -0.27934912 0.3959309 -0.749416 0.8709915 -0.46452522 -1.4805932 0.14093056 -0.060981892 0.09887638 -0.023378896 -0.31222916 1.3698292 -0.79498845 -0.16557226 1.768952 -0.5770542 -0.31146666 -0.20382906 0.5401951 0.42823339
dalam 0.50457674 0.03987724 0.7458015 -0.31004852 -0.66213775 -1.1985478 -0.26336688 0.17707215 -1.0271548 -0.47921196 0.64129287 -0.89457685 0.9863605 -0.9814412 -0.1420398 0.35303637 0.8648816 -0.08065582 0.23790376 0.12252484 -0.8091689 -0.35678694 0.7565315 -0.4241542 -0.55289334 0.7237567 0.50829154 -0.29456043 0.49934816 0.12759341 -0.592262 0.07176875 1.1861333 0.61105263 0.2190788 0.6112961 0.121831395 -0.27840844 -1.0636867 -0.045185983 -0.18402097 -0.91762626 -1.1586334 0.7639539 -1.2662218 0.1357626 -0.4215367 0.11365674 -0.74524176 -0.29024544 -0.19180864 0.023330292 -0.41683123 0.38222334 0.6045645 -0.33807415 -0.763215 -0.6693053 0.113804154 0.018496582 -1.283312 -0.015973065 0.49125847 0.31563628 -0.1956881 0.3316359 -0.7032267 -0.42566368 -0.2136571 -0.5050357 0.5759948 0.8890572 -1.0107299 0.4632983 -0.181181 0.7574292 0.23626967 -1.0123167 0.1633487 -0.1342226 0.637524 0.9913478 0.1570693 0.844457 -0.53803575 0.34861013 -0.6152573 0.18325502 0.6216617 0.8751341 0.51162386 0.10847412 -0.29531297 -0.122941874 -0.7092185 -0.12482823 1.121743 -0.90117055 0.17044537 -0.10908976
dari 0.29981464 1.2701052 0.4322416 0.8963115 0.3545583 -0.2015413 -0.23117128 0.7226709 -0.8159786 -0.07272281 0.45319942 -0.4178482 0.61265254 -0.4425903 0.21102473 -0.5311072 -0.3745848 -0.0660917 0.6866358 -0.56462383 -0.6681328 -0.4601692 0.2689837 -0.72002214 -0.10826447 -1.0872296 -0.62128603 0.37062266 0.1503516 0.66684926 0.15746297 -0.4315722 -0.121335566 -0.12641516 -0.21010114 -0.37859493 -0.6194243 -0.019443896 -0.9192379 -0.40115735 -0.41411462 -0.34011465 -0.8374228 -0.041983753 -0.21525018 0.0737238 1.4983 0.36850452 -0.46650472 0.49565825 0.037188277 -0.20546144 0.99849606 0.38294432 -0.76734287 0.3804556 -0.08819213 0.57514423 -1.1483673 -0.20846659 0.016693493 -0.044016752 0.5588917 -0.35966706 -0.8225652 0.37494296 0.9926092 0.18084615 -0.7185144 0.39648673 0.07467626 1.6683999 -0.28028074 0.9165336 -0.83192116 0.17602286 -0.8882651 0.5050298 -0.0069849426 -1.271372 0.12748457 0.69826144 -0.1719897 -0.4998156 1.1206075 0.3459789 -0.8183718 -0.87138337 0.83835834 0.726271 0.83774585 0.0947184 -1.513164 0.32258943 0.6278858 -0.72064024 -0.86368835 -0.53843856 -0.57572585 0.42578796
dapat 0.48433504 -0.1268903 0.13227162 0.18510583 0.15303083 0.50111246 0.52726626 0.87086135 0.25396106 -0.0806706 -0.59552515 -0.81810266 -0.01752181 -0.18149309 -1.0801604 0.016621543 0.5818845 0.68738323 0.10465844 -0.75423855 -0.78717226 0.95336485 0.41577643 1.4964647 0.5289282 0.52697873 -0.3429817 -0.033412892 -0.21282075 0.84449124 -0.7164509 0.22747524 0.06854713 0.11069789 0.022378081 -0.19440742 -0.082154505 -1.0438462 0.08391713 -0.7737799 0.0067439526 0.064359434 -0.22846489 0.1200436 -0.8072547 -0.6126603 0.37914383 -0.4466049 -1.3714057 0.28312048 0.9107311 -0.18367031 0.34652823 -0.38321805 0.32905677 -0.31033245 -0.038093265 0.03989379 0.3596987 0.15745512 -0.9776525 -0.35529944 1.058232 -0.22977993 -0.13849442 0.33047578 0.9382645 0.16798113 -1.3678765 0.42599216 1.1975887 0.47935277 -0.4960714 -0.82023805 0.43224773 -0.41102165 -0.05799109 -0.32532218 -0.18416694 -0.44785768 -0.7118976 0.1559977 0.47013572 1.5203742 -0.32343453 0.22743978 0.27479893 -0.4580005 -0.28089914 0.28743365 0.8342 -0.44110337 0.24995057 -0.19383153 0.6252693 -0.43618023 0.30034262 0.17004512 0.79683524 0.44361377
cara -0.8173748 0.56431216 -0.19923747 0.7716947 -0.6581358 -0.92604697 -0.7969225 -0.060256857 -1.5722497 -0.4757706 -0.49350634 -0.5757154 0.93829644 -0.78204924 0.22178802 -0.9137283 0.80536383 0.24325031 0.0056402115 -0.14082743 0.8055286 1.3486915 1.0064712 1.152228 0.48412085 0.18114285 -0.5704407 -0.20632277 -0.6269505 0.66612864 0.50624007 0.3678921 0.16234441 -0.2710777 0.43525013 0.11224354 0.30351776 -0.14281107 -0.7015935 -0.14351493 -0.24477409 0.07077459 -0.26209408 -0.39174655 0.054506134 -0.038325332 -0.27422905 -0.17706253 -0.7712931 -0.9924752 0.43498757 0.4625241 -0.3608625 -0.74706304 -0.43816686 1.1353056 -0.002138827 -0.49712488 -1.3087958 -0.18331522 0.49997717 1.0260242 0.6075158 0.42422858 0.19461039 0.017487794 -0.7422611 0.29801473 -0.99370176 -0.5552516 1.5410058 -0.1447377 -0.7298799 0.20855004 0.25281185 0.19898899 -0.88540334 0.6405079 0.384143 -0.47225055 0.46152866 -0.4003593 1.0491099 0.65900004 -0.33529252 0.35216683 0.9522481 -0.3027245 0.40534317 -0.68564546 0.13145955 0.7537817 0.007876125 0.2603626 -0.09006036 0.09247239 1.2016027 -0.23446749 -0.261468 0.5376333
covid 0.4704197 0.44946384 0.659457 0.77940375 -0.06793757 -0.67379344 1.3412504 1.2623388 -0.040708974 -0.3937397 0.77102375 -0.7368675 -0.016805518 -0.6201559 -0.8743377 -0.2010582 1.0442748 -0.22603333 0.19696403 0.14805925 1.3982813 0.65339124 -0.014608025 0.1433388 -0.33496118 0.08931438 -0.5858148 -0.5759143 0.6886993 -0.10055633 -1.6013052 -0.098791994 0.7719269 -0.77675724 -0.75450766 -1.012075 1.0065168 0.6498529 0.040590633 0.15962245 -0.024703545 -0.61954546 -0.58273226 0.41804177 0.28906605 0.41813228 -0.21130008 0.5239679 0.7221819 -0.17607458 -0.19745938 1.1488693 -0.11466792 -0.2378969 -0.018730838 -0.5525292 0.6739701 0.28262118 -0.55702627 -0.12795693 -0.6222888 0.84953123 0.363199 -0.24687214 0.34865472 0.6450785 0.43489894 0.15401638 -0.20877095 0.11370325 -0.31679302 -0.0028233887 0.019839067 -0.6151297 -0.26617408 0.11826978 0.31234038 0.5088234 -0.11552975 -0.38487947 -0.10526871 -0.34176558 0.32960746 0.20535699 -0.3434395 0.81613666 0.46505934 0.25863215 -0.28850397 0.5821926 0.84342074 0.35483718 -0.1365639 0.029637184 0.15027565 -0.40856737 -0.06585266 -0.26377407 0.36344284 1.3884724
dilakukan -0.45030457 0.5471262 -0.123363845 0.7249596 -0.035736375 -0.43870115 -0.8513925 0.66157985 -1.2836155 0.47338665 -0.41991413 -0.5725046 0.27414984 1.1375952 -1.2299192 -0.81394446 0.4676134 0.2228698 -0.19312577 0.5946687 -0.27633786 1.4195358 0.12662095 -0.016533485 -0.109889805 -0.7950119 -0.8062678 0.9765696 0.35927945 -0.40582365 0.18912593 -0.002437753 0.016213609 0.22864604 -0.6704686 0.62012154 0.037097584 -0.7141984 -1.1678255 1.0262733 0.008282968 -0.81875324 -0.47344154 0.48701292 0.23641284 0.27950868 -0.38974172 -0.21665435 -0.8319706 -0.84606856 0.029787134 -0.7646047 0.59812033 -0.000783082 -0.33468154 0.49224195 0.7971045 0.19680198 -0.34168884 -0.07358981 0.9997283 -0.06692173 0.30856344 0.3009628 1.432475 -0.7419302 -0.31567597 0.731521 -0.21831122 -0.07661256 0.3294702 -0.31958687 -0.6162108 -0.72288287 0.5215823 0.16877407 -1.0682523 -0.19706893 0.6676726 -0.36578208 -1.005239 -0.26249018 -0.048685465 1.005211 -0.2874039 0.32278863 -0.2971649 -0.814986 -0.15364283 0.7774769 -0.4802066 0.12633139 -0.886564 -1.1425556 -0.3152721 0.6478815 0.28831384 0.46256804 0.47938827 0.8482498
oleh -0.38987482 -0.05802145 0.028504152 0.41443813 0.90977734 0.07402501 -0.35662273 1.5332996 -0.1523666 -0.8169395 -0.2136133 -1.8064398 -0.6845886 0.46596003 -0.49863425 0.71522635 0.2135286 -0.45892748 -0.76007813 -0.7568089 1.1810429 0.19585449 1.075142 0.3247234 0.2711462 0.62893593 1.3693839 -1.5820206 0.26750988 0.15915386 0.16405572 -0.50820404 0.18524371 -0.9338465 -0.06798927 0.7791125 0.09025717 -0.5541866 -0.7954396 -0.2077581 -0.2964468 -1.0775747 -0.14381126 0.3652711 0.49454194 0.18400119 -0.48739928 0.14389662 0.12115553 0.24887343 -0.039279684 -0.88578236 0.27583444 -0.21876468 -0.97354335 -0.13949738 -0.10184891 -0.5881036 -0.55862653 0.035743073 0.38926795 0.2616089 0.9555708 0.010841604 0.14472567 0.34973052 -0.28193268 0.6576147 0.68415636 -0.12974341 0.7971661 0.29186678 -0.30373037 0.11865538 0.17045513 -0.91054344 -0.045756504 -0.7107589 0.065862805 -0.45927668 -1.1628348 -0.07778047 -0.30005813 -0.503522 -0.35827732 0.59215945 -1.5442109 -1.0807834 0.01642976 -1.0161272 0.82470137 0.6470013 -0.10372902 0.51320267 0.14983703 0.8758215 -0.16282699 -1.5543162 0.05749917 0.25379425
karena -0.33471864 0.22806504 -0.18564585 -0.13496655 0.45104674 -0.72511286 -0.23596725 1.1681978 -0.97102946 -0.45647934 -0.26897258 -0.6113982 1.1046109 -0.36948398 -0.035405416 -1.6704421 1.0439318 -0.60667956 0.22571854 -0.95005286 0.75458676 0.31250438 -0.01805364 -0.31695825 -0.2986913 -0.7179442 -0.12911066 0.2315801 -0.18180108 -0.37511995 0.78602546 -0.10095902 -0.089712664 -0.54803276 0.57591146 0.9011515 -0.57429755 0.8251931 -0.335144 -0.29316434 0.2853962 -1.6408145 -0.6577446 -0.11478012 0.08541375 -0.31748745 -0.1796778 -0.08133097 0.33270362 0.105269305 1.1768043 2.002785 0.5076838 -0.23116513 0.46227518 -0.2728541 0.28637823 -0.12857483 0.33627504 0.22058596 0.06889268 -0.01657788 -0.45692036 -0.021631563 -0.03517055 -0.12683454 -0.074887544 0.27903304 -0.09772425 0.0010018167 1.0047778 0.067571074 -0.09106201 0.9388515 0.24786924 -0.029455867 0.3272835 0.71846277 1.4557298 0.5446074 -1.1090723 0.98043144 -0.10329801 -0.16886172 0.47743002 -0.23694257 0.732547 -0.01305036 0.63514465 0.6958946 1.5201439 0.5209981 0.6119465 -0.8929322 1.5828456 -0.004742511 -0.087973155 -0.44963777 0.70026404 -0.64263535
menjadi 0.2757881 -0.5789254 -1.4815729 0.5742946 0.6375255 -0.049755488 0.69754446 1.7088151 -1.2870023 -0.29128242 -0.9009792 -0.64023143 0.7236715 0.39244393 0.1369694 -0.46581018 0.81501085 1.1977156 -0.0030264498 0.63758224 -0.29143357 -0.77343315 0.19838598 -0.62563944 0.09624395 -0.43446276 -0.5979862 0.11547163 0.6814117 -0.35340664 -0.009882671 -0.20956476 -0.27241248 0.63132614 -0.0573664 -0.28388238 0.46870238 -0.5095177 0.14262454 -0.74372673 -0.49315104 -1.058764 -0.48340005 0.9372242 -0.5630993 -0.11821263 -0.44922426 0.16715795 0.7134269 -1.0156522 -0.1553356 -0.15735334 0.20304675 -0.26924127 0.70515597 0.77472866 0.50535595 -0.99459094 0.8492803 -0.7396915 0.5531762 0.7359953 1.0826082 0.09956989 -0.24025503 0.59344125 -0.31015745 0.86727065 -0.7362294 0.97481775 1.1201153 -0.24098025 0.31910393 0.5729587 0.07077688 -0.51122826 -0.44679913 0.15597549 -0.7054678 -1.335207 -0.69901913 0.3416165 0.39088786 0.30695128 0.36857456 0.08023931 0.0011392438 0.23156214 0.122477636 -0.6305212 0.57782286 -0.07965885 0.018046262 -0.055173144 -0.67956007 0.0035102614 0.47092924 -0.5118364 0.6021502 -0.42551118
pemerintah -0.89929515 0.7522829 -0.19881186 0.94202024 -0.59285164 0.7743808 0.5685463 0.34912753 -1.278152 -0.21818055 -0.26314935 -0.29468915 0.29850945 0.6595272 0.5066686 -0.15609497 0.80110526 -0.35650846 -0.86558026 -0.882148 -0.85647994 0.8273905 -0.17090657 0.12712622 -0.4980625 0.11780289 -0.2903964 -1.6244271 0.16667984 0.4564697 -0.10326956 0.25444055 0.61173356 -0.38356155 -0.7620114 1.2828966 -1.3110152 0.29412088 -0.9134615 -0.052197475 -0.44369617 0.52137715 -0.13517782 0.46414924 -0.7739286 -0.16023621 0.43376377 -0.2546952 0.4660042 -0.28354463 -0.20259622 -0.025238024 -0.45485255 -0.29573655 0.4282366 0.7616649 0.22835486 -0.45910832 0.5603658 -0.11607061 -0.14954707 -0.2587628 0.06965874 -0.5677833 0.44076926 0.61412024 -0.20521656 0.615614 0.22974798 -0.39224023 0.42164826 0.3199255 -0.34538567 -0.1663959 -0.5640392 -0.38719836 0.91193354 0.5610992 -0.556169 -1.3843228 -0.6893785 -0.44374332 0.09183857 0.07167851 0.56906724 -0.23197949 0.23207836 -0.38507354 -0.5802565 0.6104594 -0.65775424 0.97029704 -1.5818117 -0.35905376 -0.56622726 -0.67401487 -0.3109494 -0.7719666 0.81254405 0.31294116
pada -0.2775984 0.25810748 -0.033304762 1.9889674 0.36368024 1.1240947 0.11524819 0.22920908 0.5480391 0.14750713 -0.053400073 -0.352623 0.8676764 0.69907874 -0.16679381 -0.66968966 -0.5690033 0.9799943 -0.23040143 -0.3896361 0.6895864 0.38034627 -0.2918938 0.8926254 0.06353775 0.1976275 0.48360834 -1.0428951 -0.5090281 -0.19600086 -0.55445886 -0.21663576 -0.3367296 0.29706323 -0.6426256 1.0098965 0.47364178 0.3581606 -0.61761093 0.70966554 0.21134071 -0.4712243 -1.257579 -0.039761826 -0.81676686 -1.0830015 -0.53744566 -0.2628927 0.55238384 0.21077916 0.90068513 -0.5497956 -0.0067056078 -0.050507724 -0.11206036 -0.14910191 0.043059304 -0.20683344 -1.3968655 -1.038191 -0.11507383 0.52890277 0.8683663 -0.39561972 -0.29550916 1.6378942 -0.5273395 -0.35734227 -0.8661602 -0.6833364 0.33243394 -0.13765888 -1.3480456 -0.14240253 0.7114965 0.7148022 -0.24872905 0.02389153 -0.80699444 -0.097265005 -1.0406339 0.40778875 -0.30234128 0.010181525 -0.30165416 0.84340674 0.4968822 -0.6876168 0.9118252 1.6309938 0.0151305795 -0.9371513 0.2674096 0.67720807 0.6984055 -0.31389043 0.8195168 -0.45741278 -1.1005813 -0.25736743
masyarakat 0.39054844 0.7886307 0.55953395 1.3607731 -0.9985208 0.55701864 0.35776627 0.42193356 -0.5109189 0.45842284 -0.019939352 0.19357798 0.23410946 -0.3091662 -0.38440603 -1.3614744 0.5262986 -0.44239995 -0.9441703 0.43926978 -0.4621648 -0.48059773 -0.61321396 -0.64960074 -0.07592653 0.4152228 -1.1046301 -0.8345974 -0.38725495 0.04880466 0.14005359 -0.9461686 0.31368235 -1.144608 -0.82187223 0.30182865 -0.3415965 -0.14657377 0.03275475 -0.66645354 -0.7546026 0.009865607 -0.5336082 0.041976117 -0.5200671 -0.66874444 0.20962678 0.1483715 -0.98813915 -0.4245805 0.8203491 0.017977273 -0.48400575 -0.39054823 0.25350177 -0.7468467 -0.57047236 -1.1630095 -0.20114248 -0.6441366 -1.2188836 0.5412315 -1.0690234 0.0216532 0.31385592 0.71045625 -0.50001615 0.82669485 -0.44333962 0.9150715 -0.04780496 0.100507356 -0.23416391 -0.5505798 0.035777885 -1.0277718 -0.10683271 0.89052844 0.18157873 0.70153743 -0.97422475 -0.3301499 0.16527446 0.026781537 -0.23565309 -0.99403584 -0.750584 -0.08588542 -0.014370109 -0.6205989 0.78635263 -0.52494305 -0.3678834 0.44848278 0.4216384 -0.25485396 -0.6543151 0.22562018 0.21880783 0.49152875
saat -0.6440137 0.85764325 0.39268142 1.2244599 -0.453872 -1.0324072 -0.076117456 -0.21254447 -1.0898646 -0.5188921 0.026913699 -0.12361151 0.59026957 0.10004942 0.6001558 -0.16864538 -0.42055073 -0.012701712 0.32552916 -0.13374399 0.663008 0.57353395 -0.75384253 -0.23260023 0.924078 -0.073676266 -0.20538218 0.33148596 0.52397865 -0.6849077 -0.7542153 -0.08144303 -0.69622755 -1.3209423 -0.41287392 0.11877931 0.9214719 -0.45562035 -0.36422688 -0.19701691 1.2202208 -1.1771241 -0.7692164 0.12232805 0.26793545 0.6506879 -0.053911854 1.0542927 0.37026647 -0.8163198 1.6266303 0.14804631 -1.0830201 0.3617077 -0.81862986 1.0884379 -0.12801091 -0.90963745 -0.37857896 -0.6679567 -1.276109 -0.5780498 0.8198858 -0.17413196 -0.23688976 0.40475103 -0.46997875 0.51489663 -0.013203351 1.1644747 -0.98009694 -0.059003975 -0.029653056 -1.1063988 -0.5766555 0.9314714 -0.2229059 -0.8268742 -0.107801996 0.46231574 -0.17562084 0.05291486 -0.017673189 0.4938309 -0.39214087 0.5323567 0.7817794 -0.27662453 -0.1041421 -0.30272204 0.4450089 -0.04752451 -0.54418147 -0.026096862 -0.3688673 0.18492438 -0.6047078 -0.6895697 0.03219014 0.4487684
atau -0.610934 -0.234231 -0.066887364 0.69919133 -1.1598794 -0.54893136 0.34058225 0.53071743 -0.35607144 0.16365838 -0.55435586 -0.18785678 0.13936056 0.31970456 0.06194696 0.33955753 0.51362765 0.6317842 0.45727706 0.15458377 0.77111703 0.73598385 0.6868161 -0.7056639 -0.9106544 -0.12911223 0.030188978 0.08671377 -0.4905184 -0.09167702 -0.15095492 0.41139632 -0.9123861 -0.79616934 -0.47239518 -0.4816167 0.5048026 -0.13048816 -1.0818752 0.53687185 -0.8356274 0.4253472 -1.063565 -0.52477753 0.5235313 -1.2579815 -0.13058457 -0.45360523 -0.3081879 0.10728039 -0.2634153 0.8698982 0.7001176 0.7547803 -0.15411495 0.95348233 0.20895529 0.13794409 0.033740614 -0.28181064 -1.6208228 0.072734654 0.3766532 0.6307102 -0.41915053 0.7172583 -0.07879775 0.3723273 0.030328734 0.721919 0.99129224 -0.31743637 -0.14166467 0.5027884 0.47427282 -0.87608516 0.411845 -0.24026689 -1.072772 -0.8167876 0.17206101 -0.1530407 -0.95418644 0.9538854 -0.3507641 0.26556295 -0.799365 0.2722887 -0.15949097 0.5766657 0.45304793 -0.52442515 -0.5313195 -0.5308604 0.71674055 0.29804015 0.9844892 -0.025157873 0.5600773 0.023590865
ke -0.6386872 -0.3723297 1.0916924 -0.063239776 -0.19244054 0.049239635 0.22055991 1.2531943 -1.393796 -0.94057107 0.92171025 -0.2787315 0.110310435 -0.056724448 -1.1011 0.19438899 0.2070413 0.97175705 -0.46273372 -0.13699678 -0.58651555 0.28642532 0.07833742 0.08131099 0.39255112 -0.15489326 0.16246524 -1.086476 0.10820956 -0.28089237 0.5710499 0.94933665 0.16800617 0.1798319 -0.2682205 0.4830817 0.5557251 -1.946114 -0.024257004 -0.30311516 -0.059479613 -0.61448026 0.0052586733 -0.24353138 -0.064888306 -0.120371394 0.17173344 -0.021720083 0.91285026 -0.28712356 0.16966979 0.23447782 -0.29267335 0.43782568 0.10184086 0.2208394 -0.6475798 -0.4800864 -0.42002866 0.07697547 1.1921066 0.96255547 -0.0061510475 -0.46655032 -0.2405652 -0.884134 -0.7313158 -0.7965483 -0.7877231 0.04627039 0.07911484 0.13879196 0.4120687 -0.36331856 -0.49977154 0.67892176 0.48341897 0.01845433 -0.14212279 -0.37296173 0.40441677 0.20166911 -0.68626946 0.5934454 -0.38197187 0.08768425 -0.282058 0.25878146 0.10246577 0.07001281 1.1160418 -0.67970836 0.059010267 -0.4986056 1.401466 -1.5236112 0.69103384 -0.16138184 0.957277 -0.89563304
tidak -0.15243883 0.2558227 -0.39024302 0.34474745 0.4559152 -0.093524456 -0.22904663 1.1013757 -1.3639036 0.3816152 -0.7771654 0.14689037 0.696082 0.16856197 -1.1249968 1.2069783 1.0596876 0.61228067 -0.5090898 -1.2778487 -0.048205964 0.2895009 -0.5868297 -0.27289045 -0.82441664 0.033424053 -0.0071293637 -0.0057870415 -0.89065015 -0.35949248 0.4542604 0.3747208 -0.6015757 -0.7535882 -0.2201828 0.7505331 0.3028071 -0.1740286 0.25646263 -0.10651974 -0.98639405 -0.608319 0.06549135 -0.31095356 0.6288674 -0.5877741 0.34976488 -0.018069878 0.8186826 0.39304996 0.2715167 0.37693796 -0.24848536 -0.9102544 0.44149363 0.1619259 -0.46107796 -0.70550895 -1.580101 0.51595277 -0.2821702 0.11164333 0.77609736 0.07524207 0.60127336 0.59150857 0.2783558 0.21664028 -0.79758835 -0.50506 -0.7937849 -0.6060047 -0.15641585 -0.8053924 -0.16951613 -0.29102567 -1.2848564 -0.13950235 -0.36504418 0.18631266 0.45070508 0.79679036 -0.6569024 0.40977812 -0.53142095 0.2679886 0.7000551 2.126956 0.4267117 0.319093 0.71622497 0.27425614 -0.0027787148 0.44044787 0.4320849 -0.062326122 0.15698375 -0.29622486 -0.26764324 0.8450618
itu -1.2256476 -0.8889393 -0.5507362 2.1906972 0.67039466 -0.2024432 0.9792707 -0.39692262 -0.25044176 0.12792349 -0.6385692 -0.5972674 0.78898776 0.5068022 -0.27105027 -0.13704447 0.42265412 -1.2512176 0.6181826 0.18699805 0.36997452 -0.7014997 1.117536 -0.4081807 -0.27943477 -1.1165909 -0.32994738 -0.2406166 -0.24349938 1.0756253 -0.060066093 -0.41957012 0.63994765 0.43618086 -0.8190341 0.43195534 -1.3594396 0.18509635 0.7325654 0.39103508 -0.020467844 -0.5494217 -0.82303536 0.5268692 -0.024763478 -0.2048989 0.04840501 0.19777931 0.8081975 -0.23557821 0.31321743 0.5238108 0.21067668 -0.17721796 -0.89508086 0.23772143 -0.91371614 -0.78783244 -0.14071013 -1.2194921 -0.40835077 -0.579062 0.09328132 -0.19558926 -0.66964847 -0.14273898 0.84575576 -0.31244683 -0.9690852 0.1330726 0.43798947 -0.051139317 -0.08127444 -0.03462348 -0.45334092 -1.2684071 0.15623328 -0.7905407 0.12581967 0.069879964 0.31786028 0.78019655 -0.54242957 0.48633838 -0.07655224 -0.12945282 -0.5143823 0.5170619 -0.1408213 0.16532697 -0.47866842 0.19187468 -0.29425445 -1.1727694 -0.69290924 -0.27644393 0.44715407 0.5633658 0.809825 -0.693432
juga -0.1483443 0.024165155 -0.22894134 1.4691653 0.4539609 -0.56175727 0.13993834 1.062717 -0.014553179 1.6448778 0.34543732 0.023720345 -0.0043169195 -0.4570461 -0.6780615 -0.67511845 0.55521685 -0.28706935 0.36449018 0.17110224 -0.8148158 0.6597322 0.21766935 0.948237 -0.6739022 -0.3892409 -0.47334185 -0.32070825 -0.7181654 0.033352125 -0.27015716 -0.37032488 -0.30949876 -0.30529118 -0.57684445 0.15747193 -0.26106077 0.60882163 -0.2213567 0.8442659 -0.021025755 0.08228175 -0.9246988 -1.4064411 -0.6098378 -0.08877819 1.1064904 0.07248765 -0.05167474 -0.47308555 -0.10183133 0.34987983 0.370502 -0.88509905 0.78481334 1.0135285 0.008417645 -0.12173111 -0.42621225 0.8795772 -0.9674222 -0.72258383 -0.41986936 -0.342653 -0.41130227 -1.3271712 -1.5565317 0.18240106 -0.32516328 -0.30052325 0.30878493 1.0601329 0.04648604 -0.7479544 0.24836342 -0.47188303 -0.35621214 -0.32956743 0.18879516 -0.065132864 -0.32699466 0.18867385 -0.033843666 0.25412837 -0.8779387 -0.5146312 -1.0228926 -0.27714503 1.4809556 0.2765558 0.15983048 1.2446086 -0.018697396 -0.7778991 0.4552923 0.28696793 0.11470107 -0.43720594 0.77092487 -0.27753612
tersebut 0.43129405 0.045963623 -0.5341545 1.2674799 -0.27383703 0.579013 0.7371404 0.7136375 -0.43007407 0.6273297 -0.82103014 -0.38359046 0.9010142 0.9314208 -0.87101907 0.7162072 0.80697036 -0.6735507 0.71610445 -0.48489437 0.48806113 0.41417906 0.6627822 0.010810918 0.06454186 -0.7242994 -0.17891657 0.8087305 -0.38928032 0.40800104 0.44067454 0.109971724 0.60931575 0.123560816 -0.8167017 0.53450894 0.6526561 0.13943096 -0.41583553 -0.25444826 -0.09973749 0.536282 -0.41490698 -0.3530802 -0.15612845 1.0358621 -0.65917605 0.047085945 0.09142931 0.4965218 -0.04106445 1.1627276 -0.017318672 -0.04500778 0.31137168 0.06444964 -0.059891842 -0.62942934 -0.90478563 0.047806 0.5911071 0.702274 -0.31286815 0.6075251 -0.48524672 0.24513938 -0.9076135 -0.27329263 0.68788344 0.29882422 -0.29939902 -0.6618595 -0.5390046 0.027538419 0.080656834 -0.22016995 -1.0501597 0.23865922 -0.90571237 -0.34477204 -0.26098475 0.27619106 0.32168603 0.52034277 0.21196596 0.31628188 -0.8345806 -0.060594905 -0.12510589 0.061339073 0.6365173 0.09490936 -0.9537718 -1.2156343 0.00920364 -0.94372183 -0.35972768 -1.3660578 0.8902695 1.2448713
melakukan -1.2717754 -0.89973485 0.7884606 0.8949032 0.20326555 0.40840343 0.6650563 0.05544782 -1.0389597 0.05312989 -0.3232652 -0.06900934 0.39771798 0.56018144 -0.6786041 0.4125479 1.1010062 -0.2875168 -0.3941958 -0.6344 -0.6732791 -0.06567443 -0.73572826 -0.04548598 -0.0130503 0.89710593 -0.10636537 0.7529181 -0.06713007 0.38029543 -0.8880189 -0.40701014 -0.1455824 -0.24886954 0.77196425 0.034517217 0.2258669 -0.28427446 -0.28585002 0.44897553 -0.9829081 -1.4057769 -0.23402856 0.76781523 -0.47233948 -0.012548053 -1.1330184 0.80569834 -0.068568036 -1.0621195 0.9811378 0.3064043 0.34342882 0.68292886 -0.3752615 0.2537099 1.1292883 0.30005375 0.38218284 0.009630169 0.62447065 -0.16243358 0.18593904 0.43285364 0.55105954 -0.36283875 -0.26436093 0.4224933 -0.403975 -0.6891953 -0.42617428 1.1451148 -0.76454514 -0.25655556 -1.0728389 -0.6876156 -0.42901686 0.43330905 0.7676321 -0.71784955 -0.44666705 0.29859716 -1.7520852 1.0448796 -0.19368339 0.53852814 -0.22168653 0.41699705 -0.13813725 0.13068342 0.43452978 1.2594665 -0.40600786 0.010355615 0.32054207 -0.11617247 1.099504 -0.9486216 -0.66337144 -0.26852238
vaksin 0.64168054 0.25200233 -0.1411095 1.0937061 -0.129928 -0.3111012 1.206633 0.15866293 -1.1711489 -0.11151744 -0.038095623 -1.2118587 0.07257114 -0.5213413 -0.072768904 -0.6122927 -0.5021063 -0.19226943 -0.4700208 -0.6492173 0.681511 -0.36312935 -0.36358178 0.09826635 -0.2599322 0.079030044 -1.17759 -0.95145524 -0.03471575 -0.499587 0.66828275 0.4959803 1.0230826 -0.35792404 -0.36508784 -0.7129122 0.18148373 0.02657136 -0.3797013 0.15870276 -0.03838446 -0.8729294 0.34210375 0.90799975 -0.34656435 -0.21153837 0.19139653 -0.98729706 0.6793979 -0.008198867 -0.59084857 0.6881649 0.18015148 1.0352924 -0.70868605 0.11225739 0.7587142 -0.6821084 -0.6653185 0.99506235 -0.24466817 0.19452442 0.15018182 0.13502038 -0.43359992 0.033421148 -0.5294191 0.021193625 -0.33951592 -1.2782203 -0.5545041 0.21236767 -0.18080321 -0.8095536 0.47841385 0.39948866 0.24508151 0.040482286 0.027493993 -0.65606755 -0.69536614 -0.33527482 0.3276364 1.049501 -1.5884537 -0.22126049 -0.09071446 0.39598024 0.60301024 -0.45665297 0.19511107 0.27663004 -0.25572094 0.31484428 1.0096819 -0.1789271 -0.08275657 -0.47897962 0.072757125 -0.59943366
beberapa 0.12464291 -0.22020002 0.95266 0.71065897 -0.41728395 -0.61243415 -0.2988068 0.33779302 0.057968426 0.18131885 0.005441913 -0.35995948 0.4447272 0.8663489 -0.1752938 -0.50706166 -0.2019187 0.5492454 -0.6069297 0.118383 0.7638087 0.6220717 1.6120977 -0.00874035 -0.11859967 0.052124627 -1.1129484 0.11222294 -0.08674948 0.005759985 0.3916181 1.063761 1.2331555 -0.49049544 0.039189864 0.6710664 0.6986106 -0.44947594 -0.73521674 -0.18913184 -0.29220012 -0.76334965 0.10303485 -0.21613112 -0.029556317 0.27431607 0.1300311 -0.1244835 0.0026395228 -1.1289079 0.8813624 0.7654475 0.553809 -0.98714596 -0.24642013 0.07630409 -0.41948614 -0.42679152 0.2572263 0.083220966 -0.83344096 0.7495654 0.6835721 -0.15323842 0.3310543 0.37120032 -0.4554397 0.48072147 -0.52680135 0.45330364 0.012337779 0.6644752 -0.2066363 0.14725807 0.24849609 -0.4446674 -0.4536656 -0.20513146 0.47627324 0.52626795 0.5052028 0.2281532 -0.52372324 0.081672646 -0.8182084 0.23355146 -0.50169563 -0.73424506 0.55402553 0.7297111 0.7786717 0.91384715 -1.2681965 -0.23447813 0.09048124 -1.0608181 0.0056924704 0.38457882 -0.52902055 -0.15241985
bisa 0.5924679 0.25503764 -0.30125126 1.5506799 -0.036491133 0.30826595 -0.15544203 1.3279917 -0.65052646 -0.29384765 0.4685283 0.43481848 -0.12821326 -0.8397234 0.59886783 0.60421723 -0.19066879 -0.75904703 -0.8015945 -0.6306057 0.331451 0.45017508 1.0739238 -0.58710384 -0.0102086915 0.7525521 -0.94203806 0.60830086 0.3368226 0.94378775 -0.52820784 -0.30229753 0.4510705 -1.4995352 -0.033815343 -0.5368179 -0.24246867 -0.94987273 0.3430789 0.64555013 0.14058915 -0.76786226 -0.54663414 -0.61987805 -0.15573749 -0.9708593 0.21439613 -0.7502203 -0.068116195 0.67297953 -0.1049657 -0.563806 -0.6582445 0.84025985 0.4305687 -0.7264891 -0.09828471 -0.6571328 -1.6415056 0.55867463 -0.71363544 0.7273213 0.531953 0.2042729 -0.7858548 0.46898445 0.48071462 0.86670023 -0.798188 0.14679797 1.4104594 0.089552835 0.023029044 -1.0199046 0.23174827 -0.42191082 0.2632698 0.6118943 -0.015387719 -0.3396706 0.14912523 -0.110257514 -0.55916387 0.75898 0.027971806 0.00791091 -0.043578044 0.15068792 0.004649791 0.09841856 -0.8118049 -0.29675782 -0.51965845 -0.7991225 0.28413454 -0.8482626 1.2926965 0.034253407 0.3751142 0.2732381
memiliki -0.5908378 0.15724748 -0.5743974 0.01913253 -0.34118333 -0.4829803 0.5061769 1.1767523 -1.6001649 -0.7084282 0.030052418 0.13098116 -0.46269152 1.158225 -0.064436264 0.16485296 -0.012741841 0.01615066 0.17880222 0.5323458 -0.31293783 0.16846353 0.2715673 0.15855767 -0.13528945 0.17194481 0.28308254 0.1960843 -0.18513632 1.2203943 0.10856794 0.07712569 -0.24306878 -0.32068762 -1.2893419 0.22528675 -0.01781413 -0.41302583 0.48451996 0.324489 -0.26831958 -1.1149865 -0.5819109 0.6024738 0.19050042 0.104643606 -0.2677403 -0.061237007 -0.95123327 -1.0820664 -0.40203676 1.2934737 0.41945407 -0.13669714 0.9556052 0.9180356 -0.29128188 -0.35203227 0.64063865 0.23540455 -1.0377944 0.7412965 0.7586796 0.5241309 0.84509486 0.39148337 0.42169836 -0.18439834 -0.24950868 -0.12148943 0.01973348 0.008497575 -0.81721246 -0.8832083 0.77520555 -0.04845468 -0.6992318 0.34168547 -0.26728424 -0.45316076 0.12953314 -0.06617187 0.28689095 -0.28665662 0.022297263 0.33429515 1.2195237 -1.1763206 2.071813 0.206833 0.64650315 0.20541123 -0.7763049 -0.07033803 -0.2938517 -0.01969288 0.39563373 -0.181665 0.572246 -0.5676247
seperti -0.5383679 -0.5446985 0.40853715 0.42097574 0.3744935 -1.1849456 -0.42360175 1.0181516 -0.34451562 -0.2895121 -0.71801394 -1.4439356 0.5489848 0.7708839 0.446605 -0.61671394 -0.27298114 1.4405043 -0.94394785 -0.30305716 0.05860208 -0.03249444 1.040486 0.8015043 -0.22028267 -0.43368304 0.6838577 -0.36518526 -0.08363444 0.5134168 -0.7336049 -0.06380165 0.84541315 -0.80611306 -1.1063296 0.2310006 0.010670166 -0.27059978 -0.15254976 -0.26993442 0.48003745 0.13488477 -0.5228243 -0.65218914 0.92555696 0.33828843 -0.32759276 -1.0709207 0.28205633 -0.23178546 -0.30224723 -0.6252436 -0.42458162 -0.8312527 0.83245724 0.53326815 -0.46490118 -0.048558034 0.5476023 -0.2549533 -0.89357376 0.075097315 1.1988853 0.3181168 -0.58653384 0.4218856 -0.00086932594 0.5784306 -1.7768048 0.94817674 0.46730024 0.7437883 0.2323311 0.28038988 0.6965373 -0.041467726 -0.37146223 0.06023319 0.3142024 0.6138568 0.10988723 0.04019721 -0.6455489 0.4107155 0.84030545 0.22108555 0.374072 -0.23495491 0.3608568 -0.13549976 0.3811772 0.6550764 0.15394887 0.27512574 0.92420214 -0.2427042 -0.15081826 -0.7133188 -0.11341827 0.8595381
antara 0.08340282 0.20315015 -0.4761507 0.54440624 -0.2295425 0.12012774 -0.16866326 0.10398245 0.07856289 -0.9057934 0.012486621 -0.46895078 0.25846606 0.23885514 -0.14202969 -0.42856008 -0.3766555 0.71292 0.16829562 1.0975536 0.5700344 1.7889863 0.6972068 0.053569485 0.03063572 -0.38928798 -0.39888984 0.6240747 -0.51006216 0.4848356 0.39081195 0.97539485 -0.021323653 -0.7252991 0.36108452 0.2550849 -0.75421983 -0.5748846 -0.74024886 -0.73956794 -1.0417198 -0.5185642 -1.3865039 -0.011454772 -0.080505945 0.40524513 0.07292913 -0.305618 0.5619753 -1.1771826 0.5486009 0.65574557 -0.36689582 -0.65103924 0.56820965 0.723775 0.39445707 -0.50306165 -0.4006837 -0.7438393 -1.0153174 0.9805648 0.9328086 -0.6046229 -0.44250786 0.3397661 -0.34708247 0.029462712 -0.18840897 -0.40530008 0.7385967 0.34684083 0.32677853 0.20306617 -0.14009705 0.53704154 -0.07889841 0.22493999 0.1950564 0.048716456 -0.58703613 -0.07992616 -0.30139855 0.6564536 -0.699271 -0.59848803 -0.15554956 -0.6411478 0.5877354 -0.20995907 0.43518597 0.7257058 -0.35609192 -0.5926454 -0.21295407 -0.835216 0.577564 0.19251081 -0.79324365 -0.4108416
ppkm -0.15751383 0.96289366 -0.27962562 1.7657081 -0.5281578 -0.39661697 1.2627705 0.4758809 -0.64718217 -0.212664 -0.48454309 -0.40898177 0.63244 -0.0092234025 0.2977737 0.1642414 -0.0036704012 -0.2675164 -0.25079763 -0.084689364 -0.29883805 -0.38497245 -0.4950586 0.9186358 -0.513293 0.4820288 -0.6968922 -0.36712477 -0.27266002 -0.35435268 -1.517665 -0.17599528 0.38994107 -0.69264424 -1.1153835 0.76512724 0.19925633 -0.87976617 -0.9593805 -0.04077125 -1.0217786 0.11036626 -0.73002493 0.07686801 1.2253164 0.011008312 -0.25549102 0.6044859 0.4053346 0.19175757 -0.0497205 0.4980912 -0.8403959 -0.17498824 -0.10883031 -0.38101843 -0.3091451 -0.44744954 0.48874474 -0.6256434 0.08345098 0.70611805 -0.6844217 0.07667647 0.9823243 -0.01881181 -0.1847064 0.443859 -0.6119686 -0.40681052 0.15654483 0.66532403 -0.32835102 -0.30756813 0.680077 0.75455177 -0.047936115 -0.6438724 0.5468326 -0.24560095 -0.65527374 -0.5230752 0.121960446 0.15235682 -0.20509881 -0.509453 -0.0991508 0.19900751 0.18612757 -0.21131136 -0.19908912 -0.31435966 -0.30950356 -0.23440535 0.22069936 0.22648093 0.3995217 -0.5800927 0.22597921 0.11099041
akan 0.42996758 0.06710606 -0.45092255 0.2025114 0.06991023 -0.24589239 0.69256914 1.5116061 -1.085353 0.32884532 -1.0157386 -0.31839845 0.50091165 0.1626044 -0.3881438 0.48913783 0.25556102 0.008139086 0.5718635 -0.6870807 0.22167559 0.38123098 0.59988785 -0.42244032 0.013232639 -0.16979443 -0.88372207 -0.26685828 -0.45413536 0.04964559 -1.1469774 -0.41328558 0.4570263 -0.7449551 -1.3140367 0.6135121 -0.25934237 -1.0215311 -0.9000999 0.4720007 0.24578133 0.42154166 -0.01340542 0.45296243 0.36747858 -0.94294846 -0.25701648 -0.9770219 -0.32759637 -0.058673948 -0.00068455114 -0.32075462 0.027917208 0.13507605 -0.33211434 -0.28115028 -0.70643675 -0.038952604 -0.8221797 -0.9061088 0.68683594 0.47114438 0.14127013 -0.06951444 -0.59450346 -0.34635848 -0.5715302 -0.39006963 -0.543057 -0.19493945 -0.49213573 -0.21623881 -0.095111236 -0.35092133 0.056442827 0.4686581 -0.13290505 0.10105226 -0.2939594 0.7659378 0.055337034 0.6983719 -0.23867838 0.5816123 0.0021241836 0.09990772 0.6062603 -0.40427792 -0.65438074 -1.3362081 -0.15652388 -0.050004 -0.27554634 0.533789 1.2999356 0.12693673 0.55982566 0.78823864 -1.016187 0.45560992
banjir -0.7158492 -0.59083617 0.19868232 0.98937106 -0.621022 -0.19788796 0.15337352 0.63582265 -0.45619693 0.27411312 -0.81293565 -0.87700254 0.9479004 0.54144716 -0.51334643 0.0046359636 -0.35636544 0.100689836 -0.357585 -0.0657917 0.39869538 0.12827505 0.5328193 0.06602474 0.321774 0.20787202 -0.15493374 -0.0005502543 0.26714152 0.37892842 -0.48845053 0.25535256 1.0570406 0.24306607 -0.46093392 -0.4888203 -0.21029718 -1.3434358 -0.064850226 0.29158464 -1.7516332 -0.7650969 -1.7363853 0.27445978 0.28468013 -0.15956427 -0.1157937 -0.4757552 0.32936552 -0.1748077 0.24700223 0.23962757 0.23865868 -0.15293822 0.30592912 0.6740619 -0.13784415 0.022155385 -0.8271141 0.38925892 -0.47514695 0.32012248 -0.28955802 0.17511104 0.33331317 0.07460508 -0.051892832 -0.19384228 -0.7283258 0.72280204 0.67635375 -0.24407713 0.033338714 -0.57568604 -0.9915801 -0.046334058 0.61270016 0.3913357 0.49138683 -0.79372656 -0.520943 -0.09290498 0.39829063 0.17049806 -0.7143883 0.51637685 0.40583554 -0.57001853 0.1740941 -0.32653984 0.57019687 0.18539545 -0.083724305 0.22457127 -0.80185467 0.09253208 -0.5209175 -0.5451492 -0.2984727 0.6261995
membuat -0.6404171 -0.015956467 -0.8486645 -0.12211404 0.3659615 -0.053965393 0.31067336 -0.78992814 -1.3356508 -0.11347903 0.15702344 -0.93837804 0.07816472 -0.1567282 0.4259743 -1.3051335 1.3751677 -0.75065964 0.09817715 0.33964485 -0.5270841 0.23327906 0.73968565 0.085846245 -0.18360853 0.71159315 -0.4922184 0.13054197 -0.23984952 0.26882666 -0.65262914 -0.33424962 0.21406157 -0.43484187 -0.42002517 0.12981772 -0.4538024 0.051775403 0.14673243 -0.66532046 -0.39759305 -1.7537324 -0.99908125 0.12087836 -0.11703105 -0.20362394 0.3994387 -0.81282467 0.94156855 -0.70060223 -0.11110824 0.3892575 0.7596499 0.48682258 -0.9519027 0.3129525 0.25391787 -0.74666685 -0.4116543 -0.5538537 0.3648661 0.0237895 -0.020884324 0.60961497 -0.0043418985 0.4853358 -0.69076306 -0.8213751 -0.46776792 1.0021435 0.7418299 0.2129923 0.73782927 -0.35925895 -0.080215774 0.5107529 -0.16156809 0.38255224 -0.7627068 -0.6212476 -1.0665238 0.11974966 -0.68414426 -0.03141263 -0.5494095 0.3879826 0.5660391 0.021532545 -0.01226632 -0.5063788 0.32568017 -0.82217675 -0.46615696 -0.39210147 0.25480306 -0.14892757 0.13001804 -0.359916 0.297813 1.2745074
kesehatan 0.039642286 0.019651184 0.29795647 0.29775712 -0.49879068 -0.6367791 0.7542858 0.55076087 -0.97449017 -0.54981506 -0.46496975 -0.6336586 -0.14839935 -0.47027025 -0.44496435 -0.06651648 -0.23144831 -0.28806165 -0.48224172 0.2506963 -0.114416964 0.9204176 -0.5085989 -0.36204043 0.4039707 1.0208074 0.0038027463 -0.20368706 0.032470252 0.39694095 -0.55687344 0.16212907 -0.14028102 -0.53936994 -1.4171579 -0.653163 0.41850802 -0.049227845 -0.12450616 -0.0269777 -0.5610409 0.20570992 -0.56080794 0.38119277 -0.8137649 0.1821756 -0.34696946 -0.35370868 0.11886908 -0.0077964203 -0.2632016 0.24881633 0.46969408 0.13577868 0.7083978 -0.26175871 0.2998498 -0.48114577 -0.11727479 -0.28504106 -0.65728456 0.6588807 -0.12795115 -0.40388006 -0.0547628 1.2819624 0.22329044 0.78858954 -0.5750471 -0.39690745 0.62675625 0.5295822 0.38047835 -0.8818975 0.41987714 -0.86225665 -0.8175421 -0.3878607 0.120006934 0.04951512 -0.5741257 0.63849854 -0.065086484 0.5870678 0.32965985 -0.4042175 -0.33061403 0.69932914 -0.41322282 -0.09141764 1.0024285 -0.12021866 -0.63490283 -0.8572694 0.05069135 0.28384563 0.03843031 -0.081768274 -0.9546591 0.23903218
kepada -0.54365075 0.9284407 -0.05973542 0.4387495 0.5576442 -0.6964333 1.5439715 0.5514316 -0.4314154 0.29832214 -0.15530396 -0.2847507 1.0202202 0.5930744 -0.12690537 -0.33648643 -0.15265661 1.2489687 -0.691225 0.33128372 -0.33565688 1.3412424 -1.0508721 0.20437016 0.34125683 -0.35114583 0.53538597 -0.47659862 -0.6995171 0.39158633 -0.5805152 -0.4960822 -0.23170222 -0.4851638 -0.59113955 0.31445092 -0.662315 -0.014271332 -0.29529026 -0.35875145 0.23333238 -0.5341439 -0.2778575 0.84545326 -0.1352768 0.30471015 -0.16986358 -0.47206992 -0.74141204 0.1076582 0.53433824 0.17477773 -0.26913345 0.4852561 -1.0794104 -0.94142044 0.08268866 -0.5458862 -0.037929475 0.9819974 0.18331447 0.5556744 0.13299876 -0.5291973 -0.16646154 -0.14920953 -0.21400222 -0.6640087 -0.12967649 0.20340522 0.871503 -0.15407081 0.024236154 -0.03821181 0.5098838 -0.53270245 -0.33890542 0.27466586 -0.019090207 -0.52656317 0.80585957 1.7610251 -0.54451174 0.4873188 -0.5653036 0.028665673 -0.49646354 0.37662363 0.28607985 -0.35049918 1.226297 -0.36140355 -0.4324844 -0.44986495 -0.26478454 0.06421249 0.062554434 -0.7136625 0.585233 0.39266926
secara 0.4853517 -0.8336988 -0.38777664 0.4922577 0.044193044 -0.24465376 0.78083175 -0.39771938 -0.10585783 0.48469928 -0.11751744 0.3818959 -0.28417128 -0.78336185 -0.99068487 -0.0437067 0.7084459 0.009159581 0.12216643 0.52010375 -0.37411445 -0.10735465 0.30657938 -0.636127 0.41676366 -0.5681664 -0.256951 -0.6683754 0.30298233 -0.20045888 0.17123596 0.26070082 0.82780755 0.0430498 -0.35959327 -0.31151867 -0.48452306 -0.82667357 -0.49189225 -0.7659819 0.162235 -0.0061583994 -0.66722435 -0.58180785 0.103899896 -0.3934817 -0.16451578 1.0611856 -0.58074677 -0.053252038 -0.12520358 1.3959383 0.43675905 0.39318782 -1.4424058 0.73403275 0.5399548 -0.27604374 0.24812427 0.0062453668 0.1475425 0.31663153 0.5142688 -0.23861848 0.1841461 0.9540499 -0.17872669 0.7973459 -1.0094128 0.22320631 -0.025903745 0.5037067 -1.0227926 -0.6672566 0.7494453 -0.26864064 0.21856904 -0.52138734 0.054393288 -0.41620427 -0.6369909 0.2970401 -0.8346624 1.2038742 -1.179643 -0.20409094 0.53130054 -0.47349584 -0.0523854 -0.5298605 0.5788094 0.18689167 -0.22305346 0.15536185 0.41633925 -0.8470287 -0.27159816 -1.15048 0.058619995 -0.09790419
indonesia 0.031377517 -0.7060647 -0.39506596 0.63086784 0.5466163 -0.6009061 -0.030921701 0.83426404 -1.3861526 -0.14553161 0.8931602 -0.36265448 -0.39645094 0.49916402 -0.6386563 0.5067904 -0.52283883 0.8056334 0.20928444 -0.570647 -0.5908011 -0.64910895 -0.46112373 -0.17777094 -0.16068442 -0.41851413 0.07400008 0.1485711 -0.40874618 -0.38373363 -0.17412102 0.71017885 -0.012949339 -0.61874264 0.2822567 0.5415653 0.18837333 -0.59097046 -0.8373396 -0.24444349 -0.4747044 -0.5029621 -0.35771278 0.15804282 -0.38725933 -0.31903964 -0.048436213 0.81441104 0.19582704 -0.09911167 0.30559644 -0.15492612 0.1409067 -0.15032983 0.6814938 0.46616152 0.2239708 -0.81589097 0.32492694 -0.6531543 -1.5771685 1.0517457 -0.07617383 -0.4364638 -0.17745158 0.5281719 1.093723 0.20958984 0.024282824 -0.9682453 -0.055647712 -0.05984168 0.21650971 -0.0483835 0.31015047 -0.07828235 -0.38216406 0.3050554 -0.21156774 -0.47911388 -1.0677258 -0.1762384 1.0023955 1.1559125 -0.79926753 1.3586899 0.3771816 0.2688572 -0.0141765615 -0.3983536 0.54230684 0.7472219 -0.6704756 0.21801434 1.8878502 -0.3307041 0.13489251 -0.12686315 0.4235344 0.53819484
lain -1.0513076 0.027353393 0.30238733 0.78372425 -0.3673709 0.02820878 0.4746961 -0.07306734 -0.6531328 -0.8744046 0.0039431863 -0.23230633 0.2810422 0.24177541 -0.22499943 -0.6171656 0.3648629 0.037339743 0.49890202 0.70393497 0.5070898 1.4721173 0.47382584 -0.0042315116 0.14149325 -0.6164561 -0.43882373 0.30684453 -0.15925865 0.22693293 -0.11574349 0.30084398 0.30328977 -0.43925026 -0.005023056 0.713838 -0.53085446 -0.19892114 0.09953834 -0.41870743 -1.062189 -0.49044877 -0.6950993 -0.08353462 -0.7122549 0.05275597 0.43315426 -0.7247995 0.73724884 -0.8036966 0.36170894 0.62326217 -0.20232777 -0.96777725 0.066878594 1.0656596 0.27737054 -0.9417048 -0.42252067 -0.25161865 -0.69424176 0.8060702 1.3494979 -0.60084355 -0.39261568 0.48677814 0.15000035 0.24883033 0.33929047 -0.3032746 0.45096818 0.3073789 0.16288954 0.5342694 0.09845152 -0.06488972 -0.486424 0.08541973 -0.15063745 0.31423557 -0.16664304 -0.6205319 -0.43028975 0.76054114 -1.0567558 -0.8110027 -0.17066638 -0.63056767 -0.1779111 -0.42873257 0.83622575 0.85313773 -0.044840474 -0.079555556 -0.013638797 -0.015060646 -0.34409913 0.344683 -0.32024807 -0.29879692
ada 0.26953408 0.5222143 -0.26458678 0.72040033 0.44319603 -0.32794964 0.79073423 0.9022684 0.06282885 0.019764628 0.09903695 0.12288042 0.79867554 0.42644042 0.36232713 -0.5740799 0.5237181 0.5495369 -0.5521288 0.46567577 -0.6839379 0.03866379 0.5306283 -0.26558483 -0.30242303 0.05809475 -1.1004192 0.55668527 -0.45910752 0.09769189 -0.14430667 -0.8487639 0.40156168 -0.40945524 0.14964212 0.7432981 0.7068267 -0.42119837 -0.89478254 0.14637868 -1.1572144 -0.35183278 0.19183806 -0.45111805 -0.4891132 0.45429128 -0.3382486 0.5405578 0.4481028 -0.9908192 0.8910958 -0.20637487 -0.047423966 0.78068966 0.31106013 -0.09185939 -0.78128916 0.2095284 -0.36340177 0.5911084 -0.25666863 0.44281384 -0.011963107 0.36038858 0.58384264 1.0060834 0.44843477 0.1552199 -0.23919459 0.6953209 -0.27512676 -0.14173485 -0.5139914 -0.0062905964 0.82690513 -0.35967484 1.1047043 -0.5200194 -0.2516383 -0.21178916 -1.1778741 -0.06552592 -0.26347896 0.1157243 -1.0534532 0.8242812 0.27869725 -0.04720613 1.063518 -0.09336674 0.9699153 0.5433949 -0.7461648 -0.30658337 0.31019145 -0.43171343 0.28193682 -0.2725947 -0.33725595 -0.3977474
adalah -1.5183651 -0.5617587 -0.13923706 0.8211834 0.38724774 0.077690944 0.24953893 0.51143575 -0.5751662 0.96539545 -0.11034011 -0.42024243 0.41326448 0.12516971 0.42750147 -0.054811355 1.3001932 -0.29042605 -0.83988416 -0.9801272 -0.34890443 0.27931517 0.054124907 0.4594748 -0.6970924 -0.8277673 -1.5370553 -1.210403 -0.09365635 -0.27820778 0.15069893 -0.00784281 0.29083008 -0.62486744 0.8914291 -0.70776963 0.2550668 -0.39186397 0.40833914 -0.68153036 -0.5613597 -0.08433693 -0.3531064 -0.12513155 0.11619701 0.43669197 0.36706004 -0.5562931 -0.20659758 -0.30146733 0.022348603 -0.38184968 1.0156499 -0.17409082 -0.424262 0.3508571 -0.545412 0.3741257 -0.6404818 -0.25747976 -1.1031706 1.0912946 0.42938325 0.3057238 0.5146208 -0.58926845 0.06826645 -0.40489653 -0.43553635 -1.2526542 1.0068792 -0.25465822 0.20634264 0.5384903 -0.53765166 -0.20168553 -0.62635356 -1.0937481 -0.6948667 0.077507064 -0.8164165 1.6368585 0.42438126 0.52876234 -0.17565502 0.6760431 -0.11623387 -0.88427514 0.33455893 0.31700498 0.6585379 -0.54974794 -0.86356723 0.8601129 -0.17662393 -0.4051385 0.934931 0.15423205 0.06897799 -0.096399404
mereka -0.02492555 -0.16689277 -0.10568344 0.075767346 1.4846643 0.06516428 0.534807 0.78448445 -1.7070338 1.4450767 -0.16963497 -0.9021299 0.9215556 -0.6110059 -0.15578102 -0.5778811 -0.43890727 -1.2346461 0.33236757 0.300434 -0.17653814 -0.16946201 1.1183097 0.022362472 0.4517683 -0.22047815 -0.26651043 -0.55315167 0.18649323 -0.055913825 -0.34190574 0.8015473 0.42782295 0.14880766 -0.9695455 0.67727333 -0.8555072 -0.2512954 -0.48784274 -0.5298704 -0.0043809107 -0.119935974 0.13385074 0.11747548 -1.126299 -0.5823517 0.079416335 -0.20249301 -0.2225365 -0.9225489 0.5457656 0.0011734085 -0.44851688 0.6616494 0.046669856 0.82809484 0.24322852 0.2240321 -0.83144987 0.051570825 0.42236638 0.1467477 -0.6952919 0.4690564 0.5645821 0.12739734 0.16427937 0.2882139 0.19731988 0.5274393 -0.18720737 0.05572287 -0.24738672 0.38078183 0.27836818 -0.31544834 0.9617362 -0.18861167 -1.3260585 0.08540181 0.017392552 0.25825366 -0.3665085 -0.2371536 -1.0794252 -0.31680074 0.19977775 0.53197557 1.5868268 0.13701676 0.7367781 0.20509249 -0.51240325 0.52200913 0.3820877 0.3336733 -0.08571356 0.9086928 1.1892526 -0.97902983
membantu -0.32312566 -0.13904062 0.09535972 0.002631219 0.09495883 0.16825075 -0.29052156 1.050693 -0.3370547 -0.3855513 -0.5011767 -0.74019355 -0.5563043 0.27623916 -1.1446263 -0.34062296 0.8477644 0.13403423 -0.51742685 -0.58005124 0.28069028 0.35828772 1.0853784 -0.07941275 -0.041442364 -0.83689284 -1.4961283 -0.19846393 -0.38784474 0.43164152 -0.51215297 0.7091931 0.09032685 -0.14023781 -1.0677594 -0.2699841 0.2671234 -0.50535846 -0.015315443 -0.55077934 -0.09270088 -0.16788381 -1.2175338 -0.7496066 -0.65889966 -0.63055176 0.34551486 0.05781657 -0.82087386 -0.39745468 0.45651907 0.29881775 -0.26866102 0.14802635 0.76059127 0.19965778 -0.37760767 0.028051462 -0.77130765 -0.34687355 0.7607686 -0.09383072 0.6034161 0.74398345 -0.5762454 0.67578954 0.93546367 0.29291964 -0.93867785 -0.34565428 -0.22471626 0.45960587 -0.19296661 -0.58293235 -0.07744206 0.23054792 -0.052476168 -0.7018038 0.3207609 -1.0874081 0.8277584 0.56854045 -0.13359392 0.8664349 -1.2759974 0.043033462 0.2707147 -0.08247749 -0.49000698 -0.08601351 0.59605545 0.19904973 0.19650804 -0.66461444 -0.52739125 1.2294228 -0.46801528 0.08332266 0.5983383 -0.025086496
darurat -0.34084764 0.7544563 -0.065101326 1.6956036 -0.93685424 -0.44050097 1.1708359 0.8667733 -1.0157723 0.07613794 -0.66119933 -0.4433079 0.31506434 0.060138986 0.15593332 -0.04690412 0.20988691 -0.42129654 -0.5674958 0.025849488 -0.0821913 -0.24873917 -0.5690532 0.7026432 -0.48833653 0.5178609 -0.81329733 -0.71557033 -0.17494933 -0.36651134 -1.4940696 -0.08835161 0.55462414 -0.8889267 -1.3087091 0.75577503 0.29561508 -0.8322097 -0.94701606 0.20507613 -1.1477997 0.38479036 -0.75491804 -0.033223145 0.7983161 -0.018359076 -0.3445115 0.7150441 0.49787876 0.3164641 0.010865877 0.47289664 -0.90418196 -0.2600302 0.10509612 -0.33036134 -0.26461548 -0.66900533 0.27974832 -0.38492477 -0.09250398 0.6781316 -0.5186335 -0.089478604 0.937516 0.03358783 -0.32447797 0.41841844 -0.49182904 -0.34550893 0.35562947 0.57527447 -0.23024735 -0.26724803 0.7714988 0.7527317 -0.16397958 -0.864229 0.5592165 -0.4988709 -0.39183316 -0.1928891 0.09809954 0.30791458 -0.0602329 -0.5320633 0.10437199 0.1647616 0.30264774 0.047585323 -0.09548441 -0.4477384 -0.17213157 -0.34802887 0.025544057 0.34501857 0.10692595 -0.58221704 0.16766751 -0.11782785
meningkatkan 0.2057353 -0.89837927 0.487261 0.92163444 -0.61538184 0.04453508 0.22961852 0.87743205 -0.68929285 -0.31479898 -0.35176125 -0.34222263 0.4679884 0.11936314 -0.41363725 -0.1395314 -0.15630528 -0.13449302 -1.1491822 0.15046787 0.15962075 0.058022402 -0.260063 0.54317385 0.3245825 -0.12656242 -0.5040949 -0.59137964 0.19458462 0.21072793 -0.6621593 0.7661027 0.8093515 -1.0462852 -0.7111744 -0.10254833 0.100909725 0.03047337 -0.17360911 -0.8318651 0.17283319 -0.14063178 -0.38176107 0.95366013 -0.55801916 0.46184158 0.2643189 0.67305136 0.37863073 -0.50426114 0.5448684 -0.2707746 0.17185856 -0.66182256 0.13704947 -0.41146564 -0.50191724 0.25759494 0.41472772 0.36048216 0.2852286 0.24984305 -0.07312423 -0.5730439 -0.72111136 0.17996167 0.9883716 0.46154526 -1.3961096 -0.28471318 0.41224238 0.7740972 -0.2227851 -0.64626664 0.9603291 0.28322783 -0.9801053 -0.24631664 -0.7151905 -0.09520714 -0.19409171 0.33243155 0.15066057 0.22454005 -0.5106864 -0.10707359 0.034124423 -0.70388514 0.19866519 0.83071107 0.8008551 0.29669586 -0.09594708 -0.5263951 0.79129976 -0.46476325 0.08251942 0.37775517 0.9716832 0.39187986
harga 0.70485336 -0.05049159 -0.1910795 0.76089925 0.11442144 -0.5384799 -0.48182487 0.5126718 -1.9421593 0.5412408 0.18050152 -0.5546723 0.11855835 0.050076824 -0.019316977 0.12275146 -0.32291824 0.78864133 -0.6097871 -0.9284921 0.17713529 0.5235783 0.4065619 0.05562508 -0.24362515 -0.8587387 -1.0364752 -0.6456823 0.7715658 0.51378787 -1.3265986 -0.33670536 0.22642013 -0.5208969 -0.22655737 0.41040692 -0.68117017 -0.18273656 0.30831265 -0.4553827 0.092383675 -0.19816157 0.30871686 1.3447195 -0.46560565 -0.39354908 0.11324274 -0.60398775 0.6870998 -0.27083063 1.0206327 0.65394 0.28440267 0.1495732 -0.55090296 0.14727369 -0.35240263 0.021329628 0.7606451 0.47988543 -0.69971913 0.89267117 -0.49924862 -0.35193104 0.31417316 0.41092157 0.16021492 1.0145062 0.18054296 -0.087195 0.4126129 -0.6463168 -0.5351477 -0.38220036 -0.30657104 -0.4383367 0.115835875 0.11355039 -0.3081777 0.2249791 -0.67428255 -0.26274657 -0.014008965 0.9005666 -0.8794093 0.7657502 -0.11718554 -0.11758698 -0.14409792 0.8174434 -0.007369005 0.23037341 0.062186264 -0.37127197 0.46616074 0.14625198 -0.6768472 -0.053022314 -0.12978172 0.10959136
baru 1.126578 0.43010247 0.17302397 0.6429798 -0.31189007 -0.45187062 0.82358253 0.47434562 -1.1899688 0.20851575 -0.44347867 -1.1410524 1.4818152 -0.3598394 -0.004042026 -1.107906 0.8635162 1.0555968 -0.4946878 -1.0450299 0.8805045 0.44897756 1.2309983 0.6342172 0.6073334 0.4451652 0.2687741 0.30420992 0.30926552 0.15386076 0.028570164 -0.6792046 0.47950065 -1.3501648 0.021117626 0.3606993 -0.641854 -0.42276093 0.6403589 -0.4356751 0.061309323 -0.38996205 0.58177066 0.847876 -0.5052051 0.20556407 -1.1242698 -0.85808885 -0.13081095 -0.15085122 0.5896373 -0.76931345 -0.32889736 -0.30678776 0.8166283 0.7328433 0.07248689 0.032559574 -0.207748 0.93124926 0.29386306 0.38859114 -0.57319134 -0.751468 -0.31449908 0.15553042 0.33190367 0.8085997 -0.4213227 -0.0904609 -0.702677 -0.31437007 0.715368 -0.012023848 0.36886594 0.56094974 -0.8064843 -0.65380406 -0.22715598 -0.54031676 -0.28007877 0.67878014 -0.047192138 0.007188702 -1.0700567 0.4076719 -0.7637291 -0.6858763 0.39080516 -0.3196575 0.3379001 0.11692112 -0.673346 0.4381588 0.69601554 -1.029502 0.64809763 0.10872748 0.35422742 -0.65649104
terjadi 0.57694334 -0.38113403 -0.10863518 1.0404372 0.8665544 -1.2804902 0.5672327 0.72413504 -0.3118536 0.44637877 0.53461796 -1.1544427 -0.41772532 0.49208206 0.4954922 -0.020168426 0.1003324 0.23175429 0.06351953 0.7409294 -0.4836044 1.2517437 0.7137724 0.26677352 -0.5294475 0.5205255 -0.82490677 -0.08069738 -0.8660882 0.210996 -0.03337372 0.23880407 0.74244237 0.038846534 -0.571451 -0.01250397 1.0245646 0.12821737 -0.9424641 0.30282068 -0.61291593 0.32695025 -0.5397505 0.07675763 0.17939702 0.06723313 -0.49813974 0.034807008 0.265386 0.1064013 -0.21981376 -0.49026132 0.57202387 -0.32492846 0.38962328 -0.29126802 -0.74219626 -0.9525545 -0.28276882 0.020963863 0.21782227 0.5509684 -0.3067055 -0.5924379 -0.42637536 0.005386531 -0.494471 0.29657212 0.040417336 0.22988364 0.18090117 -0.2482105 -0.8934216 -0.2515376 -0.78360987 -0.60337293 -0.16284677 0.25182667 0.09483722 -0.3820661 -0.07478015 -0.6172334 -0.07927373 0.9532627 -0.747827 0.5113745 0.2300717 0.33414462 0.70363307 -0.9166 0.17775421 -0.14362763 -0.19103278 0.72422206 -0.3769799 -0.03338179 -0.05055941 0.34889066 0.51019055 0.2355744
lebih 0.24886559 -0.9952498 0.39092597 0.86747724 0.18160412 -0.40483996 0.49401954 0.55572003 -0.8708438 -0.6108862 -0.4849456 -0.23802447 0.79328656 -0.52779007 -0.42197397 0.4748701 -0.1036707 -0.062465698 -0.31574714 -0.3681469 0.49922803 -0.1144299 0.19588435 -0.11831307 -0.6251761 -0.42012313 -0.5184693 0.49307168 -0.23801948 -0.54603994 -0.3750877 -0.6022547 0.8238039 0.06060614 0.91529334 -0.36516294 -0.30775917 -0.78462213 -0.22205694 -0.07549245 0.7160405 -0.3867657 -0.7745217 0.29523203 -0.41833654 0.11775796 0.7670557 0.018092053 0.72572327 -0.5912287 1.0090498 0.5881083 -0.35944045 0.6272012 -0.5236135 0.1826131 -0.15620974 -0.65090555 -0.43640327 0.08031457 -0.56440175 1.2028207 -0.69931465 0.12021923 0.674614 0.17405713 -1.4560261 0.034874707 -0.29592854 -0.2239807 0.6802502 0.5329851 -0.024783026 -0.117460355 0.75720906 -1.1221762 0.2578228 -0.2229473 -1.2627509 -0.7778886 -0.29983732 0.4225485 0.21429673 0.72111595 -0.013311793 -0.17141187 0.32014734 0.064564906 1.0614715 -0.36214063 1.2160724 -0.56413865 -0.14487848 0.30583987 0.37017944 0.17531866 0.13604824 -0.25153613 0.32334575 0.29034758
saja 0.053692676 0.5184745 0.1706662 0.8308035 0.28451636 -1.3980429 0.22265711 1.271928 -0.9224809 -0.93849766 -0.14639592 -0.01438011 0.54578376 0.37486246 0.60324544 -0.1694184 0.17415681 -0.14856724 -0.16048259 0.97781986 0.40745857 0.52769744 1.1061071 0.12863545 -0.49549997 -0.44901392 -0.5723396 -0.33807677 -0.25987965 0.7347301 0.13121358 -0.9279481 -0.20010851 -0.68459636 -0.04578992 0.40165222 0.3865398 -0.79241806 -0.17594537 -0.21398158 -0.490742 0.1746229 -0.8161406 0.9071042 0.1868551 -0.023049906 0.12546875 -0.3735004 -0.25667113 -0.33207682 0.093178846 -0.17252046 -0.09322771 -1.0671438 -0.06331416 -0.14041036 -0.021080235 -0.13954175 0.6791111 0.6641855 -0.398147 0.7123829 1.5646368 0.19268607 0.5114092 0.81336075 0.6015497 0.00837519 -0.33481902 -0.90620804 0.21831696 0.30299366 0.014906802 0.025893256 -0.426454 0.17419355 -0.81923234 0.0026034033 0.14559233 -0.038455587 -0.8933525 0.31692094 0.27611426 -0.550819 -0.18234368 -0.10666914 -0.36594766 -0.09906711 -0.048954956 -0.47166744 -0.5435098 0.36149555 -0.71812516 -0.61802804 0.7398432 -0.7128882 0.050363474 -0.17606626 -0.18081534 -0.49882725
vaksinasi 0.18685812 -0.113910496 0.33246338 0.5260144 -0.1991284 0.11046796 0.8669335 0.7878666 -0.98221344 -0.70498955 -0.5892509 -1.3705163 0.28994843 -0.06508269 0.85089415 -0.2539727 -0.63192135 -0.15646997 -0.37409586 0.22801055 0.6178519 -0.12967566 -1.1646425 0.16050254 -0.20907168 0.24216725 -1.4344611 -1.148674 -0.42977145 -0.12121672 0.030446451 -0.31972098 0.5362203 0.24555561 -0.07455861 0.36533016 -0.6444187 -0.24440809 -0.2726932 -0.00048776407 -0.66969323 -0.27263236 -0.38969398 0.025670044 0.21239085 0.1542185 -0.45619974 0.40117663 -0.11041553 -0.48123103 0.08058088 -0.29236728 -0.034055874 -0.16206916 0.05228267 -0.515213 0.04260491 -1.0068636 -0.9025588 0.65591615 0.16371307 -0.0029538746 0.445092 0.13199027 -0.669594 -0.56532085 -0.07183932 -0.44516858 -0.6097249 -0.6197121 -0.219657 1.0424492 -0.48968118 -0.84759253 0.32764044 -0.46468678 -0.12668897 0.05860685 -0.32475114 0.5533114 -1.2961719 0.3812758 0.5396341 0.5018261 -0.71788615 0.051570304 -0.7834228 0.43913305 -0.52248776 -0.34241503 0.7894814 0.36846316 -0.49044836 -0.29471424 0.69911295 0.040692087 -0.45795137 -0.75837547 0.10016938 0.33859038
kota -1.1442184 0.7653492 -0.30364898 1.563569 -0.63052255 -0.38022125 1.6758913 0.37248427 -0.6040833 -0.23439007 0.73226506 -1.0954071 0.2534991 0.37454292 -0.5422739 0.031287663 0.36521074 1.2237101 -0.06560563 0.32255453 -0.14521305 -0.3643567 0.22598445 0.24214874 -0.36712027 -0.85036564 -0.2206576 1.1154165 -0.15146786 -0.3219699 -0.28551552 0.59797555 0.2910582 0.13325408 -0.14639421 -0.21772671 -0.07941071 -0.7835484 0.5531584 0.24223273 -0.066108845 -0.3471419 -0.42828083 0.29881427 -0.030746274 0.00015951047 -0.8478461 -0.48349568 0.55839175 -0.1290736 0.3897352 0.10776862 0.49644136 -0.29930198 0.36673945 -0.014729706 -0.8783781 -0.8303638 -0.7302654 -0.2403945 -0.12298158 0.14722575 -0.32136485 -0.6958508 -0.489232 -0.0026632058 0.37313852 0.0037741668 0.0476403 -0.20258991 -0.4678021 0.49121815 -0.25072354 -0.50265914 0.102480575 -0.34494638 0.528154 -0.46383232 0.55123764 -0.36299208 -0.3429568 0.18060714 0.23841585 0.11146729 0.4805212 -0.17325456 -0.4540658 -0.9802487 -0.17746706 0.14849956 0.7161794 -0.16341792 -0.79893786 0.18295208 0.24661377 -0.25888604 -0.4547322 -1.2077477 0.58505136 0.98279274
mengenai -0.6170777 0.969021 -0.6856443 0.55520016 1.5761105 0.11913223 0.35686707 0.55673236 -0.68701446 -0.3653976 -0.11696996 0.29875118 -0.016713275 -0.31223246 1.6369491 0.5235082 0.6675703 0.13539311 -0.6082839 0.7982948 -1.2652687 -0.36818117 1.9640915 -0.19193798 -0.5487852 -0.46246073 -0.052897222 -0.34526727 0.20203136 -0.0031043312 -0.9685413 -1.1517073 -0.5239382 0.31534618 -0.6661218 -0.9823029 -0.24694657 -0.62033147 0.28813237 -0.07993341 0.5410824 -0.547865 -0.3879834 -0.045915566 0.3213896 1.2756634 -0.5120637 -0.35601732 -0.48740673 -0.61828214 1.0421534 -0.084128365 0.016085092 -0.17626841 -1.2487252 -0.24904831 0.5157135 -0.5536376 -1.364185 0.06830229 -0.032096166 0.4571563 -0.17054218 0.1987828 0.40633285 -0.78462106 -0.26940858 0.5911018 -0.5563388 -0.17888282 0.6518234 0.33597633 -0.16527073 -0.09534501 -0.3401632 0.09590041 -0.30707076 0.26063025 0.35397214 -0.6659748 0.25849435 0.31223872 -0.15488966 0.3737146 -0.32979023 0.7882237 0.2696125 0.1652311 -0.32607672 -0.23644824 0.8682516 0.6508317 -0.3695858 -0.4045506 0.8928074 -0.74698305 -0.01898607 -0.74063337 -0.20658875 -0.35241967
perlu -1.4736373 -0.59375167 0.8659615 1.1882589 0.39314634 -0.5243136 0.44102275 0.11820434 -1.173126 -0.06679074 -0.6540746 -0.08420385 0.15234612 -0.7630941 0.54903984 0.87018746 0.089414656 -1.1555334 0.8538584 -0.101025715 0.31740922 0.20336327 0.07478856 0.035564024 0.5814778 0.46803552 -1.4224085 0.6742707 0.8864178 -0.29819942 0.8164052 0.6220861 0.12152269 -0.8596808 -0.7103077 1.0152242 -0.38369066 0.3521246 -0.36514112 0.28598523 0.50297046 -0.711101 -0.8346837 0.0816371 0.3527071 -0.17724083 0.17165335 0.2029119 0.49696118 -0.7080808 0.19352895 0.2084662 -0.070099235 -0.07467896 0.14725691 0.12274788 -0.3457971 0.08475099 0.177347 -0.54504114 -0.43611708 0.54927814 0.78576154 0.7359021 0.13595562 0.09436742 0.738891 -0.24696366 -0.78447306 0.13752261 0.59709513 0.30887103 -0.13703981 -0.218804 1.027406 -0.274203 -0.90889806 -0.5474583 -0.06395859 -0.6266564 -1.072782 -0.46932286 -1.0034287 0.41112006 -0.8367172 0.95727235 -0.44319072 -0.21056414 0.15289806 -0.29369742 0.033725876 0.30824617 -0.45700428 -0.5231627 0.08415577 -0.76124525 0.7277667 -0.057735883 0.23549566 -0.03164338
menyebabkan -0.3056508 0.012031419 0.18467596 0.36712244 0.47500488 0.11676189 -0.48283038 0.7607621 0.4372738 0.4144653 0.27587536 -0.8123132 0.5299617 0.027265264 0.5281552 0.25010765 0.08275868 -0.16102229 -0.590966 -0.39015988 -0.1433435 0.8041374 1.0333229 0.6177941 -0.10924174 0.033930514 0.5504118 -0.30027667 -0.039477214 0.6657316 0.19882241 0.06631348 0.5128032 -0.2752315 -0.44680372 0.39256552 -0.201244 -0.45791292 -0.02132067 0.14891529 -0.24104159 -0.12123931 -0.9460288 0.8965339 -0.01799192 -0.27813447 -0.69682884 0.48349947 -0.71757656 -0.023646642 0.574687 0.2943639 0.50931686 -0.96001947 0.62536544 0.16023906 -0.100730665 -0.42776716 -0.43587857 0.021493118 -0.74788964 0.26879537 -0.060459223 -0.06468819 -0.4464155 0.44641393 -0.4222183 0.19741155 -0.52360713 -0.09967564 1.4547453 0.013820653 -0.26043022 0.12117571 0.0056485655 -0.2975449 -0.4543461 0.33013836 0.08767199 -1.2862167 -0.12458808 0.13011746 0.20485859 0.05842307 -0.93964607 0.460076 0.038070735 -0.29632938 0.41719124 -0.88530856 1.1930834 0.18185964 0.122884594 0.34249753 0.27666 0.64589965 -0.9855637 0.81855756 0.1427975 0.23028803
mengurangi -0.68762535 -0.48088825 -0.044268847 0.8492056 -0.07777679 -0.18345709 -0.37707984 1.0231568 0.009153966 -0.121291384 -0.58763736 -0.8190541 0.024073906 -0.45093432 -0.14013247 -0.7674136 0.7917495 0.06242817 0.18348205 -0.75237 0.109608926 1.2442547 0.7124357 0.5111659 0.5412628 0.19524656 -0.47529584 -0.51752627 -0.04840729 0.83349514 -0.14906858 0.5820923 0.76354885 0.047500964 -0.6300566 -0.027024511 0.3954527 -0.89151955 0.3844611 -1.1445168 -0.64171183 0.014816748 -0.41495118 0.8733544 -0.62635964 -0.1366382 0.25650457 0.27441698 -0.26300314 0.21288922 0.34923747 -0.19854712 1.3940848 0.20144345 -0.05230327 0.73416805 -0.13396415 -0.16762769 0.22518943 0.8824502 0.42068774 0.5789986 0.08782937 -0.19295537 0.17463201 -0.13669482 -0.2643642 0.5398779 -1.5481725 -0.20098762 0.25504562 0.7924223 0.10564122 -0.6822351 -0.7019597 -0.1069939 -0.7079764 0.009563191 -0.7693846 0.47614762 0.34411114 -0.5511742 -0.020379556 0.22244072 -0.41106957 0.04556847 0.03523133 -0.39260983 0.15992758 0.77058095 1.0380796 -0.08345575 0.3283175 -0.011019696 0.50078064 0.3000207 -0.3127033 0.1552899 0.6569093 -0.46227604
bagi 0.09659775 0.4132389 0.33359864 0.7664642 -0.7998864 -1.2287908 0.55001515 0.69930375 -1.0681688 -0.6480543 -1.4277263 -1.4260764 0.14299212 0.002153896 -0.13423039 -0.52783185 -1.200703 -0.58587116 -0.97271794 0.3307621 0.21912201 0.31894204 -0.11067735 -0.79104006 -0.5074162 0.21187365 -0.13698752 0.2452633 0.28972393 0.31705588 -0.14930426 0.15564288 0.30375847 0.28052655 -0.7616919 -0.22408643 0.51907444 0.44216487 -0.12861931 0.2526815 0.53298336 0.2849108 -0.7720677 0.35263136 -0.2827279 -0.76976407 -0.37263715 -1.1514425 -0.08707492 -0.956659 -0.82098716 0.31623197 0.15726888 0.5841652 0.028407872 -0.60981846 -0.07225574 -0.020964904 -0.5364476 -0.31088006 0.044511925 0.20442656 0.12377924 -0.795785 0.2654835 0.015232561 0.2598 -0.17235221 -1.4423906 -0.014872765 -0.27471283 -0.43511456 0.20875484 -0.4036253 0.2961613 0.09152532 -0.5071501 -0.49796724 0.5663021 -0.28540033 0.18118519 0.3315109 -0.62835765 0.7517321 -0.29668817 -0.83168364 0.07351238 -0.04329335 0.84791625 0.20875028 0.14318907 0.16811216 -0.29268098 -0.13435845 0.65434283 0.02487556 -0.07172612 -0.37670642 0.53079593 0.18530571
kasus 0.22705728 0.9300571 -0.65260154 0.44097102 0.034596566 0.3261884 -0.44300038 0.9089286 -0.29956993 -0.3240558 0.64675444 -0.33631912 0.79253423 -0.7840582 0.16405061 0.40465373 0.7555067 0.711144 -0.22346807 0.32493198 -0.41333136 0.5177669 0.19153188 0.03508946 -0.18545173 -0.32829535 -0.48216277 -1.0118198 -0.20872623 -1.1172296 -0.9836952 0.09900565 0.7049984 0.24754757 -1.3029511 -0.1268974 -0.095300265 -0.7971807 0.27510697 0.10441181 0.393827 -0.32921934 -0.38816068 -0.43423113 0.31926018 0.36527455 -0.37545058 -0.33874097 0.519535 0.37111527 -0.23056139 1.7157366 -0.041487664 0.4629119 -0.39653784 0.13182147 0.12331313 -0.6014249 0.81885517 -1.0113118 -0.56314754 0.7014012 0.48421136 0.29414138 0.5170173 -0.39641818 0.36410826 0.5409584 -0.39852837 0.04785238 0.14067104 0.6447955 -0.96979564 -0.9609589 -0.78732115 -0.2828934 -0.7415567 0.22093798 0.17440338 -0.3766963 0.26765403 0.33502477 -0.26907897 1.0399363 -0.497472 0.7000891 -0.39664736 0.21665141 0.36216307 0.044632792 -0.026093347 -0.0501395 -0.46693015 0.34872028 0.26798624 -0.5406811 -0.4205 1.0255173 -0.35182375 0.92009556
warga -0.059519887 -0.57194626 -0.5275837 0.98083675 0.43914056 0.20232314 0.66845304 0.76359004 -0.4239315 -0.39588326 -0.33699346 -1.1508648 0.42423284 0.34361222 1.1609092 -0.26948297 -0.25183326 0.11457632 -0.6615449 0.22965692 0.36766222 0.59820473 0.32971248 -0.40947884 -0.09186365 0.24528116 -0.6421928 0.72910833 0.5680754 -0.5585341 -1.0521117 1.0272665 0.49738526 -0.19248095 -0.5584734 0.3595649 -0.6236368 0.047166478 -0.031307653 -0.26435015 -0.9320465 0.13304749 -0.25045997 0.33633444 -0.6883495 0.02146334 1.2096146 -1.1760788 -0.26461127 -0.66327053 0.5582186 -0.50417274 1.3751236 0.31361806 0.4480972 -0.535678 0.5407385 0.06250592 -0.5766427 0.2541234 0.54163754 0.09158519 -1.0301048 -0.30820122 -0.85065645 0.87892205 -1.2603283 0.55316585 0.05593432 -1.3489709 -0.1575007 0.49244487 -0.43795645 -0.34124812 -0.15134309 -0.625628 -0.6091889 0.19244145 0.64997715 -0.8474204 0.3320353 0.6198795 0.27250713 -0.2214209 -0.71012557 0.94090897 0.14358005 0.027312417 0.5491765 0.20133021 1.1018534 -0.7545765 -0.16404992 0.3505053 0.21799347 -0.49750924 0.18962526 -0.20835686 0.008457228 0.70568067
jakarta -0.85014135 -0.06293562 -0.43374506 0.91299665 0.074519835 0.303273 0.006215811 0.8029733 -1.4230682 1.0096816 0.03746324 -0.83851594 0.094287306 0.72055084 -0.86258876 0.0548586 -0.051591888 -0.16450943 -0.89372706 -0.3151626 -0.114901006 -0.40099648 0.78053135 0.30686828 -0.23611858 0.2085042 -0.64764756 0.53194857 -0.0639525 -0.11191569 -0.68298346 -0.49639288 0.82944995 0.28947276 -0.81817245 -0.19728796 0.21687026 -1.0659175 -0.57677597 -0.14160094 -0.153026 0.031299286 -0.7480903 1.1719667 -0.40803868 -0.18285473 -0.30210793 0.5492305 0.7735638 -0.66464853 0.17455289 0.9113148 0.68690884 0.19988318 0.32749358 -0.49288166 -0.68376076 -1.1411732 -0.37478516 -0.32156757 -0.27248308 -0.48824513 -0.8411904 0.60266495 -0.27418515 -0.7544531 0.52847195 0.3547167 -0.5709408 -0.7454107 0.05792714 0.27019045 -0.50497264 -0.49139 0.17474972 -0.15658937 -0.5853449 0.06597207 0.46831778 -0.07911017 -0.47805762 0.31963664 1.0425448 -0.40846 -0.15228897 -0.6291081 0.41781926 0.5335746 -0.0890268 -0.42321414 -0.46084607 -0.11263038 -0.7253546 -0.40399083 0.30707213 -0.42144695 0.21097104 0.1383982 0.2587597 0.6091361
jika 0.26072714 0.30619434 -0.57331634 0.90023875 0.40272546 -0.4780245 -0.34093997 0.94437176 -0.79470897 -1.0364767 -0.120405346 -0.9001787 -0.31457558 0.017250631 0.50448316 0.8925819 0.91473144 -0.0392754 -0.024875177 -0.971537 -0.7779744 0.31698737 -0.36078176 -0.70715445 -0.7326739 0.43326685 -0.3076861 -0.21255901 0.54008365 -0.67715824 -0.052324783 0.24572629 0.16785243 -0.72540563 -0.6917954 0.6186094 -0.14421666 -0.37537527 -0.58702856 -0.42057085 0.04542528 0.6700338 -0.53939605 0.16270897 0.4405627 -0.31127337 -0.6775736 -0.18317792 0.1592709 0.0422295 0.36096534 -0.17243026 -0.012260041 0.40780354 -0.13290392 0.60364664 -0.3275481 -0.4253032 -0.82917285 0.42365852 -0.6803039 0.4046907 -0.005686683 0.16991979 0.26244262 0.1447417 -0.022011556 1.1780777 -0.19906045 0.45918036 0.7034331 0.25719032 -0.5720659 -0.24353026 0.2215829 -0.2816557 -0.69806695 0.13957353 0.55430037 -1.2548321 -0.125111 -0.3048926 -0.9463387 -0.11918667 -0.3857853 -0.64819837 1.061084 0.41810945 0.12808926 -0.42175195 0.40842804 -0.041523483 0.4816335 -0.03234806 0.6352389 -0.767042 0.91066045 -0.15055215 0.6429744 -0.010912772
dia 0.26581836 0.42747223 -0.6776157 0.9496932 -0.24075185 0.050223876 0.82335615 0.22004214 -1.1490881 0.31713933 0.25132322 -0.5047216 0.53981584 -0.37427992 0.31284088 0.07776195 -0.5189952 -0.94935864 -0.16362792 -0.018618025 -1.0478166 0.90625733 -1.0370754 -0.30184108 -0.74712354 0.918014 -0.37234527 -0.71757346 0.46093953 0.2975783 0.43960425 -0.053468168 0.18056336 -0.36942643 -0.7069492 0.36961 0.33913854 0.1456033 -0.71695065 -1.1001352 0.28340116 -0.41352555 0.37507463 0.18533951 -0.17513469 0.932765 -0.4956904 0.13239834 -0.12218186 -0.35989445 0.30569628 0.16608903 -0.03454894 -0.045485772 -0.5221413 0.26204956 0.27338368 0.066478305 -0.09636399 -0.31160465 -0.8782167 0.12532322 0.2852708 0.05580485 0.083187446 0.7209597 0.39380628 -0.26294148 -0.62376004 -0.1226139 -0.05959225 -0.1764294 -0.08558095 -0.31614932 0.13708875 -0.501537 0.012633474 0.25272167 0.5282833 0.47750172 -0.92429703 0.3820925 0.28164127 -0.21219093 -0.15362869 -0.45542192 0.123257264 0.8025483 0.54485273 0.12735523 0.3182468 0.39651653 -0.5444332 0.5398026 0.027738463 -0.21239056 0.30548188 -0.09661865 1.0257139 0.90521735
tahun -0.39072457 -0.43024004 0.20949157 0.014484518 0.10418951 0.18297544 1.3220811 0.70517033 -0.6420408 0.36892676 -0.37414435 -0.32389697 0.64563537 -0.30064493 0.030971237 -0.31058642 0.20284818 -0.5547346 -0.013753742 -0.02989724 0.5331121 0.12747508 -0.024182908 -0.29532376 -0.5515929 -0.4394223 0.40257522 0.5225174 0.30643618 -0.1306276 -0.13616621 0.33620805 -0.30156413 1.0698402 -0.74881136 -0.38769954 0.011240261 -0.75326955 -0.04033568 0.019340081 -1.4836677 0.2508574 -1.016223 0.7432923 0.25870475 -0.09124641 0.3847536 -0.2446585 -0.6101827 -0.11386965 0.78149986 -0.17480893 0.53795516 0.6771831 0.7138198 -0.097880885 -0.12935665 -0.052109566 -0.78238505 -0.35500437 -1.1517072 1.1593798 -0.0053374525 -0.35179392 0.028355451 0.62296325 0.28823826 -0.01451614 -0.18447003 -0.3581925 1.058771 -0.46252486 0.2946349 -0.8797263 -0.2608866 0.19853868 -1.5984058 1.1463962 -0.3543555 -0.18081632 -0.257492 -0.6388696 -0.3199669 0.8670907 -0.36877075 0.94198483 0.0060700956 -0.38057798 0.48410326 -0.30479562 0.41576317 0.029631985 0.22645488 0.30483484 0.628159 0.1468717 -0.37127775 -0.5727328 0.62016636 -0.32335907
telah 0.000971756 -0.22839263 -0.15866254 0.29678696 -0.27393794 -0.5936589 0.9907418 0.09734778 -0.7904285 0.13122807 0.052546013 -0.32920134 0.64825046 0.11350319 0.112538055 0.28274077 -0.36922494 0.19789863 -1.0534555 -0.3623662 0.0029398883 1.0645868 0.28819036 0.7237468 -0.7230592 -0.30111635 0.23058526 0.71017087 -0.17477211 0.28683335 -0.2311203 0.51863617 -0.22385462 0.07981017 -0.36393645 0.65584487 -0.19934109 -0.8643289 -0.6888808 0.79415965 0.54326403 0.2984156 0.30825385 0.5502389 0.40684476 1.0044616 0.045211457 0.14762488 -0.5123538 -0.32289383 -0.15682028 0.38337237 -0.7732753 0.009293359 -0.5517589 0.066336334 0.34996188 -0.018140702 -1.1596302 -0.5273967 -1.2278169 -1.3394523 -0.27899617 -0.54575425 -0.12421666 0.63509935 0.024396313 0.62025684 -0.46360362 0.085761145 -0.73093396 0.4286049 0.025128018 0.61704344 -1.0098709 -0.25450835 0.0036356263 -0.3951102 0.42057326 -0.7848292 -0.30893308 0.7956147 0.9646367 0.8144274 -0.6333808 -0.14109878 0.62098926 0.07256226 0.6069529 -0.2764271 0.54741734 1.2513647 -0.36534706 -0.13390796 -0.00903747 0.03281077 -0.4200895 -0.5737818 1.1346861 0.31713423
ekonomi 0.045058757 0.6752282 0.6140922 1.2120649 0.19944641 -0.27217165 -0.9548284 0.58726096 -1.3568373 0.737767 -0.6032593 0.17154439 -0.45086652 -0.79753715 0.39591947 -0.46681544 0.23766471 0.2703393 -0.3143227 -0.54368126 -0.4813604 0.92750996 -0.03135895 -0.3782251 0.016865157 0.1617477 0.035655804 -0.9817693 0.273207 0.096534535 -0.57382923 -0.27420697 0.6937506 -0.3557105 -0.39574248 0.29056922 -0.33514675 -0.55671734 0.04083487 -0.8952986 -0.043912586 -0.09115503 -0.6427985 -0.045959212 -0.006134897 -0.2640618 -0.50212055 0.44457453 0.2415348 -0.50276 0.46308255 0.5443186 -0.3027907 -0.46038675 0.8263187 -0.51089096 0.32573488 0.11834673 1.0870372 0.308152 -0.6436564 1.0306888 -0.0356032 0.4205932 -0.91280407 -0.48734617 0.1212614 0.0594421 -0.8087392 0.1705329 0.81377834 0.9346057 -0.955244 0.18908958 0.1684843 0.1311957 0.5593691 -0.51321965 -0.76973283 -0.056976367 -0.28247696 0.75599927 0.34844577 -0.49043462 -0.34424466 0.28169388 -0.7601176 0.08610768 -0.7362252 -0.17024031 0.2039051 -0.077548824 -0.3301854 -0.34183466 0.708101 0.50577223 0.52054423 0.009357212 -0.18490387 -0.039021824
rumah -0.3423337 0.14631778 0.013080355 1.399528 -0.48405358 0.0549827 -0.14593442 1.1871884 -1.241245 -0.46783847 0.09364559 -0.98842454 -1.1729492 0.44990996 -1.0495249 -0.11858615 -0.10088911 -0.035942648 0.6334675 0.54340166 -0.44509813 0.41600963 0.8924655 1.0474981 -0.48785976 -0.43754786 0.302206 0.27021426 0.015730334 0.23759156 -0.09734194 -0.12409297 1.1003568 -0.86998385 -0.16058333 0.07759945 0.7562041 -0.5416439 -0.20709197 -0.5589944 -0.52180654 -0.25757822 -1.3294598 0.75431484 0.26926088 0.71180123 0.09423129 -0.3485954 0.96071017 0.12937723 0.5876207 0.36654195 -0.25326827 0.8069232 -1.2956421 0.52955055 0.5587417 -0.17123388 -0.059719827 0.47497258 -0.07201715 0.53309715 -0.5833088 -0.40026438 -0.52839005 0.24970263 0.42858535 1.2280792 -0.24346536 0.085310444 -0.008727413 0.82823133 0.115464546 -0.69357395 0.5182753 -0.3648277 -0.30611947 -0.8700544 -0.48670095 0.6855361 0.5721944 -0.333651 0.12052222 -0.22453737 0.85429645 0.06057263 -0.32188058 0.3858132 -0.39416242 0.7048303 0.48090252 -0.26573986 -0.31389037 -0.4075964 0.51168996 -0.09060342 0.2084726 0.1435645 0.28955024 0.08160113
pendidikan -0.4571021 -0.0036857408 0.45058614 0.28218886 0.07160181 -0.31265557 -0.52781683 0.22487743 -0.221931 -0.30507526 0.2070185 -0.34628385 -0.4816579 -0.0023774372 -0.070569865 -0.44818538 -0.12790546 -0.41538578 -0.57232475 -1.0685862 -0.07201314 0.12020817 0.14564508 -0.62280077 -0.32832503 0.36335173 -0.8379414 -0.29560453 0.33103925 0.52763957 -1.3122674 0.21481973 0.87989163 -0.43615258 -1.1737833 0.31157205 0.13160092 -1.0626296 0.4570107 0.2294714 -0.7247748 -0.74595016 -0.46788538 -0.059719115 0.3448048 -1.2685082 0.4443556 0.5871131 -0.23035781 -0.32327032 -0.7491669 0.8106603 -0.25161535 -0.17075032 -0.41477978 0.79334605 -0.06271288 -0.7031315 0.9131418 -0.6358453 -0.039094955 -0.000103893595 0.6178963 -0.23639052 -0.35239953 0.50304174 0.1830339 0.27022585 0.2635924 -0.118756525 -0.13890529 -0.10950323 0.037269417 0.2939816 0.5039841 0.56198835 0.0075039086 -0.67195237 -0.6704944 0.34830445 -0.753271 1.0747473 0.315714 0.77107006 -0.21908806 0.15371414 0.29177472 0.028346399 0.9210954 0.24502404 0.8276275 0.36014998 -0.09195876 0.3622886 0.27641523 0.2401801 0.18806225 -0.16515145 0.54017913 0.15268503
saham 0.107270524 -0.27979204 0.5525627 1.0577027 -0.39752284 -1.1123184 0.2782745 0.59323454 -0.8157999 0.6177196 -0.27226752 0.036661632 -0.1218546 0.14620733 -0.3199164 0.115233675 -0.55111814 0.61488694 -0.082686424 -0.31857187 0.06968309 0.5792379 0.561061 -0.118561454 -0.26342875 -0.055782903 -0.87656283 0.0076666744 0.28896776 0.6078849 -0.10094048 0.044197597 -0.20328046 -0.16400301 -0.34114134 0.5442906 -0.5001626 -0.2182552 -0.35922518 -0.5513796 0.040186714 0.11448292 -0.417034 0.9665654 0.073214956 -0.9776731 -0.47745055 -0.39326614 0.029539056 -0.2128946 0.29460526 0.01147126 0.2064825 -0.15487154 -0.26130056 0.42179808 -0.2803025 -0.06756744 0.4957574 0.20166044 -0.636816 1.9438416 -0.41043517 -0.89719343 0.9244536 0.57180005 0.83467555 0.298858 0.08509535 -0.305892 -0.15697405 0.13708264 -0.2897361 0.43640995 -0.018767964 0.5389233 -0.3707188 0.15197517 -0.23667406 -1.2296662 -0.4401278 0.04062017 -0.20745794 1.3005537 -1.6589618 0.7626647 0.3989955 -0.9045637 0.17682496 0.7333934 1.0866913 0.35348868 -0.7862852 0.055614278 0.63785696 -0.50835884 -0.11697148 -0.37600914 0.42368442 -0.6384982
negara -0.1901661 0.036919408 -0.17450401 0.82361054 0.39715958 -0.03989446 -0.3430398 1.1340693 -0.6357822 0.22232398 -1.066487 -0.0054109856 0.1287212 0.1754085 -0.49028823 -0.17866638 -0.36100572 0.8867879 -0.16612893 -0.2945624 0.977206 0.37975925 1.1204405 0.62820137 0.24154444 0.6041244 -0.39834523 -0.29818562 0.07177805 0.8859748 -0.20647445 0.03690409 0.68535817 -0.18372911 -0.071508035 0.05874568 0.23797064 -0.15549797 -0.5297928 0.28097743 0.07934943 -1.4117398 -0.5932534 1.2967479 0.68355304 0.15782225 -0.33561718 -0.3415441 0.19289236 0.629801 0.42392173 0.34647238 -0.58546615 -0.19735031 0.18555292 -0.24316676 0.30834103 -0.2262399 -0.6646422 -0.26384115 -0.8725583 0.7554536 -0.66417146 -0.4045991 -0.90193415 0.5029 -0.8104697 -0.3189339 0.20405586 0.07689639 0.11889417 0.5934411 -0.99009466 0.2590868 -0.42856216 -0.11157995 -0.39424655 -0.23617369 -1.5589335 0.023087066 0.18904006 0.067802645 1.0672771 -1.0302913 -0.5126047 0.78205526 -1.1478232 0.26196802 -0.2313009 0.9259057 0.22682019 0.55036986 -0.9440563 -0.56247747 0.40225357 0.07618778 0.267775 0.18660995 -0.32456288 -0.28263783
air -0.6575525 -0.42615986 0.0386621 0.41658178 -0.24458519 0.2174115 0.10998063 1.3401973 -0.49373886 0.6915801 -0.2647788 -0.16657114 -0.415231 0.59599173 -0.3885497 -0.4519747 -0.5518287 0.32387275 -0.91600096 -0.92729765 -0.06915388 0.26292422 0.047924377 -0.27142575 0.22643135 0.83446807 -0.45759016 0.9172037 0.0791556 -0.67734957 -0.6523226 0.008176603 0.5974392 -0.054703604 0.15034232 -0.66920537 -0.6545553 -1.2942145 -0.31718373 -0.10005017 -1.2067076 -0.2825437 -0.9205842 -0.4606324 0.52998775 -0.5902231 0.7240612 -0.5965581 0.46492055 0.19751348 -0.49378464 0.98008955 0.24973226 0.31440824 0.2599902 0.7305332 0.13671789 -0.31973836 -0.48646507 0.02210018 0.20607914 -0.05383005 0.011686518 -0.5244297 -0.39185902 0.49975964 -0.04797175 0.19811618 -0.014859526 0.47938615 0.806959 0.87010956 0.02020763 -0.8045957 -0.58261335 -0.5880525 0.50714004 -0.80521935 -0.2824749 0.12840924 -0.8182937 -0.5943547 -0.0059721638 0.2734834 -0.09208847 0.7788082 0.6407093 0.4253122 0.61700827 0.50281847 0.6303795 -0.17821635 -0.040092427 0.5562284 0.50705254 -0.1701235 0.39518687 -0.40547985 -0.01378801 1.123933
para -0.015380093 0.070804365 0.06251695 0.7927173 0.65754217 -0.095203176 -0.3144917 0.5337289 -1.4191077 -0.06789043 0.20076038 -0.084416725 0.68351394 0.43851006 0.1358715 -0.17073387 -0.27675492 0.39384684 0.17069417 -0.8731493 -0.71587586 0.3064005 -0.88164485 0.2713816 -0.26859975 -0.092200466 -0.98804665 -0.59502417 -0.04716459 -0.12808117 0.00012985525 -0.9959868 0.5199456 -0.056363896 -0.18738633 -0.29392248 -0.56220216 0.66984075 0.20220645 -0.9875333 0.9276177 -0.5883176 -1.0844285 -0.29102144 0.5796051 -0.7632655 -0.32563275 -0.118184745 -0.65601975 0.21171066 -0.13498951 0.50247633 0.07784722 0.33492577 -0.68490326 0.5449369 0.45529217 -0.11420326 0.3381933 0.7084307 0.15318419 0.9696221 -0.16606915 0.9295824 0.43463695 -0.060636114 -0.07228616 -0.3455945 0.6125591 0.49922344 0.6190447 -1.2149394 -1.0489178 -0.5671792 -0.6194183 -0.5391913 -0.37859094 0.11611037 -1.2305858 0.15606445 -0.010993805 0.6776572 -0.52729607 0.3405988 -1.2877249 -0.15132193 -0.60386354 -0.10484532 -0.5327162 -1.4147874 0.06753116 0.345171 -0.7696329 1.162958 0.19053599 -0.062493425 0.42085776 -0.09447435 -0.0018057029 0.18557897
serta 0.4489001 -0.45151502 -0.6245521 1.0012462 -0.98483497 -0.9506212 -0.06021411 0.8394667 -1.0441248 0.27182388 0.6262994 0.22917373 0.36053377 0.49660143 0.4922878 -1.1969607 0.5534477 1.1233115 -0.71565974 0.2663591 -0.54286695 0.53241694 -0.62373525 0.19973034 0.33663008 -0.54889596 0.5104611 -0.21075423 0.036701262 0.4276285 -0.4417601 0.5371517 0.34695974 -0.5976271 -0.78346634 -0.7525083 -0.33192125 0.22161956 0.084057234 -1.1258678 -0.3345523 -0.5916892 -0.1184359 0.50530523 0.11201567 0.16767296 0.40325025 0.1926156 -0.7661309 0.098708816 -0.17825529 0.9829024 0.31315666 -0.49894947 0.23582542 0.012429658 -0.7808928 -1.1653211 -0.3722109 -0.05469231 0.259392 -0.20772544 0.51690704 -0.26394933 -0.44463417 0.9749922 -0.15516259 0.034145012 0.20924707 0.4548651 0.8606964 0.22257385 -0.036456827 -0.7003033 -0.6732938 0.38725471 0.2365726 0.50494736 -0.9767058 0.7546747 -0.5981326 -0.23622671 -1.1339816 -0.52844286 -0.80289525 -0.14356892 -0.6809033 1.2016777 0.07910654 0.83882785 0.6126696 0.21423902 0.45694238 -0.012321792 0.74100274 0.29083055 0.61832136 -0.10195641 -0.20573688 0.49646658
investasi -0.65975 0.0036673585 0.7702547 1.0096875 -0.20038123 -1.0680422 0.20983838 0.7651714 -0.535813 0.25204584 -1.1399812 -0.23904847 -0.09326285 0.023427341 -0.33748874 -0.25755325 -0.6749036 -0.13658981 -0.714135 -0.68040186 0.13602681 0.5475807 0.07285411 -0.10352543 -0.2559227 0.11035513 -1.0583537 -0.73804903 -0.06221056 0.5551497 -0.2837188 -0.05512532 0.010333743 -0.11987745 -0.8468261 0.62634706 -0.36060295 -0.22171678 -0.078516655 -0.9499164 0.14035986 -0.16442254 -1.1972169 0.81919765 -0.109497614 -0.5213505 -0.1114685 -0.22682355 0.33922106 -0.8979511 -0.105700724 -0.25925767 -0.30119982 0.20679289 -0.18033585 0.13245334 -0.46066013 -0.19668639 0.7386273 0.35944536 -0.017632408 0.8267179 0.039399996 -0.054051287 0.5347291 0.23720427 0.6407745 -0.1072286 -0.51473343 0.043007843 -0.07364761 0.44965318 0.16393907 0.420996 -0.044186942 0.014752557 -0.68464047 -0.35755458 -0.7046892 -1.0984831 0.14349914 0.5078949 0.08161611 1.0157467 -1.1791588 -0.3445969 -0.050490998 -0.836536 -0.40803677 0.57060045 0.6190464 0.45317012 0.14053069 -0.7067948 0.5785674 -0.15863852 0.2134067 -0.8093716 0.8709388 -0.43034476
terhadap -0.27709857 0.7178711 -0.40147257 0.96657324 -0.2195311 0.48937002 0.084792644 -0.07374505 -0.5802509 -0.08984274 -0.33183813 0.19371822 -0.4021139 -0.1564757 -0.21111599 -0.13058433 -0.39532432 0.55317974 0.3642095 -1.1859527 -0.1740843 0.6577883 0.56074303 -0.5101029 -0.68539214 0.79592127 -0.23067898 0.4581705 0.7179921 0.23453595 -0.69616103 0.51536345 0.1850896 -0.42518803 -1.0361066 -0.11029797 -0.7154503 -0.6763856 -0.44384557 0.018941477 -0.15746863 -0.19996598 0.5443355 0.2048827 -0.037855987 -0.81162435 -0.33424142 0.3563382 -0.9389456 0.05917205 0.9199694 0.14187822 0.5279523 -0.3169598 -0.779928 -0.10870635 0.60241145 -0.5915036 -0.45574343 -0.025771443 -0.66114813 0.7723629 -0.4537161 -0.23898725 0.37109774 -0.56584585 -0.41773912 0.13037843 -0.31774908 -0.66557336 0.34567896 0.6385011 -1.1098096 0.99043536 0.39273548 0.24265663 -0.6477241 0.410325 -0.6697955 -0.5893242 0.012472986 0.6629843 -0.2675042 0.8290973 0.03200134 0.17065203 -0.069233306 -0.66014105 -0.0038520412 0.080666624 0.6409342 0.2527788 0.026884902 -0.6937598 -0.13709906 -0.050652876 0.5920757 -0.6257655 1.2584745 0.7754438
korban -0.32918772 0.16711974 0.08057965 0.6144858 0.544877 -0.21813208 -0.058299035 1.1185938 0.08980017 -0.5328744 -0.44826365 -0.93447566 0.27946603 0.78855157 0.31085595 -0.15423265 0.5684297 0.5379624 0.503376 0.69710946 -0.18610565 0.40862355 0.44443205 0.26876423 0.5967677 0.56809586 -0.8195975 0.17931879 -0.65756226 -0.1018727 0.63540304 -0.27638668 1.0431846 -0.1640206 -0.4366989 0.29380253 0.20118697 -0.66097194 -0.52697885 0.5785389 -0.7371644 -0.64841074 -0.88359886 -0.049761444 -0.20148355 0.05659345 0.49003792 0.70422846 0.4453846 0.6830213 0.36139792 0.25490096 -0.133887 -0.4591603 -0.2779796 1.0377758 0.047978144 -0.872505 -0.82910275 0.6086056 -0.078149356 0.84999955 -0.34699363 0.084650874 -0.922632 0.17384541 -0.35499188 0.007131939 -0.96813077 0.34782943 -0.2926222 -0.057351798 -0.30594212 -0.6956743 -0.3293744 -0.30128518 0.14181508 0.88189983 1.0718588 -0.5826258 -0.23044185 0.3110496 -0.07481607 0.84287006 -1.0668421 -0.42758825 0.5157432 0.42189902 0.6566717 0.18481845 0.7658893 0.68728673 0.06185146 0.610269 -0.11497309 0.080989584 -0.84246105 0.18859214 0.11166412 0.37323397
orang 0.32016033 -0.53399783 -0.31163707 0.8785958 -0.91092336 -0.37052694 1.2865963 0.48783022 -0.3641271 -0.29758114 -0.14491859 -0.61924917 1.6850182 -0.57042825 -0.05961052 -1.2853432 0.5392392 -0.24921796 0.37795034 -0.9291381 -0.06938415 0.066017635 -0.07946212 0.092603885 -0.4818786 0.43357497 -0.9144496 0.17724851 -0.63825357 0.30721647 -0.42735165 0.62749 0.24189447 -0.26288587 0.073814966 0.5338803 -0.11089317 -0.7521442 -0.76108885 -0.15591961 -0.4760703 -0.84303916 -0.4423331 0.20195916 -0.39283133 0.68859863 0.14324974 0.22327799 -0.21549648 0.17146741 -0.23469645 0.29922584 0.6360157 -0.89916366 -0.021623772 1.0267165 -0.22098552 0.1262777 -0.5559879 0.55202115 -1.3350363 0.13378786 -0.07497294 0.23790741 -1.4037719 0.7376648 0.027588516 0.44816262 -0.8800608 -0.5028902 -0.52797055 0.16349246 0.5839593 0.26504982 0.04914088 -0.016205104 -0.28826883 1.10476 -0.4434835 -0.11589631 -0.19357821 0.6331417 -0.15707989 0.09300375 -0.16698444 0.32256138 -0.19878474 -0.529953 0.65949893 -0.014537922 0.25568956 0.19474964 -0.060542997 0.4761491 -0.07167683 0.79215544 0.11680528 -0.089388855 0.6476967 -0.36419722
tak 0.028022334 0.07565568 0.110722 -0.30906886 1.1052742 0.5511734 0.7150368 0.88424426 -0.6201523 -0.4739387 -0.7705186 0.6116018 0.2689872 -0.12209612 0.1958268 -0.71362984 0.14849055 0.10599122 0.11647092 -0.13111767 0.24653651 0.049663443 0.32667416 0.3359307 0.1985655 -0.015596876 -0.23948477 -0.4754172 -0.16132413 -0.31527185 -0.38644642 -0.025088001 0.010651476 -1.0092075 0.42539462 0.8275195 -0.6327912 0.1784174 0.7000922 0.06499521 -0.9284464 -0.46841013 -0.899177 0.1411453 0.2991745 -0.4249889 -0.54608315 0.18124416 0.8521603 0.3987417 0.7288346 -0.38076392 -0.51077163 0.2596739 0.14928895 0.45130312 -0.25446495 0.20307758 -0.6486718 0.027037518 -0.8981577 0.9204387 0.17439595 0.6089032 -0.011737026 -0.27086097 -0.054747187 0.23303933 -0.1117034 0.8037755 -0.2323662 0.5938089 -0.60769093 -1.2097696 -0.35060918 -0.5274646 -0.53830487 -0.65874386 -0.124623336 -0.2995432 -0.38473332 0.9535428 -1.0482647 -1.0802873 -0.6763957 -0.5594985 0.5846889 -0.053746086 0.53689206 0.5689265 0.13388383 0.7176903 -0.2638609 -0.18348074 0.70629424 -1.0242198 -0.12210293 0.54147905 0.37953967 0.7175131
alasan -0.3362887 0.4099963 -0.14060675 -0.22186285 0.94482684 0.16494423 0.2570477 0.5005477 -0.587848 -0.194884 0.40979925 -0.16464348 0.6490515 -0.5118957 0.2654973 -0.10219878 -0.103846885 0.016822778 -1.2756541 -0.006225786 -0.23581216 0.61776376 0.5478436 -0.93034554 0.05914372 0.6617856 0.34960148 -0.080309756 0.17742975 -0.8465999 -0.35902748 -0.33090907 -0.6297641 -0.76797605 -0.4077406 0.3291154 -0.34209353 0.2006524 0.4788122 -0.6482036 -0.09357078 -0.15706217 -0.7610529 0.71321535 -0.0440471 -0.2229242 -0.62265587 -0.49568635 0.1792484 -0.23516235 1.0150301 -0.07017504 -0.21909885 0.3811444 0.17117067 -0.42986134 -0.13306883 0.27168825 0.19191724 0.054302957 -0.36572874 0.49051994 0.041686997 0.38584548 0.43919566 0.35017386 -0.60106725 -0.008319327 -1.1840411 -0.93917423 0.046877887 -0.023305891 -0.32796213 -0.66757214 -0.1900429 -0.39350215 -0.6526896 0.376127 0.40192038 -1.3399549 -0.60394365 -0.45369348 -0.6614929 -0.10054737 -0.7921601 0.22071913 0.45451546 0.7829941 0.40536004 -0.27596223 0.55893874 -0.016791381 -0.8777632 0.2603076 0.6852061 -0.38798675 0.03549583 0.8098277 0.11062339 0.045738578
teknologi 0.22685221 -0.10089343 0.7313999 1.1441262 -0.6320622 -0.9088393 -0.30862263 -0.5721259 -1.0618197 0.12029471 -0.06783558 0.044726916 0.1805071 -0.011081461 0.7749633 -0.9399954 0.37558657 0.24309185 -0.919893 -0.10441706 0.43509838 0.15557514 0.8181412 0.18522994 -0.34664923 0.094664514 -0.4926745 0.4594612 -0.20671484 0.5230169 -0.5502769 0.14375198 0.64715195 -0.07847101 -0.82676226 -0.019284042 0.46484503 -0.87918764 0.25872156 -0.08051054 0.15198179 -0.4775955 -0.49701923 0.79397196 -0.6775416 -0.663054 -0.4731744 -0.2087635 0.04170776 -0.69597816 -0.0725588 0.35286278 -0.054523066 -0.5812523 -0.19372377 0.16677445 -0.15071964 0.0658662 0.99361587 0.5745172 -0.4616813 0.78292716 -0.022522788 -1.2560661 -0.47805715 0.6850549 0.6252543 -0.13360402 -0.50741744 -0.42229998 -0.3070202 0.5341611 -0.61281765 -0.24805473 -0.37772253 0.43310747 -0.18218628 -0.15941475 -0.4800515 -0.44860384 -0.31292698 0.54582286 0.14247872 0.48155704 0.046520397 0.39836365 -0.3474829 -0.9738547 1.0915244 0.47802278 0.65258217 0.13939056 -0.25897536 0.10945937 0.62758255 -0.20357536 0.06275835 0.097853035 -0.54321355 -0.21794093
banyak -0.18231457 -0.054970432 0.06933536 2.2231145 -0.1998018 -0.4016798 -0.19120452 1.0067766 -0.6953202 0.02162852 -0.7320761 0.31458044 1.363491 -0.79726964 0.2796521 -0.09923121 -0.09626876 -0.63178337 -0.70461625 -0.577194 -0.19124456 1.4727056 0.986186 0.062012833 -0.011618748 0.29621634 0.5056411 0.13465859 0.11595008 0.3173498 -0.3526811 -0.06586877 0.18276204 0.09956574 -0.6136133 -0.046023462 -0.3368812 -0.5686364 -0.3529815 -0.09912693 0.44331014 -0.22591938 -0.1360537 -0.030094683 0.21660954 0.07298781 -0.052419875 0.028547153 0.78685397 -0.10049922 -0.17071147 0.73650646 1.2925549 -0.15489064 0.56298226 0.31751496 -0.44313297 0.83604896 0.95171636 -0.68629485 -0.2488787 0.82780373 0.28483507 -0.0140148625 -0.4066131 0.11565306 -0.37587282 -0.48138374 -0.8006943 -0.58740485 -0.3739486 -0.7831078 0.78209835 0.0025204418 0.07681688 -0.4276962 0.05430251 -0.29273596 0.09502767 -0.37478185 0.07900819 0.47657824 -0.20197333 0.117408104 0.74087757 0.18875031 0.71259534 -0.25522682 0.9149778 -0.6192854 1.2520785 -0.79390585 -0.038604267 0.0613427 0.27494317 0.45521426 -0.043382 0.7164248 0.22609173 0.07902286
penyebab -0.7901635 0.3184199 0.11296874 0.43832722 0.5043391 0.17642757 -0.14814964 1.4782379 0.06651031 -0.03644053 0.22523491 -0.6114841 0.23085952 -0.43393344 0.23169471 0.091284886 0.19779399 0.42852676 0.077360325 0.72944325 -0.22094716 0.25653413 1.3615736 0.036267977 -1.1760964 -0.50543183 -0.1667084 0.5933353 0.13629667 -0.873717 0.23421891 -0.35412315 0.3432688 0.03075336 -0.21011324 -0.34259567 0.6425348 -0.5328783 0.42559826 0.15198463 -0.32816765 -0.1605505 -0.5101908 0.66661394 0.46732 0.29032218 -0.35171583 0.2174703 0.14210087 -0.76926094 1.0374886 -0.046671957 0.2723452 -0.6547953 -0.35409504 0.732509 -0.2632082 -0.9869942 -0.08054127 -0.011124229 -0.034409467 0.21031778 0.04301483 -0.3821887 -0.14657916 -0.24469692 -0.13936152 0.38420507 -0.15394431 -0.49901623 0.31685913 0.21248873 -0.23465873 0.028320896 -0.91253984 -0.65847486 -0.23903881 0.32973182 -0.09510951 -1.2812725 -0.03453605 0.13319065 0.03579135 0.103411056 -0.03581716 0.51015514 0.81918025 0.01982173 0.27084604 -0.97520304 0.34600198 -0.90093404 -0.23172298 0.1379731 1.144347 0.28619656 -0.19975136 0.1865275 0.08111618 -0.40012392
baik -0.12670456 -0.6231279 0.09573997 0.26582038 -0.36765626 -0.31097525 0.31555802 1.2664828 -0.54711235 -0.5813158 -0.1671679 -0.2646116 0.2620536 -0.25844318 -0.42107597 -0.454326 0.37471524 -0.058482103 -0.3365792 -0.3731529 -0.055364862 0.53201056 0.30149174 -0.35775506 -0.39346203 -0.24365517 -0.22041702 0.37028554 -0.20214583 -0.26949212 0.078268774 -0.50303584 -0.22515744 -0.7825015 0.036118973 -0.052826717 -0.118439615 -0.033686962 0.30520573 0.44366887 0.23655178 -0.6104535 -0.4906353 0.34806442 0.6976868 -0.16501087 0.53384656 -0.094608426 1.1940815 -0.92319363 -0.458246 1.2082697 0.018803017 0.10251504 -0.01807052 -0.67020667 -0.62137836 -0.36886474 -0.10383101 -0.34039465 0.09337125 0.08440738 0.27824596 0.08760319 0.34712917 1.1005623 -0.668742 0.3121552 -0.7785123 -0.23044737 0.857779 -0.042047575 0.04823529 -0.57333803 -0.7493443 -0.10061227 0.24463359 -0.6494109 -0.49251813 -0.05556355 -0.605356 -0.60678095 0.6008381 0.6892375 -0.685517 0.548571 -0.37673002 0.07434848 0.3976825 0.4518548 0.6172315 -0.45030156 -0.12488134 -0.6118043 0.53242636 0.61318713 -0.036410924 -0.83366174 -0.5014128 0.22546071
